<?xml version="1.0"?>
<opencv_storage>
<my_svm type_id="opencv-ml-svm">
  <svm_type>C_SVC</svm_type>
  <kernel><type>LINEAR</type></kernel>
  <C>1.</C>
  <term_criteria><epsilon>1.1920928955078125e-007</epsilon>
    <iterations>1000</iterations></term_criteria>
  <var_all>7500</var_all>
  <var_count>7500</var_count>
  <class_count>2</class_count>
  <class_labels type_id="opencv-matrix">
    <rows>1</rows>
    <cols>2</cols>
    <dt>i</dt>
    <data>
      -1 1</data></class_labels>
  <sv_total>1</sv_total>
  <support_vectors>
    <_>
      -9.79016295e-006 -9.03619730e-006 -8.54603149e-006
      -8.92862590e-006 -9.14991779e-006 -9.60654779e-006
      -1.00414627e-005 -9.88124430e-006 -9.29039197e-006
      -9.48360503e-006 -1.03156744e-005 -1.11348299e-005
      -1.12523112e-005 -1.04451028e-005 -1.04407227e-005
      -9.64506671e-006 -1.12717289e-005 -1.26338873e-005
      -1.28696211e-005 -1.28990669e-005 -1.18962926e-005
      -1.19863862e-005 -1.30943927e-005 -1.38517344e-005
      -1.39503254e-005 -1.40992252e-005 -1.47132932e-005
      -1.51433960e-005 -1.42585895e-005 -1.34670690e-005
      -1.23653326e-005 -1.08408121e-005 -1.04172404e-005
      -8.96778511e-006 -8.66089431e-006 -9.00089071e-006
      -9.37376080e-006 -9.53839481e-006 -9.71451846e-006
      -1.06684392e-005 -1.10468100e-005 -1.03172188e-005
      -1.27487738e-005 -1.44591158e-005 -1.41366345e-005
      -1.40479615e-005 -1.48220161e-005 -1.45968615e-005
      -1.70253006e-005 -1.80304578e-005 -1.87201185e-005
      -1.88395443e-005 -1.82234180e-005 -1.84482597e-005
      -1.89181428e-005 -1.94319946e-005 -1.81692212e-005
      -1.80294792e-005 -1.72130585e-005 -1.67888920e-005
      -1.64166777e-005 -1.61029620e-005 -1.59938299e-005
      -1.60003256e-005 -1.68381939e-005 -1.64983885e-005
      -1.64066369e-005 -1.65146394e-005 -1.64125777e-005
      -1.64506600e-005 -1.66937807e-005 -1.68519382e-005
      -1.58617549e-005 -1.54747704e-005 -1.49543048e-005
      -9.96489689e-006 -9.30764782e-006 -8.89549847e-006
      -9.03261389e-006 -9.61882597e-006 -9.99895383e-006
      -1.06982470e-005 -1.03308648e-005 -9.60103716e-006
      -9.49492824e-006 -1.04546707e-005 -1.05845165e-005
      -1.07222431e-005 -1.04379424e-005 -9.95577466e-006
      -9.75009789e-006 -1.07673322e-005 -1.14126833e-005
      -1.24973767e-005 -1.30135641e-005 -1.25091619e-005
      -1.29743130e-005 -1.38629466e-005 -1.45598833e-005
      -1.39678741e-005 -1.34393076e-005 -1.36698955e-005
      -1.42549789e-005 -1.39087624e-005 -1.40118500e-005
      -1.31099141e-005 -1.26784753e-005 -1.26746263e-005
      -1.39074891e-005 -1.49095840e-005 -1.48961926e-005
      -1.37766901e-005 -1.35370165e-005 -1.25338784e-005
      -1.30401941e-005 -1.23137997e-005 -9.88078682e-006
      -1.00274801e-005 -1.13976903e-005 -1.14898521e-005
      -1.25283150e-005 -1.37509933e-005 -1.32895721e-005
      -1.83938701e-005 -1.90214705e-005 -1.98801863e-005
      -2.00265185e-005 -1.93691048e-005 -1.89987786e-005
      -1.91550116e-005 -1.91181607e-005 -1.84632918e-005
      -1.81213782e-005 -1.72160926e-005 -1.64374906e-005
      -1.58301809e-005 -1.55446214e-005 -1.57949944e-005
      -1.63092009e-005 -1.69801569e-005 -1.63938366e-005
      -1.66132158e-005 -1.62776360e-005 -1.61746757e-005
      -1.63087625e-005 -1.64832436e-005 -1.69730683e-005
      -1.61705502e-005 -1.54817335e-005 -1.53526962e-005
      -9.25184122e-006 -9.40082282e-006 -9.30285296e-006
      -9.48238448e-006 -9.30655006e-006 -9.70913879e-006
      -1.02701570e-005 -9.54257121e-006 -9.28462123e-006
      -8.70038821e-006 -9.95740993e-006 -1.03910497e-005
      -9.77337186e-006 -9.48350953e-006 -9.44141357e-006
      -9.58677174e-006 -1.04537939e-005 -1.04522951e-005
      -1.08096401e-005 -1.17377431e-005 -1.15052399e-005
      -1.28846832e-005 -1.38031055e-005 -1.38264541e-005
      -1.44368896e-005 -1.42581193e-005 -1.36055060e-005
      -1.40183374e-005 -1.36099998e-005 -1.51074209e-005
      -1.58600014e-005 -1.58527873e-005 -1.77510938e-005
      -1.91799008e-005 -2.02498231e-005 -2.04462413e-005
      -1.97111331e-005 -1.84647979e-005 -1.80196639e-005
      -1.78568262e-005 -1.38485048e-005 -1.02161293e-005
      -8.80751941e-006 -1.07170235e-005 -1.08877257e-005
      -1.12925300e-005 -1.32038303e-005 -1.46034427e-005
      -1.77240290e-005 -1.94493769e-005 -2.00947052e-005
      -1.94035074e-005 -1.97143254e-005 -1.94576842e-005
      -1.95616831e-005 -1.95916909e-005 -1.79610597e-005
      -1.69341511e-005 -1.64493231e-005 -1.58450730e-005
      -1.55909529e-005 -1.49576381e-005 -1.53945475e-005
      -1.58146722e-005 -1.67289818e-005 -1.68867082e-005
      -1.68162805e-005 -1.66419632e-005 -1.66689533e-005
      -1.62250581e-005 -1.62690667e-005 -1.65684014e-005
      -1.67767430e-005 -1.62117412e-005 -1.61620956e-005
      -9.01347175e-006 -9.10785820e-006 -9.50419872e-006
      -9.22658728e-006 -9.00791565e-006 -9.65452818e-006
      -1.05260733e-005 -9.37588993e-006 -8.70913118e-006
      -8.67762810e-006 -9.57689008e-006 -9.90039371e-006
      -9.06539753e-006 -9.61507067e-006 -9.53062226e-006
      -9.53096787e-006 -1.07651149e-005 -1.05592144e-005
      -1.07751430e-005 -1.07308324e-005 -1.10647206e-005
      -1.19850156e-005 -1.37921343e-005 -1.43469051e-005
      -1.37487013e-005 -1.40219599e-005 -1.47373794e-005
      -1.50017313e-005 -1.61230091e-005 -1.89447001e-005
      -1.98690723e-005 -2.01767543e-005 -1.98017806e-005
      -2.18751065e-005 -2.26398734e-005 -2.39379424e-005
      -2.41513408e-005 -2.37917666e-005 -2.46132477e-005
      -2.41279831e-005 -1.96267320e-005 -1.52808243e-005
      -1.39665590e-005 -1.42010122e-005 -1.18033404e-005
      -1.06538273e-005 -1.19012311e-005 -1.43871557e-005
      -1.56359838e-005 -1.75866644e-005 -1.85669705e-005
      -1.85273075e-005 -1.92578391e-005 -1.94428812e-005
      -1.98257330e-005 -1.98185371e-005 -1.72102791e-005
      -1.66492173e-005 -1.61852913e-005 -1.54871632e-005
      -1.53668498e-005 -1.54541485e-005 -1.57489249e-005
      -1.62349352e-005 -1.69721807e-005 -1.70236490e-005
      -1.70305902e-005 -1.68455681e-005 -1.66912796e-005
      -1.59968422e-005 -1.64415924e-005 -1.71209722e-005
      -1.67484995e-005 -1.65810416e-005 -1.67447997e-005
      -9.62049944e-006 -9.55110772e-006 -9.57482825e-006
      -9.11574443e-006 -9.09684786e-006 -9.79764536e-006
      -1.05610525e-005 -9.73425631e-006 -9.23658263e-006
      -9.09731534e-006 -1.01155774e-005 -9.98565883e-006
      -9.31028353e-006 -1.07782880e-005 -1.02285230e-005
      -9.63721595e-006 -1.05515037e-005 -1.05382414e-005
      -1.09700704e-005 -1.07932083e-005 -1.03164793e-005
      -1.08220793e-005 -1.29530499e-005 -1.37445177e-005
      -1.17828567e-005 -1.28003530e-005 -1.46790453e-005
      -1.70258863e-005 -1.94285512e-005 -2.23393527e-005
      -2.28243025e-005 -2.38319317e-005 -2.32085422e-005
      -2.40247882e-005 -2.27213495e-005 -2.17938978e-005
      -2.22439376e-005 -2.38084594e-005 -2.59415847e-005
      -2.77912204e-005 -2.75366783e-005 -2.24508676e-005
      -1.95570738e-005 -1.68159222e-005 -1.20507102e-005
      -9.11173993e-006 -9.46780256e-006 -1.33822487e-005
      -1.45144186e-005 -1.67571725e-005 -1.76911108e-005
      -1.85152439e-005 -1.86022844e-005 -1.91906074e-005
      -1.98608250e-005 -1.98783855e-005 -1.73000426e-005
      -1.66340196e-005 -1.59082447e-005 -1.57937975e-005
      -1.57928480e-005 -1.59835799e-005 -1.59951469e-005
      -1.65457568e-005 -1.73739318e-005 -1.72185955e-005
      -1.75371624e-005 -1.69375835e-005 -1.66042482e-005
      -1.61446369e-005 -1.64223802e-005 -1.68972583e-005
      -1.66364116e-005 -1.62202195e-005 -1.66728496e-005
      -1.02492322e-005 -9.80692676e-006 -9.48840443e-006
      -8.89332932e-006 -8.45409522e-006 -9.44309613e-006
      -1.01221840e-005 -9.74931663e-006 -9.33997671e-006
      -9.71287318e-006 -1.01779333e-005 -9.87054955e-006
      -9.26443317e-006 -1.07375417e-005 -9.97333154e-006
      -8.37693551e-006 -9.11758525e-006 -1.04630126e-005
      -1.10845667e-005 -1.00103916e-005 -9.89530236e-006
      -1.04964292e-005 -1.12295966e-005 -1.20680215e-005
      -1.23111658e-005 -1.29578711e-005 -1.57935428e-005
      -1.77356360e-005 -1.98634862e-005 -2.21491446e-005
      -2.25837939e-005 -2.35623047e-005 -2.37182612e-005
      -2.34793788e-005 -2.09130449e-005 -1.84880882e-005
      -1.82702042e-005 -1.90391474e-005 -2.18083242e-005
      -2.42737351e-005 -2.56499352e-005 -2.21146765e-005
      -1.79347026e-005 -1.58241201e-005 -1.25359138e-005
      -9.59816771e-006 -9.46038836e-006 -1.17982572e-005
      -1.26959649e-005 -1.45211989e-005 -1.60996224e-005
      -1.82008243e-005 -1.90133615e-005 -1.95033499e-005
      -1.90697137e-005 -1.90633455e-005 -1.74312117e-005
      -1.65228230e-005 -1.60482577e-005 -1.61776425e-005
      -1.59835454e-005 -1.63000750e-005 -1.64679768e-005
      -1.72006494e-005 -1.78765094e-005 -1.74940742e-005
      -1.72272703e-005 -1.67588696e-005 -1.66064692e-005
      -1.61665193e-005 -1.62878168e-005 -1.70415515e-005
      -1.66488589e-005 -1.60884538e-005 -1.64460980e-005
      -1.05965801e-005 -1.04931469e-005 -9.85595761e-006
      -8.74420493e-006 -8.32395199e-006 -8.63238347e-006
      -9.37406003e-006 -9.57237535e-006 -9.76773117e-006
      -9.84515827e-006 -9.93660979e-006 -9.97861662e-006
      -9.10144536e-006 -9.41333019e-006 -8.70721760e-006
      -7.18705269e-006 -7.07355912e-006 -8.52487483e-006
      -9.09499704e-006 -9.28474310e-006 -1.02550130e-005
      -1.07692495e-005 -1.09827861e-005 -1.11168047e-005
      -1.28864731e-005 -1.29780747e-005 -1.50389596e-005
      -1.79191375e-005 -1.93478609e-005 -1.84695709e-005
      -1.81384767e-005 -1.70929434e-005 -1.63982531e-005
      -1.51358254e-005 -1.60748332e-005 -1.78597820e-005
      -1.75793339e-005 -1.76034264e-005 -1.90298197e-005
      -2.21394876e-005 -1.94773747e-005 -1.67467369e-005
      -1.38517471e-005 -1.41237379e-005 -1.28075671e-005
      -1.04213368e-005 -9.15498822e-006 -8.39715449e-006
      -7.68580594e-006 -9.42912266e-006 -1.31186980e-005
      -1.66955797e-005 -1.84335240e-005 -1.86705420e-005
      -1.78130631e-005 -1.75025252e-005 -1.76130325e-005
      -1.72387008e-005 -1.65619749e-005 -1.65587535e-005
      -1.61990283e-005 -1.63382174e-005 -1.63884615e-005
      -1.71084321e-005 -1.70807743e-005 -1.68436654e-005
      -1.65915899e-005 -1.69055711e-005 -1.67358994e-005
      -1.62368706e-005 -1.63435252e-005 -1.68139177e-005
      -1.67730104e-005 -1.64189387e-005 -1.70137973e-005
      -1.09906041e-005 -1.10648998e-005 -1.01516489e-005
      -9.42779479e-006 -8.73830049e-006 -9.08313450e-006
      -9.53560357e-006 -1.02801187e-005 -1.06051803e-005
      -1.03463863e-005 -9.72225189e-006 -8.99876795e-006
      -8.28678640e-006 -7.42765997e-006 -6.78651259e-006
      -6.00373596e-006 -6.66427241e-006 -7.15743590e-006
      -7.41754229e-006 -8.20647165e-006 -9.88746888e-006
      -9.90765238e-006 -8.16131978e-006 -6.77504750e-006
      -7.30855527e-006 -9.17143461e-006 -1.40472166e-005
      -1.84763539e-005 -2.04059543e-005 -1.87154092e-005
      -1.45220793e-005 -1.19834222e-005 -1.40641405e-005
      -1.72679320e-005 -1.99474125e-005 -2.10401558e-005
      -2.16662884e-005 -2.09751015e-005 -1.99027272e-005
      -1.85745157e-005 -1.40098591e-005 -9.82441907e-006
      -9.80195182e-006 -1.29326345e-005 -1.34018974e-005
      -1.16880019e-005 -7.16103614e-006 -3.36360154e-006
      -1.92293078e-006 -4.37716744e-006 -8.98700000e-006
      -1.43363814e-005 -1.73744065e-005 -1.81961641e-005
      -1.76367212e-005 -1.72615692e-005 -1.71964111e-005
      -1.64917019e-005 -1.66248719e-005 -1.64978228e-005
      -1.59656283e-005 -1.55570178e-005 -1.60220952e-005
      -1.62439683e-005 -1.65871097e-005 -1.63029308e-005
      -1.64906778e-005 -1.65295569e-005 -1.63806144e-005
      -1.62501983e-005 -1.62717606e-005 -1.66352074e-005
      -1.67226917e-005 -1.72023902e-005 -1.75502519e-005
      -1.10157944e-005 -1.13348278e-005 -1.09076573e-005
      -1.06678026e-005 -1.00957395e-005 -1.03291750e-005
      -1.06707139e-005 -1.13558526e-005 -1.01131545e-005
      -9.44046042e-006 -8.78308947e-006 -8.16542524e-006
      -7.56325699e-006 -6.21219124e-006 -5.89146657e-006
      -5.79258494e-006 -4.75090837e-006 -6.22593871e-006
      -7.54802022e-006 -8.04514548e-006 -8.22566108e-006
      -5.17312810e-006 -1.65771451e-006 3.59275219e-007 -9.24934113e-007
      -4.16798684e-006 -6.24196082e-006 -7.62648142e-006
      -1.09362154e-005 -1.08753966e-005 -6.20600667e-006
      -1.99690044e-006 -4.00189492e-006 -9.05822344e-006
      -1.41242408e-005 -1.92474272e-005 -2.28505523e-005
      -2.01997282e-005 -1.54230438e-005 -1.28640677e-005
      -8.09507947e-006 -1.46430266e-005 -1.87387341e-005
      -1.85052777e-005 -1.54985191e-005 -1.17623686e-005
      -7.54134908e-006 -4.80286644e-006 -1.30910519e-006 4.18664513e-006
      5.91164223e-007 -1.32794867e-005 -2.00755767e-005 -1.68629940e-005
      -1.47196706e-005 -1.76715603e-005 -1.62819688e-005
      -1.57148897e-005 -1.62925207e-005 -1.62184188e-005
      -1.56683254e-005 -1.51310314e-005 -1.53671899e-005
      -1.60559102e-005 -1.56931419e-005 -1.61328371e-005
      -1.65316396e-005 -1.66919181e-005 -1.67003454e-005
      -1.67081271e-005 -1.66718073e-005 -1.71563515e-005
      -1.65649071e-005 -1.71083848e-005 -1.71216598e-005
      -1.06124353e-005 -1.13215747e-005 -1.11079544e-005
      -1.08781633e-005 -1.04417313e-005 -1.05132149e-005
      -1.11193094e-005 -1.14253517e-005 -1.01522010e-005
      -9.30217539e-006 -8.15104431e-006 -7.13348027e-006
      -7.10582481e-006 -5.95426445e-006 -5.75223839e-006
      -6.27188911e-006 -5.79315156e-006 -5.98668794e-006
      -6.11060659e-006 -7.08200787e-006 -8.23697064e-006
      -3.18983098e-006 2.80977360e-006 8.10105939e-006 5.84117925e-006
      1.62305207e-006 -1.03015680e-006 -1.39671135e-006 -1.67299891e-006
      9.20776472e-007 1.07333972e-006 1.79666267e-006 4.83788472e-006
      1.49218931e-006 -1.27201906e-006 -4.03022250e-006 -8.18609169e-006
      -9.16605495e-006 -9.66642074e-006 -1.42681911e-005
      -1.23175496e-005 -9.96951167e-006 -1.00584493e-005
      -1.42091631e-005 -1.35179107e-005 -6.93012362e-006
      -5.72712815e-006 -7.44664521e-006 -5.91985554e-007 4.55569716e-006
      2.21112805e-006 -8.82065069e-006 -1.70976255e-005 -1.68193201e-005
      -1.62752858e-005 -1.77333513e-005 -1.60120799e-005
      -1.61693133e-005 -1.65689944e-005 -1.66203699e-005
      -1.57717823e-005 -1.55290800e-005 -1.56831102e-005
      -1.57469040e-005 -1.56029764e-005 -1.60481359e-005
      -1.64528628e-005 -1.66527461e-005 -1.65764122e-005
      -1.61413500e-005 -1.59507945e-005 -1.65566253e-005
      -1.59852698e-005 -1.67393227e-005 -1.72256568e-005
      -1.01476871e-005 -1.12715206e-005 -1.11815416e-005
      -1.10227620e-005 -1.12738553e-005 -1.09939765e-005
      -1.07536398e-005 -1.05878526e-005 -1.00655980e-005
      -9.06329660e-006 -7.32626449e-006 -6.69187011e-006
      -6.79807226e-006 -6.56494922e-006 -5.98226507e-006
      -6.78916558e-006 -5.75280365e-006 -5.89793990e-006
      -6.32450474e-006 -6.29858323e-006 -6.73466457e-006
      -6.63402943e-007 5.69428812e-006 1.10079500e-005 5.55991119e-006
      -2.58902816e-007 -2.38439611e-006 -6.03868102e-007 3.21551420e-006
      6.44628790e-006 4.16502144e-006 3.22687924e-006 5.42443286e-006
      4.08193182e-006 4.26483348e-006 4.83147051e-006 3.16001524e-006
      5.38923757e-007 -1.73329909e-007 -5.59969067e-006 -9.28738984e-007
      2.13228054e-006 1.72638443e-006 -3.14594240e-006 -3.61689195e-006
      2.54386646e-006 5.19347032e-006 3.79375865e-006 3.16535647e-006
      4.83412168e-006 2.04901608e-006 -5.43219312e-006 -1.14849090e-005
      -1.41407727e-005 -1.60233903e-005 -1.76850390e-005
      -1.62454344e-005 -1.58755047e-005 -1.70268577e-005
      -1.64784724e-005 -1.61894859e-005 -1.56678107e-005
      -1.55938942e-005 -1.62429224e-005 -1.60336076e-005
      -1.64965331e-005 -1.65489546e-005 -1.68242004e-005
      -1.66024256e-005 -1.58891798e-005 -1.56354308e-005
      -1.59561278e-005 -1.55343732e-005 -1.65251204e-005
      -1.69715950e-005 -9.59479166e-006 -1.06558828e-005
      -1.12719927e-005 -1.12608723e-005 -1.10777155e-005
      -1.08397180e-005 -9.97828283e-006 -9.79816650e-006
      -9.63429011e-006 -8.23676237e-006 -6.56507245e-006
      -5.78877371e-006 -5.59088767e-006 -6.01365582e-006
      -5.73489933e-006 -5.73300440e-006 -4.28500925e-006
      -6.07883976e-006 -6.48254490e-006 -4.69977113e-006
      -2.71284148e-006 4.67973996e-006 9.76648516e-006 9.28401914e-006
      3.21056791e-006 -4.65666426e-006 -9.89704131e-006 -8.68951611e-006
      -3.59826163e-006 8.48196180e-007 5.05836567e-007 1.78894322e-006
      8.88655507e-007 1.07489609e-006 4.71136445e-006 7.11579378e-006
      7.16109798e-006 6.90059187e-006 9.76826141e-006 6.82710242e-006
      9.05753859e-006 9.41309190e-006 1.09936009e-005 6.69707606e-006
      6.20736228e-006 9.14759767e-006 1.02185704e-005 9.98634823e-006
      7.33249817e-006 7.78560297e-006 4.25265580e-006 2.56689759e-007
      -3.32957734e-006 -8.69295036e-006 -1.31246125e-005
      -1.55328744e-005 -1.68870756e-005 -1.74636498e-005
      -1.75178375e-005 -1.72822783e-005 -1.62610140e-005
      -1.63122004e-005 -1.63500572e-005 -1.65290348e-005
      -1.63554578e-005 -1.69210962e-005 -1.73593271e-005
      -1.72567416e-005 -1.73726585e-005 -1.64427056e-005
      -1.58107432e-005 -1.63653240e-005 -1.57304530e-005
      -1.62160668e-005 -1.67727576e-005 -9.76302181e-006
      -9.84312828e-006 -1.02667318e-005 -1.04962082e-005
      -1.01935875e-005 -1.01147634e-005 -1.08124841e-005
      -1.04248311e-005 -9.72016005e-006 -8.50229026e-006
      -6.45634054e-006 -5.94828361e-006 -5.82224857e-006
      -6.51789924e-006 -6.29305987e-006 -5.65528353e-006
      -4.43748922e-006 -5.82179291e-006 -5.12580527e-006
      -1.78677544e-006 2.77921595e-006 1.12362313e-005 1.51234863e-005
      7.46923251e-006 2.65817607e-006 -4.98402460e-006 -1.40291040e-005
      -1.72118434e-005 -1.45556032e-005 -8.68125153e-006
      -5.42776161e-006 -1.58149976e-006 -5.94443918e-006 6.15658962e-007
      7.30685406e-006 8.34836646e-006 6.65988273e-006 7.36353559e-006
      1.36274957e-005 1.44036476e-005 8.46996772e-006 9.96069230e-006
      1.09276452e-005 6.91896594e-006 6.43051362e-006 9.43119085e-006
      8.83959092e-006 5.71882720e-006 5.22142682e-006 4.24958216e-006
      3.88423905e-006 7.59705381e-006 6.04069919e-006 -1.39396377e-006
      -9.60337820e-006 -1.40782322e-005 -1.66388709e-005
      -1.71360134e-005 -1.79823310e-005 -1.73691369e-005
      -1.67978251e-005 -1.72676682e-005 -1.66989648e-005
      -1.66827867e-005 -1.65079928e-005 -1.70895473e-005
      -1.75480673e-005 -1.79743583e-005 -1.78748796e-005
      -1.73190838e-005 -1.70822223e-005 -1.70633630e-005
      -1.63333589e-005 -1.64630346e-005 -1.64018657e-005
      -9.28234113e-006 -9.76974752e-006 -9.92363221e-006
      -1.01199967e-005 -1.01712176e-005 -1.01192873e-005
      -1.02461163e-005 -1.01364922e-005 -8.75856676e-006
      -7.52083406e-006 -6.13036764e-006 -5.48869821e-006
      -5.08769608e-006 -5.94330459e-006 -6.13156726e-006
      -4.99665111e-006 -5.15899683e-006 -4.85962937e-006
      -1.75138211e-006 5.08194717e-006 1.06987454e-005 1.47619439e-005
      1.41532619e-005 8.93429296e-006 1.60274521e-006 -7.00407099e-006
      -1.73963454e-005 -2.27206183e-005 -2.44048988e-005
      -2.11275656e-005 -1.62526867e-005 -1.15400690e-005
      -1.04837036e-005 5.46123317e-007 8.95403991e-006 9.53828385e-006
      7.94551670e-006 1.18843545e-005 1.78027421e-005 1.81499363e-005
      9.45835018e-006 7.61395131e-006 3.73954913e-006 -2.42350916e-006
      -4.32284924e-006 2.01421926e-006 3.58899774e-006 1.21603580e-006
      2.16559829e-006 -7.15296338e-008 3.60376845e-007 4.04937327e-006
      4.71747853e-006 -1.70067528e-006 -9.91077104e-006 -1.50905216e-005
      -1.57600352e-005 -1.65985784e-005 -1.74189536e-005
      -1.71262200e-005 -1.67760682e-005 -1.70475687e-005
      -1.67365688e-005 -1.64667199e-005 -1.65902420e-005
      -1.70692783e-005 -1.76393005e-005 -1.75184614e-005
      -1.75432069e-005 -1.69680643e-005 -1.69218147e-005
      -1.73397348e-005 -1.65926285e-005 -1.67923354e-005
      -1.62987417e-005 -1.00200969e-005 -1.01425921e-005
      -9.99346776e-006 -9.57803786e-006 -9.89999899e-006
      -1.03347966e-005 -1.02523973e-005 -1.01698524e-005
      -7.69425787e-006 -6.46373110e-006 -5.37782034e-006
      -4.95451968e-006 -4.61789887e-006 -5.54103190e-006
      -5.53530344e-006 -4.30789032e-006 -5.51557287e-006
      -4.84594784e-006 -1.92830896e-007 8.46128933e-006 1.45956137e-005
      1.54010850e-005 1.13568167e-005 5.51124913e-006 -3.30329044e-006
      -1.13379037e-005 -1.75173936e-005 -1.86744237e-005
      -1.78988485e-005 -1.52558241e-005 -1.18496646e-005
      -6.70978989e-006 -5.07485447e-006 2.10293183e-006 4.41812745e-006
      3.39993221e-006 4.29561896e-006 1.05376275e-005 1.62163178e-005
      1.49451362e-005 1.23398268e-005 9.08308266e-006 2.15376372e-006
      -3.68425094e-006 -6.89507760e-006 -2.77859203e-006
      -4.03234168e-007 -1.43069838e-006 4.85575674e-006 3.26936765e-006
      1.17106799e-006 -1.64960156e-007 -2.19525236e-006 -7.38802419e-006
      -1.24876733e-005 -1.52756802e-005 -1.37866728e-005
      -1.45660424e-005 -1.67728431e-005 -1.71242700e-005
      -1.69580253e-005 -1.70635922e-005 -1.69021951e-005
      -1.67387407e-005 -1.65552010e-005 -1.72114287e-005
      -1.78402770e-005 -1.73880017e-005 -1.75749774e-005
      -1.70168987e-005 -1.69588529e-005 -1.74062588e-005
      -1.67657290e-005 -1.71564916e-005 -1.68210081e-005
      -1.04815535e-005 -1.04147066e-005 -1.01774167e-005
      -9.65634717e-006 -9.98229280e-006 -1.04781411e-005
      -9.98717860e-006 -9.43382383e-006 -6.67513768e-006
      -5.46145884e-006 -4.43784120e-006 -4.09895847e-006
      -4.05454102e-006 -5.12571660e-006 -4.59090961e-006
      -3.69814802e-006 -4.51375263e-006 -4.69341649e-006
      -1.27169289e-006 6.80782568e-006 1.42974295e-005 1.41581913e-005
      8.16574357e-006 3.99390274e-006 -2.34612662e-006 -6.85082068e-006
      -7.09633559e-006 -1.09428379e-006 3.66828590e-006 5.53573727e-006
      6.64973277e-006 7.37078244e-006 1.42136992e-006 -2.49776804e-006
      -6.32562933e-006 -8.00807084e-006 -4.46256172e-006 2.41328507e-006
      8.62726301e-006 1.24991520e-005 8.42625559e-006 8.32508431e-006
      4.08608730e-006 5.56715293e-007 1.02338174e-006 5.70626889e-006
      7.76829802e-006 5.91997377e-006 9.81527592e-006 1.31223987e-005
      1.14381010e-005 5.60033050e-006 -4.56488124e-006 -1.23815626e-005
      -1.43226362e-005 -1.31108272e-005 -1.03822495e-005
      -1.14756058e-005 -1.53758974e-005 -1.66825575e-005
      -1.66926402e-005 -1.64486592e-005 -1.67373437e-005
      -1.67929211e-005 -1.71732681e-005 -1.71124448e-005
      -1.76284229e-005 -1.75677815e-005 -1.76617814e-005
      -1.72305045e-005 -1.72359341e-005 -1.74688539e-005
      -1.72197761e-005 -1.77991733e-005 -1.73476928e-005
      -9.17354828e-006 -9.29065300e-006 -9.10389554e-006
      -8.08105779e-006 -8.51925233e-006 -8.58644671e-006
      -8.01262286e-006 -7.87963654e-006 -6.93600077e-006
      -5.27015754e-006 -3.92559696e-006 -3.96038286e-006
      -3.90235618e-006 -3.92105494e-006 -3.69955046e-006
      -3.28801571e-006 -4.25934650e-006 -3.20343179e-006
      -1.64166670e-006 9.53641404e-007 6.30134355e-006 1.06476518e-005
      8.02027807e-006 3.51248968e-006 -7.72333465e-007 -1.92833750e-006
      -8.18586614e-007 5.53608106e-006 1.30048184e-005 1.55210018e-005
      1.64461435e-005 2.08950478e-005 1.36433637e-005 7.21944980e-006
      5.01420800e-006 -1.11516465e-006 -8.06730259e-006 -5.86655324e-006
      1.73803630e-006 5.76739785e-006 4.68752523e-006 4.66156143e-006
      7.02432089e-006 6.88739328e-006 6.24495397e-006 6.21455138e-006
      1.13923325e-005 9.64794981e-006 1.11823174e-005 1.17468671e-005
      1.39559161e-005 6.52484323e-006 -5.36087828e-006 -8.03180410e-006
      -9.51156471e-006 -1.07908372e-005 -1.00974285e-005
      -1.00313755e-005 -1.34413131e-005 -1.52423581e-005
      -1.62302167e-005 -1.59636984e-005 -1.54235604e-005
      -1.59055326e-005 -1.76731646e-005 -1.71913634e-005
      -1.70801814e-005 -1.71638949e-005 -1.72553664e-005
      -1.76751582e-005 -1.75360710e-005 -1.78017144e-005
      -1.67517665e-005 -1.70342482e-005 -1.73820699e-005
      -9.22756135e-006 -8.91141553e-006 -8.33605554e-006
      -7.99221016e-006 -8.42814461e-006 -8.18951139e-006
      -8.10752681e-006 -7.89840396e-006 -7.39997222e-006
      -6.45015371e-006 -4.64587220e-006 -4.32933757e-006
      -3.44848195e-006 -2.87014745e-006 -2.37412814e-006
      -1.80680490e-006 -2.40064196e-006 -1.67951112e-006
      -1.55639475e-006 -7.22590698e-007 4.20013612e-006 1.03376360e-005
      7.88297984e-006 1.90248488e-006 -1.14910858e-006 -3.48158983e-006
      -3.24260441e-006 1.01853857e-006 5.05203207e-006 7.16688874e-006
      1.06333782e-005 1.71806751e-005 1.61815515e-005 1.62304623e-005
      2.24216419e-005 1.86617672e-005 5.45747253e-006 9.88631086e-007
      4.62775733e-006 7.32177159e-006 4.78948004e-006 1.09184812e-005
      1.79736871e-005 1.70538715e-005 1.80733296e-005 1.61199841e-005
      1.37231127e-005 1.17027148e-005 6.06379990e-006 3.33557955e-006
      5.73126908e-006 -2.32076033e-007 -1.08864569e-005 -1.35409155e-005
      -1.14156292e-005 -9.61510978e-006 -8.26430096e-006
      -7.63052412e-006 -1.10653009e-005 -1.44672949e-005
      -1.57760514e-005 -1.48815907e-005 -1.51965933e-005
      -1.65632027e-005 -1.72435084e-005 -1.67689468e-005
      -1.64575795e-005 -1.69193027e-005 -1.72178588e-005
      -1.70911571e-005 -1.72206655e-005 -1.73453609e-005
      -1.72643086e-005 -1.69161012e-005 -1.71755000e-005
      -8.69185533e-006 -8.36149138e-006 -8.40616030e-006
      -7.96568929e-006 -7.98261954e-006 -7.63722164e-006
      -7.90203831e-006 -8.37522930e-006 -8.06907883e-006
      -7.39386996e-006 -6.04912248e-006 -4.90421053e-006
      -3.87039199e-006 -2.79697178e-006 -2.15485784e-006
      -1.60405477e-006 -3.76263529e-006 -2.30069600e-006
      -1.64276037e-006 -4.27056762e-007 4.85676674e-006 9.58496457e-006
      4.11542942e-006 -1.50428468e-006 -4.35000720e-006 -6.86763269e-006
      -5.90782747e-006 -4.36576283e-006 -6.07513311e-006
      -6.48222658e-006 -7.57365171e-007 9.03124328e-006 2.10270664e-005
      2.81871817e-005 3.63596264e-005 3.16826408e-005 1.74072284e-005
      1.18333555e-005 1.13399692e-005 1.00488378e-005 8.54219888e-006
      1.63067052e-005 1.63680015e-005 1.44495289e-005 1.98299276e-005
      2.06563218e-005 1.65566853e-005 1.15094736e-005 4.93700099e-006
      1.95231792e-006 6.41918950e-006 6.11354199e-006 -2.73194200e-006
      -7.50631534e-006 -8.11696827e-006 -8.16425290e-006
      -8.01254100e-006 -7.06686751e-006 -9.18545447e-006
      -1.30602239e-005 -1.51614186e-005 -1.48599465e-005
      -1.50835640e-005 -1.53481742e-005 -1.66040718e-005
      -1.61982316e-005 -1.64315152e-005 -1.64465309e-005
      -1.66616046e-005 -1.72740965e-005 -1.71504926e-005
      -1.75506721e-005 -1.72392738e-005 -1.67972485e-005
      -1.68960396e-005 -7.73815191e-006 -7.76888919e-006
      -7.80766823e-006 -7.64108154e-006 -7.43216242e-006
      -7.25850714e-006 -7.34473042e-006 -8.12171038e-006
      -8.29035343e-006 -7.95760479e-006 -7.10810582e-006
      -5.29689942e-006 -3.43545048e-006 -3.17665581e-006
      -2.35764719e-006 -1.36513006e-006 -2.05866922e-006
      -6.24386587e-007 -1.13166732e-006 -1.93337883e-006 2.31241756e-006
      6.47257730e-006 3.98263273e-006 1.01260753e-006 -2.59545209e-006
      -4.31473973e-006 -4.37169729e-006 -5.49426522e-006
      -9.63214006e-006 -1.12212820e-005 -4.77901767e-006 4.99719317e-006
      2.16681474e-005 2.54995903e-005 2.74586091e-005 2.20970069e-005
      1.26666191e-005 8.80765492e-006 7.89357455e-006 5.18667957e-006
      1.26107989e-005 2.04388380e-005 1.54423124e-005 8.26544328e-006
      9.26109624e-006 1.04692099e-005 9.01482508e-006 6.43058866e-006
      4.66001984e-006 3.30249713e-006 4.02950627e-006 1.16412686e-007
      -3.01605428e-006 -5.32186732e-006 -7.08428252e-006
      -7.56722238e-006 -6.85743180e-006 -5.72976387e-006
      -7.43386863e-006 -9.15088003e-006 -1.16222373e-005
      -1.32823088e-005 -1.45166914e-005 -1.44729420e-005
      -1.57382201e-005 -1.59467454e-005 -1.56127298e-005
      -1.56310416e-005 -1.60700674e-005 -1.66778700e-005
      -1.67313065e-005 -1.68156057e-005 -1.68788793e-005
      -1.64781341e-005 -1.61794887e-005 -7.86973033e-006
      -7.75510762e-006 -7.73477223e-006 -7.60611601e-006
      -7.37016262e-006 -6.78805600e-006 -6.66868164e-006
      -7.70357201e-006 -7.93113122e-006 -7.81540257e-006
      -6.97614860e-006 -5.12731140e-006 -3.87217506e-006
      -3.13216083e-006 -1.87370335e-006 5.09151334e-007 9.82246320e-007
      1.49765776e-006 4.11865756e-007 -1.99727037e-006 5.38754648e-007
      5.74386104e-006 5.78518348e-006 1.97995155e-006 1.39729457e-006
      9.15788178e-007 -2.19665799e-006 -2.96458484e-006 -2.67716177e-006
      -3.70148973e-006 -1.21886885e-007 4.18082664e-006 9.47507760e-006
      6.18219792e-006 6.60811429e-006 5.15983311e-006 5.62643891e-006
      7.64868309e-006 7.87697354e-006 5.38800259e-006 1.34638594e-005
      2.11541883e-005 1.93870674e-005 1.03223747e-005 2.63317679e-006
      2.27779447e-006 4.16892499e-006 8.08340883e-006 4.48954461e-006
      5.52172060e-006 6.18010176e-007 -9.58734472e-006 -7.75758872e-006
      -3.92683023e-006 -4.74880562e-006 -6.21044592e-006
      -5.99268105e-006 -5.68136511e-006 -6.19355615e-006
      -6.37611720e-006 -8.23828941e-006 -1.04334522e-005
      -1.25853658e-005 -1.42002618e-005 -1.56628266e-005
      -1.50582800e-005 -1.53361616e-005 -1.50086016e-005
      -1.60018626e-005 -1.67573398e-005 -1.64858684e-005
      -1.67782364e-005 -1.67931685e-005 -1.65158963e-005
      -1.57970262e-005 -7.31158707e-006 -7.27948736e-006
      -7.35103185e-006 -7.55515339e-006 -7.00275496e-006
      -5.99029636e-006 -5.81696986e-006 -6.70344389e-006
      -7.54782423e-006 -7.73978354e-006 -6.98287022e-006
      -5.54345070e-006 -4.52612721e-006 -2.57320607e-006
      -6.30766181e-007 1.55396049e-006 2.91665197e-006 1.71963438e-006
      4.58964024e-007 2.35695154e-007 1.21515404e-006 3.59202068e-006
      5.25531186e-006 1.69795771e-006 8.56019233e-006 7.33245906e-006
      2.60314164e-006 4.98175586e-006 8.58239855e-006 9.08529000e-006
      9.45579814e-006 9.83918198e-006 3.66641143e-006 -2.45101228e-006
      -4.69141060e-006 -4.80153494e-006 1.42275246e-006 1.01431633e-005
      1.40870625e-005 1.35617502e-005 1.53885903e-005 1.68418355e-005
      1.62850429e-005 1.13231081e-005 3.35715413e-006 4.14688157e-006
      8.28693192e-006 1.20955610e-005 8.62498291e-006 1.17950649e-005
      3.04164132e-006 -9.70707697e-006 -6.54787436e-006 -1.44926935e-006
      -3.56092119e-006 -6.68912480e-006 -4.97365090e-006
      -5.50616824e-006 -5.38665563e-006 -5.11653889e-006
      -6.03712942e-006 -7.63030221e-006 -1.02313224e-005
      -1.30684202e-005 -1.52913926e-005 -1.48500612e-005
      -1.48140361e-005 -1.55603939e-005 -1.61996359e-005
      -1.70705771e-005 -1.66126028e-005 -1.67505077e-005
      -1.71983265e-005 -1.71067823e-005 -1.64488938e-005
      -7.07860409e-006 -7.04185913e-006 -6.93687389e-006
      -7.35682397e-006 -7.20010485e-006 -6.19098773e-006
      -5.61373645e-006 -6.59107400e-006 -7.29604426e-006
      -7.69438884e-006 -7.33478964e-006 -6.14183318e-006
      -4.80610925e-006 -2.32609091e-006 4.93634396e-008 2.63373340e-006
      4.28468547e-006 3.29799764e-006 2.08173515e-006 1.55724422e-006
      1.63395532e-006 3.85554267e-006 6.76794298e-006 5.17059607e-006
      1.33613585e-005 1.37173292e-005 1.26919895e-005 1.84718301e-005
      2.17902616e-005 1.93643136e-005 1.53386063e-005 1.44271135e-005
      1.28629672e-005 9.19752438e-006 5.10273776e-006 4.60721913e-006
      1.31326224e-005 2.18274563e-005 2.35673378e-005 2.31529502e-005
      1.96723868e-005 1.78920236e-005 1.42943909e-005 1.15946032e-005
      9.02096508e-006 1.38513506e-005 1.66875307e-005 1.44562091e-005
      1.74870911e-005 1.67011713e-005 7.31177897e-006 -4.25883763e-006
      -3.55841962e-006 -1.34749769e-006 -3.31909337e-006
      -6.84275301e-006 -5.77455421e-006 -5.43853730e-006
      -5.42963153e-006 -5.25098449e-006 -6.23103961e-006
      -6.89084618e-006 -7.95263895e-006 -1.05266345e-005
      -1.40990660e-005 -1.49684165e-005 -1.52029879e-005
      -1.56221504e-005 -1.63730419e-005 -1.71652227e-005
      -1.73397766e-005 -1.72656546e-005 -1.70070962e-005
      -1.69312152e-005 -1.61997759e-005 -7.05042612e-006
      -6.68458233e-006 -6.85979558e-006 -6.90650950e-006
      -7.17014518e-006 -6.52238987e-006 -6.28128828e-006
      -6.81665233e-006 -6.81459005e-006 -7.48278308e-006
      -7.32736544e-006 -6.28913176e-006 -4.93251855e-006
      -2.20926654e-006 1.85536763e-007 2.57768329e-006 3.49899369e-006
      4.14567057e-006 4.16680177e-006 4.03855984e-006 2.91366609e-006
      3.59106457e-006 5.88870762e-006 7.31837554e-006 1.42486160e-005
      1.91690160e-005 2.24937739e-005 2.77954114e-005 2.84311791e-005
      2.32510174e-005 1.66812952e-005 1.40453540e-005 1.77227066e-005
      1.86941634e-005 1.56973329e-005 1.67089365e-005 2.51235415e-005
      3.31716328e-005 3.23665081e-005 2.79601682e-005 2.12308314e-005
      2.02021056e-005 1.55178623e-005 1.54809168e-005 2.03906711e-005
      2.99690091e-005 3.09930001e-005 2.53270482e-005 1.99966616e-005
      1.62459201e-005 7.37824757e-006 -4.54765598e-007 -4.23152051e-006
      -4.92551999e-006 -5.78832532e-006 -7.22817094e-006
      -6.12558870e-006 -6.44988268e-006 -4.74245644e-006
      -4.73447972e-006 -5.64613219e-006 -5.88340708e-006
      -6.76157606e-006 -8.11098926e-006 -1.06596844e-005
      -1.31044362e-005 -1.48352201e-005 -1.56357837e-005
      -1.66413720e-005 -1.77590500e-005 -1.74608685e-005
      -1.76790945e-005 -1.70879466e-005 -1.69482028e-005
      -1.61473454e-005 -7.87761110e-006 -7.66050016e-006
      -7.74132877e-006 -7.07081335e-006 -6.81194388e-006
      -6.31845023e-006 -6.09421522e-006 -6.03847320e-006
      -5.96084874e-006 -5.59751788e-006 -5.54439339e-006
      -5.22965138e-006 -3.99097553e-006 -2.21726509e-006
      -1.20553096e-007 2.29360762e-006 3.32568879e-006 3.01030309e-006
      2.95418067e-006 3.72153841e-006 4.47026059e-006 4.69141060e-006
      3.36873586e-006 2.87771309e-006 1.35617929e-005 1.87289206e-005
      2.39822821e-005 2.97105344e-005 2.74269660e-005 1.95998546e-005
      1.50844426e-005 1.50890974e-005 2.05964971e-005 2.32129551e-005
      1.93964479e-005 2.24559790e-005 3.08569834e-005 3.57655445e-005
      3.62822757e-005 2.93938283e-005 2.92594050e-005 2.43677769e-005
      1.57124414e-005 1.39208360e-005 1.88026243e-005 2.70132768e-005
      3.04413661e-005 2.93993235e-005 2.59791723e-005 2.31266422e-005
      9.10130075e-006 -3.12967859e-006 -5.81388576e-006 -4.54162364e-006
      -6.31069497e-006 -7.69857252e-006 -5.89646652e-006
      -6.12029316e-006 -4.43818089e-006 -5.06227525e-006
      -4.90511729e-006 -4.80995368e-006 -5.32607055e-006
      -5.89902766e-006 -6.68404982e-006 -1.01031392e-005
      -1.36472854e-005 -1.56860697e-005 -1.72872278e-005
      -1.73013686e-005 -1.74294437e-005 -1.73103199e-005
      -1.73439876e-005 -1.73829903e-005 -1.67553553e-005
      -8.61645549e-006 -8.51001550e-006 -7.82623829e-006
      -6.55809163e-006 -5.55551378e-006 -5.06324704e-006
      -5.25093628e-006 -5.55474571e-006 -5.45020157e-006
      -4.75155775e-006 -4.17203910e-006 -3.94558447e-006
      -2.91511242e-006 -2.44149737e-006 -1.03974355e-006 1.40359987e-006
      2.16739159e-006 2.33520905e-006 3.33365915e-006 4.83073654e-006
      5.06027118e-006 4.25680855e-006 8.30464899e-007 -1.01363594e-006
      5.16961245e-006 1.43214584e-005 2.30737769e-005 2.92453860e-005
      2.64118189e-005 1.83931916e-005 1.44769128e-005 1.64524408e-005
      2.04111238e-005 2.42752976e-005 2.34760864e-005 2.72869092e-005
      3.27972775e-005 3.65192864e-005 3.84214072e-005 3.25573637e-005
      3.01226846e-005 2.48789547e-005 1.55646612e-005 1.36319741e-005
      1.61969419e-005 2.19789235e-005 2.83318150e-005 3.17920967e-005
      3.01582950e-005 2.59024619e-005 1.24469889e-005 5.19949992e-007
      -3.20248296e-006 -4.49745630e-006 -6.43940893e-006
      -5.18111619e-006 -4.95814402e-006 -4.45229080e-006
      -3.26902000e-006 -4.16767261e-006 -3.27889325e-006
      -3.23849918e-006 -4.36091750e-006 -4.85888177e-006
      -5.08289213e-006 -8.04053070e-006 -1.22535821e-005
      -1.51208324e-005 -1.66040118e-005 -1.69016457e-005
      -1.69631967e-005 -1.70377025e-005 -1.70335479e-005
      -1.69425221e-005 -1.63874392e-005 -7.85177235e-006
      -8.59564989e-006 -7.93831714e-006 -6.69411975e-006
      -6.04989509e-006 -5.78175877e-006 -6.05863443e-006
      -6.33632635e-006 -6.50573475e-006 -5.66531889e-006
      -4.37898279e-006 -3.69161216e-006 -2.01828652e-006
      -1.93785127e-006 -2.92525471e-007 2.03298396e-006 2.06516393e-006
      2.78897846e-006 5.03732917e-006 7.13940744e-006 8.01970964e-006
      5.92430888e-006 1.56795204e-006 1.26593898e-006 3.31942010e-006
      1.17227673e-005 2.13057720e-005 2.98404611e-005 2.73653841e-005
      1.82752719e-005 1.37904481e-005 1.87007390e-005 2.02445135e-005
      2.45938900e-005 2.76031424e-005 3.21360494e-005 3.55149132e-005
      3.81636564e-005 4.09044442e-005 3.60881531e-005 3.24005741e-005
      2.64862938e-005 1.82447948e-005 1.61004318e-005 1.57938121e-005
      1.83269167e-005 2.48372216e-005 3.21685038e-005 3.20958461e-005
      2.79686119e-005 1.54870722e-005 2.78953530e-006 -1.94128506e-006
      -4.22129506e-006 -5.99452369e-006 -3.33061075e-006
      -3.53608834e-006 -3.14327440e-006 -2.66147481e-006
      -3.78040772e-006 -2.98243185e-006 -2.08736947e-006
      -2.94820029e-006 -3.90359673e-006 -4.15778777e-006
      -6.46092303e-006 -1.10238998e-005 -1.43997295e-005
      -1.58618823e-005 -1.63323475e-005 -1.66502050e-005
      -1.70098519e-005 -1.67107301e-005 -1.63166314e-005
      -1.56214919e-005 -8.61838544e-006 -8.74568559e-006
      -8.19245633e-006 -6.66262576e-006 -6.18899321e-006
      -5.89303727e-006 -6.37824269e-006 -6.57545297e-006
      -6.28330145e-006 -6.15558383e-006 -4.65394942e-006
      -3.21468201e-006 -1.16717445e-006 -6.11966158e-008 1.65903270e-006
      3.37393976e-006 3.99478813e-006 4.87630223e-006 7.34646164e-006
      9.47734588e-006 1.04847513e-005 9.65331037e-006 6.10761163e-006
      6.54316500e-006 8.62214347e-006 1.41208211e-005 2.04681128e-005
      2.75934071e-005 2.46084710e-005 1.67248127e-005 1.58575713e-005
      2.21740702e-005 2.31772792e-005 2.89762629e-005 3.30531220e-005
      3.73495568e-005 3.87510408e-005 4.02265177e-005 4.37476447e-005
      3.81891296e-005 3.50341834e-005 2.88128049e-005 2.16803892e-005
      1.95974426e-005 1.59757874e-005 1.51059512e-005 2.02688807e-005
      2.87461007e-005 3.28093374e-005 2.94320980e-005 1.67179896e-005
      3.01004775e-006 -2.11660017e-006 -3.19544006e-006 -4.04821276e-006
      -4.22017774e-006 -2.71879276e-006 -2.84368366e-006
      -2.99390672e-006 -3.50830419e-006 -3.22870369e-006
      -2.30484829e-006 -2.43065892e-006 -3.16413798e-006
      -3.54384520e-006 -5.89951196e-006 -1.12606194e-005
      -1.44272144e-005 -1.59450246e-005 -1.63781715e-005
      -1.65700185e-005 -1.67855833e-005 -1.70434414e-005
      -1.64997491e-005 -1.60599448e-005 -8.49621210e-006
      -8.78868104e-006 -8.43388716e-006 -7.16940758e-006
      -6.56303746e-006 -5.90044283e-006 -5.85708767e-006
      -5.52659685e-006 -5.51307039e-006 -5.74856904e-006
      -4.90238290e-006 -2.53021949e-006 -1.49378550e-007 1.08587778e-006
      3.68369228e-006 5.17653416e-006 5.64083484e-006 7.63640128e-006
      1.06702100e-005 1.30346280e-005 1.33640378e-005 1.29788941e-005
      1.15804532e-005 1.13513915e-005 1.33733720e-005 1.64200810e-005
      1.91117560e-005 2.17207053e-005 1.84252658e-005 1.38468677e-005
      1.78038881e-005 2.50415305e-005 2.67450196e-005 3.39633116e-005
      3.75867385e-005 4.23849633e-005 4.37999770e-005 4.51040505e-005
      4.66527417e-005 3.90333516e-005 3.71116694e-005 3.04359564e-005
      2.70635901e-005 2.36395554e-005 1.81670384e-005 1.64844041e-005
      2.12376835e-005 2.67788055e-005 3.03993857e-005 2.89594846e-005
      1.91369963e-005 4.09935228e-006 -2.66210833e-007 8.09509174e-007
      -4.27478227e-007 -5.20962567e-006 -2.43329418e-006
      -3.09509642e-006 -3.42552903e-006 -3.59827368e-006
      -3.11955569e-006 -1.71906640e-006 -2.24634573e-006
      -2.77339200e-006 -2.45905721e-006 -4.82513451e-006
      -1.05871086e-005 -1.46647990e-005 -1.61034041e-005
      -1.63940658e-005 -1.65233741e-005 -1.64807407e-005
      -1.69329051e-005 -1.61197404e-005 -1.57791146e-005
      -8.17535692e-006 -8.20369587e-006 -8.29222336e-006
      -7.76640172e-006 -7.20379967e-006 -6.72587294e-006
      -6.70663394e-006 -6.76266063e-006 -5.37474352e-006
      -5.98896213e-006 -4.66400388e-006 -2.61667628e-006 5.04196578e-007
      2.28220597e-006 4.50942980e-006 6.87076090e-006 7.25878954e-006
      1.06119387e-005 1.49800853e-005 1.67351936e-005 1.61483767e-005
      1.54627742e-005 1.41576520e-005 1.37652341e-005 1.79241924e-005
      2.23658626e-005 2.24565592e-005 2.17499983e-005 1.76458561e-005
      1.29529362e-005 1.88039485e-005 2.82155797e-005 3.08452472e-005
      3.67724206e-005 4.01519792e-005 4.54684341e-005 4.91853898e-005
      4.99739836e-005 4.86072931e-005 3.80909405e-005 3.27181770e-005
      2.88799256e-005 2.98603172e-005 2.75416169e-005 2.18473215e-005
      1.88762970e-005 2.10593189e-005 2.36974975e-005 2.70858272e-005
      2.65749186e-005 2.05543511e-005 9.32283547e-006 3.08058316e-006
      4.03262993e-006 1.32550963e-006 -4.69112274e-006 -2.57549414e-006
      -3.62766173e-006 -4.28697331e-006 -4.19762273e-006
      -3.13020200e-006 -2.05957099e-006 -2.27909572e-006
      -3.20252070e-006 -2.73601495e-006 -5.18259776e-006
      -1.06137877e-005 -1.46819275e-005 -1.63482255e-005
      -1.65015153e-005 -1.58539588e-005 -1.52051643e-005
      -1.52689772e-005 -1.46868997e-005 -1.47833998e-005
      -8.55450617e-006 -8.66281971e-006 -8.30285535e-006
      -7.86728469e-006 -7.05211642e-006 -6.81352367e-006
      -6.86276508e-006 -7.10100903e-006 -6.16303714e-006
      -5.75827562e-006 -4.42178589e-006 -1.84281328e-006 8.31549812e-007
      3.13207602e-006 5.80966662e-006 8.14020132e-006 9.86587111e-006
      1.25835131e-005 1.61834396e-005 1.84131877e-005 1.79529507e-005
      1.82550630e-005 1.72349628e-005 1.70178009e-005 2.36533961e-005
      2.92723034e-005 2.77033905e-005 2.56808235e-005 2.18303321e-005
      1.73015014e-005 2.23521474e-005 3.22732849e-005 3.39942126e-005
      3.83208862e-005 4.18921336e-005 4.76709247e-005 5.11719300e-005
      5.17359549e-005 4.76130663e-005 3.53020114e-005 2.75189686e-005
      2.63505026e-005 2.87822695e-005 2.80098084e-005 2.19158665e-005
      1.74706474e-005 1.80918687e-005 2.08753845e-005 2.78738426e-005
      2.52237678e-005 2.16874632e-005 1.66068912e-005 9.44963813e-006
      4.62245407e-006 7.45943396e-007 -3.31340766e-006 -2.81558141e-006
      -3.43737793e-006 -4.65231005e-006 -4.54814426e-006
      -3.62002675e-006 -2.57394959e-006 -2.54231350e-006
      -3.90436298e-006 -3.20284266e-006 -5.25390806e-006
      -1.03995617e-005 -1.40441189e-005 -1.53711953e-005
      -1.58413277e-005 -1.50994993e-005 -1.45105496e-005
      -1.41131532e-005 -1.35351293e-005 -1.43923662e-005
      -8.93439574e-006 -8.97181690e-006 -8.73627596e-006
      -8.49798289e-006 -7.63792195e-006 -6.97920814e-006
      -7.28508985e-006 -7.23826997e-006 -6.55650138e-006
      -5.68873838e-006 -4.20068454e-006 -1.71703891e-006 1.45799777e-006
      4.07437801e-006 6.82547216e-006 9.64387982e-006 1.28550155e-005
      1.47459205e-005 1.70796029e-005 1.78588707e-005 1.96592737e-005
      2.12157120e-005 2.19279809e-005 2.10660164e-005 2.66196785e-005
      3.11923432e-005 2.83226491e-005 2.66249390e-005 2.53454218e-005
      2.22400722e-005 2.56376352e-005 3.25302681e-005 3.42335334e-005
      4.00003555e-005 4.37096714e-005 4.77827743e-005 5.09365709e-005
      5.04935706e-005 4.69996521e-005 3.63349864e-005 3.24489010e-005
      3.01176642e-005 2.99820185e-005 2.90920398e-005 2.42679216e-005
      2.07748799e-005 2.18067926e-005 2.62715494e-005 3.25644905e-005
      2.73129644e-005 2.53885009e-005 2.45151550e-005 1.54799054e-005
      4.10432995e-006 -1.72694411e-006 -2.80067366e-006 -3.05104413e-006
      -3.26256622e-006 -3.88820854e-006 -3.86701959e-006
      -3.87429145e-006 -3.04449213e-006 -3.36620974e-006
      -2.97821020e-006 -3.08982703e-006 -5.45992589e-006
      -1.02112917e-005 -1.38563337e-005 -1.52804096e-005
      -1.55670259e-005 -1.52820121e-005 -1.40584398e-005
      -1.35454402e-005 -1.31841116e-005 -1.39358017e-005
      -9.06648893e-006 -9.10309427e-006 -9.50950925e-006
      -9.03193722e-006 -8.39571749e-006 -8.02360501e-006
      -7.71140094e-006 -7.68961490e-006 -7.24836855e-006
      -6.14684677e-006 -4.26749057e-006 -1.35441985e-006 1.55249245e-006
      4.78093216e-006 8.36163963e-006 1.15964003e-005 1.46288749e-005
      1.70016174e-005 1.85938097e-005 2.04367898e-005 2.14548745e-005
      2.30004207e-005 2.44641160e-005 2.41818452e-005 3.04704408e-005
      3.36911726e-005 3.06091097e-005 2.68667700e-005 2.41492035e-005
      2.16458047e-005 2.59376866e-005 3.14029239e-005 3.22801679e-005
      3.63232575e-005 4.08367232e-005 5.03699666e-005 5.55943407e-005
      5.44550094e-005 5.21302100e-005 4.59134135e-005 4.15035101e-005
      3.82135077e-005 3.64250191e-005 3.38554528e-005 2.99921867e-005
      2.82777837e-005 3.20442377e-005 3.74328047e-005 3.96836003e-005
      3.68520778e-005 3.15388243e-005 2.54688184e-005 1.12775006e-005
      7.46745059e-007 -1.29279874e-006 -4.64534605e-006 -4.08643291e-006
      -4.70150644e-006 -3.75615127e-006 -3.33575827e-006
      -3.88707213e-006 -4.08620781e-006 -4.54405881e-006
      -3.36884227e-006 -2.40743429e-006 -5.10045311e-006
      -1.06165917e-005 -1.34708516e-005 -1.51148324e-005
      -1.54841309e-005 -1.50953310e-005 -1.39864287e-005
      -1.27343810e-005 -1.24771741e-005 -1.30163935e-005
      -9.45813645e-006 -9.25534459e-006 -9.54903953e-006
      -9.47839908e-006 -8.97144128e-006 -8.35957599e-006
      -8.27260283e-006 -8.19302750e-006 -7.29353269e-006
      -6.27904410e-006 -3.74999104e-006 -1.06763264e-006 2.60172078e-006
      5.78819481e-006 1.02149552e-005 1.36464359e-005 1.64018657e-005
      1.85077170e-005 2.00821469e-005 2.17257802e-005 2.29176130e-005
      2.62475551e-005 2.81243738e-005 2.85815477e-005 3.32329982e-005
      3.56713135e-005 3.20746985e-005 2.78395200e-005 2.37772947e-005
      2.14631873e-005 2.51718538e-005 2.92287314e-005 3.00860702e-005
      3.40475963e-005 3.95535935e-005 5.03936681e-005 5.71368946e-005
      5.69695803e-005 5.49254219e-005 4.88488477e-005 4.47660459e-005
      4.10897810e-005 3.90468595e-005 3.55746888e-005 3.16322657e-005
      2.96976887e-005 3.42770873e-005 3.95638490e-005 4.24974460e-005
      3.99110904e-005 3.43304891e-005 2.77319214e-005 1.16494703e-005
      8.94753043e-007 -5.31000524e-007 -3.38926088e-006 -4.12851841e-006
      -4.62393564e-006 -3.80148185e-006 -3.79286325e-006
      -4.21942650e-006 -4.72596457e-006 -4.55354620e-006
      -4.43751969e-006 -4.29430793e-006 -7.61131196e-006
      -1.16868277e-005 -1.43153247e-005 -1.53766214e-005
      -1.55337730e-005 -1.50540509e-005 -1.45377044e-005
      -1.37690431e-005 -1.40342900e-005 -1.42448971e-005
      -9.87992280e-006 -9.42915358e-006 -9.91733577e-006
      -9.95044684e-006 -9.37347158e-006 -8.88189970e-006
      -8.73085810e-006 -8.27870645e-006 -7.25211567e-006
      -5.90234549e-006 -3.46697129e-006 -2.38705155e-007 3.91163303e-006
      7.11804933e-006 1.17197615e-005 1.57295653e-005 1.81000341e-005
      1.94008626e-005 2.15243017e-005 2.28708413e-005 2.41196249e-005
      2.86610193e-005 3.15109573e-005 3.32989548e-005 3.69514091e-005
      3.91725989e-005 3.65607193e-005 3.20789914e-005 2.66458937e-005
      2.35024308e-005 2.69311895e-005 3.04404020e-005 3.21658918e-005
      3.52762399e-005 3.95750722e-005 5.03436313e-005 5.82589746e-005
      5.87951254e-005 5.72561767e-005 5.04591371e-005 4.67341815e-005
      4.37350391e-005 4.15794675e-005 3.72818067e-005 3.27101916e-005
      3.14188364e-005 3.48044923e-005 3.87516084e-005 4.45733385e-005
      4.14657225e-005 3.52932220e-005 2.74584163e-005 1.12419475e-005
      7.22809759e-008 -7.86716157e-007 -2.74423746e-006 -3.98153679e-006
      -4.45022715e-006 -3.74044362e-006 -3.90096011e-006
      -4.58669456e-006 -4.33552532e-006 -4.79618802e-006
      -5.75614922e-006 -7.16299746e-006 -1.06491680e-005
      -1.36514054e-005 -1.49972630e-005 -1.51601243e-005
      -1.51425911e-005 -1.49801617e-005 -1.44939877e-005
      -1.49197331e-005 -1.49393391e-005 -1.49010957e-005
      -9.78570188e-006 -9.79606284e-006 -9.75426337e-006
      -9.83368500e-006 -9.22401796e-006 -8.63748846e-006
      -8.41613746e-006 -8.59502416e-006 -7.29234398e-006
      -5.84592181e-006 -3.30521925e-006 8.21678839e-007 5.57384692e-006
      1.00233874e-005 1.45018357e-005 1.75349796e-005 1.89048151e-005
      1.95750254e-005 2.21492737e-005 2.36378237e-005 2.51643687e-005
      3.05232752e-005 3.47440437e-005 3.71255010e-005 3.92868242e-005
      4.02829064e-005 3.74515112e-005 3.41138402e-005 2.88862975e-005
      2.57691408e-005 2.87246112e-005 3.11407457e-005 3.47444693e-005
      3.85785279e-005 4.14836031e-005 5.00274436e-005 5.80684609e-005
      5.92699907e-005 5.82690300e-005 5.02456642e-005 4.75959605e-005
      4.58061077e-005 4.44501420e-005 3.88240078e-005 3.54696458e-005
      3.35128461e-005 3.42829990e-005 3.82274229e-005 4.35725269e-005
      4.13891103e-005 3.51602284e-005 2.64358714e-005 1.13904725e-005
      1.64103042e-007 -1.24888186e-006 -3.17211379e-006 -3.90981722e-006
      -4.37785275e-006 -3.81273321e-006 -4.81194729e-006
      -4.90742150e-006 -4.07367133e-006 -4.56609405e-006
      -6.73458953e-006 -9.21285755e-006 -1.25807737e-005
      -1.43989218e-005 -1.45997774e-005 -1.49333873e-005
      -1.47003730e-005 -1.45831355e-005 -1.43710013e-005
      -1.46242128e-005 -1.47987912e-005 -1.50077049e-005
      -9.58056626e-006 -9.56972235e-006 -9.72481303e-006
      -9.63713319e-006 -8.94962886e-006 -8.70714030e-006
      -8.46099556e-006 -8.98788494e-006 -7.97710072e-006
      -6.51637629e-006 -3.18895741e-006 1.23433256e-006 6.46582612e-006
      1.07189508e-005 1.53387173e-005 1.85492263e-005 2.02260344e-005
      2.02194406e-005 2.23239385e-005 2.34536310e-005 2.48875931e-005
      3.07481605e-005 3.65528394e-005 3.86602514e-005 3.99003693e-005
      3.94146882e-005 3.66437744e-005 3.33229800e-005 2.86331178e-005
      2.61822788e-005 2.81642169e-005 3.06441871e-005 3.56246674e-005
      4.01959769e-005 4.23939819e-005 4.94818414e-005 5.70652264e-005
      5.99056475e-005 5.93946970e-005 5.17323024e-005 4.90865823e-005
      4.76924979e-005 4.61936361e-005 4.16588155e-005 3.71447386e-005
      3.49365728e-005 3.42055828e-005 3.75419404e-005 4.12685185e-005
      3.99987912e-005 3.40770021e-005 2.69170778e-005 1.17671188e-005
      4.66709849e-007 -1.40635791e-006 -4.57842771e-006 -4.66712436e-006
      -4.73007776e-006 -4.59260946e-006 -5.06951437e-006
      -4.92852905e-006 -3.91042295e-006 -6.03430135e-006
      -9.59882891e-006 -1.14611166e-005 -1.36599692e-005
      -1.41399614e-005 -1.44196902e-005 -1.50082360e-005
      -1.44979922e-005 -1.42693589e-005 -1.44828055e-005
      -1.47343635e-005 -1.46176335e-005 -1.52581979e-005
      -9.62717513e-006 -9.53265044e-006 -9.92303831e-006
      -9.76828778e-006 -9.37372806e-006 -9.09210939e-006
      -9.13710392e-006 -9.03081855e-006 -7.95806864e-006
      -6.59968146e-006 -3.59436331e-006 4.97737403e-007 6.05482728e-006
      1.09633847e-005 1.59333649e-005 1.99277129e-005 2.12599552e-005
      2.03165528e-005 2.20123147e-005 2.34103682e-005 2.44591738e-005
      3.03622164e-005 3.73296753e-005 3.89232991e-005 3.90543537e-005
      3.88101362e-005 3.62714236e-005 3.23685017e-005 2.89170857e-005
      2.75641414e-005 2.86647555e-005 3.17352788e-005 3.73167168e-005
      4.16934527e-005 4.25706821e-005 4.85274031e-005 5.59275868e-005
      5.84992085e-005 5.88574658e-005 5.20109097e-005 4.85607779e-005
      4.71556668e-005 4.54610017e-005 4.19267526e-005 3.85015519e-005
      3.49563234e-005 3.37597085e-005 3.66304739e-005 4.04820603e-005
      3.90103523e-005 3.33639982e-005 2.69585271e-005 1.25715251e-005
      5.61809884e-007 -1.87526177e-006 -4.86289082e-006 -5.87778504e-006
      -6.68340317e-006 -7.15486885e-006 -7.43236888e-006
      -6.81772417e-006 -7.51349353e-006 -1.01756605e-005
      -1.34484762e-005 -1.37353945e-005 -1.40793127e-005
      -1.43743036e-005 -1.40252705e-005 -1.42144872e-005
      -1.40551056e-005 -1.40630746e-005 -1.43197121e-005
      -1.42558492e-005 -1.42880835e-005 -1.52685643e-005
      -9.72886846e-006 -9.68772474e-006 -1.00198240e-005
      -9.57258726e-006 -9.30642364e-006 -9.30276201e-006
      -8.86917769e-006 -8.78251558e-006 -7.83337600e-006
      -6.79501318e-006 -3.90970581e-006 -1.74192124e-007 5.03298361e-006
      1.03333841e-005 1.65146321e-005 2.04136140e-005 2.15262808e-005
      2.04889220e-005 2.22305534e-005 2.35033913e-005 2.46474992e-005
      3.01222753e-005 3.66596323e-005 3.74877527e-005 3.98643315e-005
      3.90208079e-005 3.57036661e-005 3.21836633e-005 2.89399086e-005
      2.78950574e-005 2.93865578e-005 3.27731541e-005 3.76576972e-005
      4.13362941e-005 4.24289028e-005 4.82253927e-005 5.46839183e-005
      5.74206424e-005 5.85149392e-005 5.19865935e-005 4.84142547e-005
      4.66907113e-005 4.52553104e-005 4.24609825e-005 3.93324408e-005
      3.66490531e-005 3.47337191e-005 3.70463895e-005 4.03776030e-005
      3.89400702e-005 3.39151666e-005 2.62215453e-005 1.19722781e-005
      6.10291806e-007 -1.26701332e-006 -4.67769178e-006 -6.49973299e-006
      -8.46054081e-006 -1.15304765e-005 -1.21484509e-005
      -1.17337704e-005 -1.22276688e-005 -1.31457036e-005
      -1.42387617e-005 -1.38158684e-005 -1.43459756e-005
      -1.43581619e-005 -1.39137119e-005 -1.38941559e-005
      -1.40970633e-005 -1.40018892e-005 -1.41616238e-005
      -1.38782143e-005 -1.40119500e-005 -1.46936818e-005
      -9.98544419e-006 -1.01762826e-005 -1.04005376e-005
      -9.42147926e-006 -9.26999473e-006 -9.17713714e-006
      -9.08412039e-006 -8.61475473e-006 -7.56802547e-006
      -6.78975994e-006 -4.19063826e-006 -9.28842439e-007 3.91981803e-006
      9.60875968e-006 1.54539539e-005 1.95121811e-005 2.13896092e-005
      2.05689103e-005 2.25115309e-005 2.46110376e-005 2.48183260e-005
      2.98905325e-005 3.57801073e-005 3.80233178e-005 4.21644691e-005
      4.02969199e-005 3.58718098e-005 3.21761872e-005 2.87732291e-005
      2.85742626e-005 3.06958136e-005 3.50644514e-005 3.82224862e-005
      4.07075022e-005 4.07309599e-005 4.52193453e-005 5.15922438e-005
      5.47559466e-005 5.67107381e-005 5.12060142e-005 5.06296165e-005
      4.83734439e-005 4.66915990e-005 4.50207481e-005 4.27332125e-005
      3.93364535e-005 3.65171654e-005 3.85358035e-005 3.92239090e-005
      3.83632323e-005 3.33166390e-005 2.61618825e-005 1.10576057e-005
      5.76232765e-007 -4.30169621e-007 -3.19266451e-006 -7.05908451e-006
      -1.00575971e-005 -1.43342713e-005 -1.55348025e-005
      -1.57467093e-005 -1.50225160e-005 -1.51902686e-005
      -1.54724312e-005 -1.45040694e-005 -1.47695591e-005
      -1.48359422e-005 -1.41698765e-005 -1.37906554e-005
      -1.41070195e-005 -1.39351450e-005 -1.39722706e-005
      -1.33012245e-005 -1.35840255e-005 -1.33620460e-005
      -9.59694535e-006 -9.57951215e-006 -9.70523524e-006
      -8.63263176e-006 -8.61278204e-006 -8.42987720e-006
      -8.12212784e-006 -7.05245839e-006 -6.42090617e-006
      -5.74369051e-006 -4.16238254e-006 -1.55832197e-006 2.77632921e-006
      7.53032964e-006 1.35663195e-005 1.75800487e-005 2.01254043e-005
      1.99109945e-005 2.14742795e-005 2.34708295e-005 2.45929205e-005
      2.99806252e-005 3.63126783e-005 3.84873965e-005 4.27398409e-005
      4.16745279e-005 3.74519259e-005 3.37380989e-005 2.94437395e-005
      3.10315845e-005 3.47616005e-005 3.65122251e-005 3.97617805e-005
      3.77340184e-005 3.86146894e-005 4.27029408e-005 4.78570473e-005
      5.11867656e-005 5.28649398e-005 4.92241343e-005 4.84074517e-005
      4.82842588e-005 4.80692070e-005 4.60101764e-005 4.29984393e-005
      3.99825476e-005 3.59014302e-005 3.49768634e-005 3.61840757e-005
      3.75321288e-005 3.17297272e-005 2.74167869e-005 1.23104510e-005
      4.43024965e-006 7.13226882e-007 -3.64514381e-006 -6.83637563e-006
      -1.06321704e-005 -1.54133377e-005 -1.63998629e-005
      -1.63832774e-005 -1.59215688e-005 -1.55833877e-005
      -1.58259390e-005 -1.56656297e-005 -1.47863866e-005
      -1.48414338e-005 -1.44154346e-005 -1.43659126e-005
      -1.42516201e-005 -1.35709970e-005 -1.30578264e-005
      -1.24528324e-005 -1.22980027e-005 -1.24825774e-005
      -9.66335938e-006 -9.64478477e-006 -9.52284336e-006
      -8.37780499e-006 -8.49875687e-006 -8.81171763e-006
      -8.14228315e-006 -6.92396361e-006 -5.80962705e-006
      -4.88968954e-006 -3.82148664e-006 -2.05706738e-006 1.93092637e-006
      6.16248508e-006 1.18037669e-005 1.60161162e-005 1.86019879e-005
      1.80114366e-005 2.01230487e-005 2.28925037e-005 2.36219203e-005
      2.96619255e-005 3.56714190e-005 3.86815555e-005 4.35160400e-005
      4.41306438e-005 4.08549240e-005 3.71362803e-005 3.19886931e-005
      3.28623246e-005 3.57586177e-005 3.73741386e-005 3.96770665e-005
      3.74571064e-005 3.81727332e-005 4.29537831e-005 4.67251630e-005
      4.99765993e-005 5.13269406e-005 4.78706061e-005 4.51944470e-005
      4.48177452e-005 4.58296672e-005 4.47935381e-005 4.24459286e-005
      3.94185663e-005 3.41805790e-005 3.32204654e-005 3.51049785e-005
      3.63911822e-005 3.10365103e-005 2.63954425e-005 1.13449205e-005
      3.16553678e-006 3.69148324e-007 -2.50009407e-006 -5.89988167e-006
      -1.00334755e-005 -1.46894199e-005 -1.62473880e-005
      -1.64096928e-005 -1.61608205e-005 -1.54182053e-005
      -1.57548093e-005 -1.61727330e-005 -1.51922577e-005
      -1.50882070e-005 -1.49809384e-005 -1.49615671e-005
      -1.44011246e-005 -1.34590482e-005 -1.31844026e-005
      -1.25475999e-005 -1.26590876e-005 -1.26772266e-005
      -1.03726516e-005 -9.91346133e-006 -9.48318757e-006
      -8.57857231e-006 -8.52456560e-006 -9.19222930e-006
      -8.60951968e-006 -7.36740776e-006 -5.95826168e-006
      -5.12414726e-006 -3.94933113e-006 -1.85477006e-006 1.81085375e-006
      5.80004144e-006 1.03702559e-005 1.41648507e-005 1.59823758e-005
      1.64299072e-005 1.88479698e-005 2.20331385e-005 2.37158747e-005
      2.86880077e-005 3.36778103e-005 3.64347325e-005 4.17545489e-005
      4.33115347e-005 4.27209307e-005 3.93535884e-005 3.33918142e-005
      3.37831298e-005 3.65932210e-005 3.75432501e-005 3.84329433e-005
      3.60649792e-005 3.74501833e-005 4.28545354e-005 4.74486042e-005
      5.07671321e-005 5.25854521e-005 4.87650577e-005 4.41696648e-005
      4.21054356e-005 4.19640455e-005 4.16485818e-005 4.04059465e-005
      3.77920296e-005 3.29849718e-005 3.20414656e-005 3.33187054e-005
      3.63887812e-005 3.17123850e-005 2.75146031e-005 1.15788871e-005
      3.82614917e-006 1.11219310e-006 -1.09492316e-006 -4.82820815e-006
      -8.62175057e-006 -1.35972596e-005 -1.55132966e-005
      -1.63685436e-005 -1.57244358e-005 -1.56166661e-005
      -1.58789844e-005 -1.66702939e-005 -1.50045071e-005
      -1.45057993e-005 -1.49842872e-005 -1.49606258e-005
      -1.41469836e-005 -1.34261500e-005 -1.26092327e-005
      -1.22981028e-005 -1.26195318e-005 -1.28110896e-005
      -1.04441524e-005 -9.82045185e-006 -9.24706001e-006
      -8.50631295e-006 -8.81558117e-006 -9.52073879e-006
      -9.00469058e-006 -7.93024719e-006 -6.84847055e-006
      -6.07740640e-006 -4.83349777e-006 -2.18969990e-006 1.87069611e-006
      5.59358068e-006 9.13369877e-006 1.25919023e-005 1.40347038e-005
      1.43300967e-005 1.76828671e-005 2.12074265e-005 2.31814884e-005
      2.79586402e-005 3.26750451e-005 3.35786572e-005 3.76600437e-005
      3.93529081e-005 4.03171071e-005 3.85711464e-005 3.35148470e-005
      3.33985408e-005 3.66336753e-005 3.71220449e-005 3.67336215e-005
      3.41871346e-005 3.67125540e-005 4.29768152e-005 4.90214879e-005
      5.28042547e-005 5.29823992e-005 4.79559312e-005 4.26629558e-005
      3.93553200e-005 3.80690981e-005 3.74417359e-005 3.68884357e-005
      3.41588238e-005 2.99435815e-005 2.78923089e-005 3.03822380e-005
      3.34665383e-005 2.94540587e-005 2.68404838e-005 1.23833843e-005
      4.50805283e-006 1.03523178e-006 -1.73752369e-006 -3.69278587e-006
      -6.75631463e-006 -1.12154148e-005 -1.38632950e-005
      -1.62860451e-005 -1.57780669e-005 -1.55763373e-005
      -1.57500581e-005 -1.63661825e-005 -1.52874218e-005
      -1.45930208e-005 -1.47077180e-005 -1.48351583e-005
      -1.38480464e-005 -1.31971965e-005 -1.27242429e-005
      -1.23012278e-005 -1.30780563e-005 -1.30828166e-005
      -1.03704133e-005 -1.00362895e-005 -9.88273314e-006
      -8.99460792e-006 -9.29599173e-006 -9.25512995e-006
      -8.78776791e-006 -7.99167810e-006 -6.98549911e-006
      -6.41151473e-006 -5.10141945e-006 -2.66035613e-006 8.99606277e-007
      4.31665421e-006 7.52349297e-006 1.09544790e-005 1.29439677e-005
      1.35074069e-005 1.69531340e-005 2.07144749e-005 2.26359825e-005
      2.66310872e-005 3.05771573e-005 3.14964782e-005 3.40975494e-005
      3.62155297e-005 3.87844630e-005 3.72962786e-005 3.23175955e-005
      3.26406189e-005 3.38584905e-005 3.34271353e-005 3.41539780e-005
      3.35982659e-005 3.72858012e-005 4.39384603e-005 4.90393759e-005
      5.13152845e-005 5.02102266e-005 4.39496944e-005 4.02592850e-005
      3.56469827e-005 3.30632538e-005 3.19698447e-005 3.15543075e-005
      2.89748787e-005 2.57556912e-005 2.34129275e-005 2.60700508e-005
      2.72992165e-005 2.26743268e-005 2.09848931e-005 9.53565268e-006
      3.54988128e-006 -1.51587415e-007 -3.37446932e-006 -3.21137554e-006
      -4.96815210e-006 -7.62671380e-006 -1.11364607e-005
      -1.40285883e-005 -1.52532757e-005 -1.50318920e-005
      -1.51612257e-005 -1.59525007e-005 -1.55301568e-005
      -1.48766730e-005 -1.44915875e-005 -1.43903608e-005
      -1.42092849e-005 -1.33893527e-005 -1.27495623e-005
      -1.22221827e-005 -1.26436971e-005 -1.26701070e-005
      -1.06307652e-005 -1.01812147e-005 -9.80670939e-006
      -9.38473022e-006 -9.06443165e-006 -9.10872404e-006
      -8.22914717e-006 -8.03067087e-006 -7.34355035e-006
      -6.71926500e-006 -5.67835104e-006 -3.35196751e-006
      -7.06258675e-007 1.68979534e-006 4.81074994e-006 9.10316885e-006
      1.14966597e-005 1.26597570e-005 1.63112454e-005 2.02093233e-005
      2.19231733e-005 2.51124020e-005 2.89101827e-005 2.99151252e-005
      3.24469329e-005 3.48779649e-005 3.79936573e-005 3.68251422e-005
      3.19588835e-005 3.27065318e-005 3.24159191e-005 3.10597134e-005
      3.39477810e-005 3.42141866e-005 3.72839313e-005 4.20934848e-005
      4.53891225e-005 4.71610838e-005 4.55923291e-005 3.91807516e-005
      3.53519717e-005 3.15528414e-005 2.95928312e-005 2.86414015e-005
      2.75769617e-005 2.47459266e-005 2.21682385e-005 2.02856409e-005
      2.28376593e-005 2.16871849e-005 1.53720830e-005 1.43596699e-005
      6.77382150e-006 2.68637450e-006 3.83758362e-007 -2.92663958e-006
      -2.72112038e-006 -3.53251812e-006 -5.11054213e-006
      -8.74854322e-006 -1.20029808e-005 -1.41822466e-005
      -1.46415332e-005 -1.51321656e-005 -1.59449755e-005
      -1.58341718e-005 -1.54334011e-005 -1.48792160e-005
      -1.45065251e-005 -1.43615607e-005 -1.38769374e-005
      -1.30412836e-005 -1.25113756e-005 -1.26349032e-005
      -1.26204141e-005 -1.04284836e-005 -1.03226239e-005
      -9.80876302e-006 -9.00081068e-006 -8.81894539e-006
      -8.36125673e-006 -7.95865981e-006 -7.31880436e-006
      -7.12307565e-006 -6.65010521e-006 -6.26815518e-006
      -4.57322403e-006 -1.94734776e-006 -1.93139527e-007 2.44659714e-006
      5.70653037e-006 9.11697953e-006 1.10760584e-005 1.54302506e-005
      1.94962358e-005 2.13420735e-005 2.39020701e-005 2.69804168e-005
      2.80052045e-005 3.09316492e-005 3.27847738e-005 3.64603002e-005
      3.56245291e-005 3.13586497e-005 3.24890352e-005 3.24529283e-005
      3.20398940e-005 3.52094066e-005 3.40905317e-005 3.53064788e-005
      3.81532554e-005 4.06425570e-005 4.23308993e-005 4.09266249e-005
      3.57291283e-005 3.10686373e-005 2.83524514e-005 2.79446886e-005
      2.84734469e-005 2.74247614e-005 2.28856097e-005 1.76130943e-005
      1.48524941e-005 1.77445399e-005 1.75336681e-005 1.22538968e-005
      1.21407693e-005 5.12157840e-006 1.88435013e-006 2.01836741e-007
      -2.32020807e-006 -2.52651853e-006 -2.62279036e-006
      -4.39527503e-006 -6.30199702e-006 -8.18861008e-006
      -1.00962989e-005 -1.10168758e-005 -1.22471738e-005
      -1.38180540e-005 -1.55413436e-005 -1.52171297e-005
      -1.45767326e-005 -1.43071120e-005 -1.32513605e-005
      -1.28369447e-005 -1.25976185e-005 -1.26981422e-005
      -1.27709854e-005 -1.31795005e-005 -9.86278519e-006
      -9.98676933e-006 -1.00938541e-005 -9.17860325e-006
      -8.46141847e-006 -7.80837490e-006 -7.32976605e-006
      -6.99664633e-006 -6.47029128e-006 -6.68265147e-006
      -6.00259591e-006 -5.18220986e-006 -2.91369111e-006
      -1.30533840e-006 6.92717947e-007 3.20161757e-006 6.36973073e-006
      9.49943478e-006 1.46805987e-005 1.83787633e-005 1.99682945e-005
      2.22741892e-005 2.40835161e-005 2.52910231e-005 2.71039971e-005
      2.96600756e-005 3.29794384e-005 3.35953773e-005 3.11516415e-005
      3.20892796e-005 3.38598184e-005 3.38479040e-005 3.70570851e-005
      3.52973366e-005 3.48398462e-005 3.67621215e-005 4.04829007e-005
      4.27044724e-005 4.14819333e-005 3.61543571e-005 3.06324800e-005
      2.74784743e-005 2.67869964e-005 2.80142358e-005 2.66647912e-005
      2.18561490e-005 1.53294313e-005 1.19278275e-005 1.48908139e-005
      1.48033187e-005 1.07721844e-005 1.17082527e-005 4.95872291e-006
      1.31432921e-006 -1.33144681e-006 -4.24200425e-006 -2.98201417e-006
      -3.21536641e-006 -5.31778915e-006 -5.86852639e-006
      -6.47886918e-006 -7.82351344e-006 -8.56496536e-006
      -1.02315444e-005 -1.24199660e-005 -1.45556742e-005
      -1.53015935e-005 -1.45869662e-005 -1.45172398e-005
      -1.34454285e-005 -1.23951795e-005 -1.23454656e-005
      -1.27532458e-005 -1.27021694e-005 -1.29706832e-005
      -9.42956194e-006 -9.53007202e-006 -9.65862091e-006
      -9.36372453e-006 -8.57718078e-006 -7.40340147e-006
      -7.49155015e-006 -6.95431163e-006 -7.89251681e-006
      -7.52304368e-006 -6.74152307e-006 -5.63883941e-006
      -3.56601663e-006 -1.51637266e-006 5.05593164e-007 2.52839095e-006
      4.23109987e-006 9.08903712e-006 1.23164136e-005 1.47429719e-005
      1.69863997e-005 1.93690521e-005 1.86109537e-005 1.88506128e-005
      2.27912296e-005 2.43732320e-005 2.71969857e-005 3.01679647e-005
      3.05854082e-005 3.26182671e-005 3.36202829e-005 3.33176722e-005
      3.40574516e-005 3.37744423e-005 3.58192920e-005 4.03411868e-005
      4.23497113e-005 4.17396695e-005 4.00231293e-005 3.65700544e-005
      3.15575271e-005 3.10567884e-005 3.20190666e-005 3.25265028e-005
      3.13350174e-005 2.62569483e-005 1.62215183e-005 9.33875344e-006
      1.29656291e-005 1.61788739e-005 1.25538772e-005 1.00268398e-005
      7.26226835e-006 -2.19803397e-007 -4.32700062e-006 -4.21169261e-006
      -4.31752505e-006 -4.74960461e-006 -5.29664476e-006
      -5.92622700e-006 -5.75931153e-006 -6.29876240e-006
      -7.10828681e-006 -7.98745623e-006 -1.06229900e-005
      -1.32205223e-005 -1.49637544e-005 -1.44471442e-005
      -1.41479159e-005 -1.31931192e-005 -1.35235468e-005
      -1.30650315e-005 -1.36714652e-005 -1.35851942e-005
      -1.34832790e-005 -9.32094463e-006 -9.66238531e-006
      -9.48944216e-006 -9.33254341e-006 -8.49322169e-006
      -7.18207730e-006 -7.36044967e-006 -7.20399703e-006
      -7.98498058e-006 -7.65385903e-006 -7.33000570e-006
      -5.85153157e-006 -4.96261600e-006 -3.76732601e-006
      -1.30443539e-006 6.97731934e-007 2.80389054e-006 6.40913640e-006
      8.97820246e-006 1.08484328e-005 1.38161204e-005 1.59609481e-005
      1.50522137e-005 1.42118170e-005 1.73614844e-005 1.85568479e-005
      2.37708318e-005 2.87191124e-005 2.96099315e-005 2.95226091e-005
      3.09103489e-005 3.14422905e-005 3.10802825e-005 2.89551881e-005
      3.00910215e-005 3.55270095e-005 3.93016271e-005 3.95034986e-005
      3.98432348e-005 3.93952578e-005 3.90716559e-005 3.67461034e-005
      3.46210581e-005 3.34901088e-005 3.41049381e-005 3.15346806e-005
      2.22900308e-005 1.38456435e-005 1.60614145e-005 1.74025627e-005
      1.25265315e-005 8.95480116e-006 6.27206055e-006 -1.13729243e-006
      -4.91732044e-006 -3.93850496e-006 -5.18242632e-006
      -5.49336119e-006 -5.28015698e-006 -5.92375500e-006
      -6.05142986e-006 -6.03970648e-006 -6.14205464e-006
      -7.18561614e-006 -9.81473568e-006 -1.29227446e-005
      -1.44250562e-005 -1.45911736e-005 -1.43008319e-005
      -1.36031204e-005 -1.34617467e-005 -1.32720561e-005
      -1.35498867e-005 -1.36935369e-005 -1.32670102e-005
      -9.53791096e-006 -9.95265509e-006 -1.01083097e-005
      -9.47783610e-006 -8.78754690e-006 -8.57725627e-006
      -8.21764934e-006 -7.83610085e-006 -7.95993310e-006
      -7.66225730e-006 -7.46637488e-006 -6.47738761e-006
      -6.08599248e-006 -5.19957439e-006 -2.69845282e-006
      -2.88609158e-007 9.74319846e-007 3.99984947e-006 5.76534831e-006
      7.77646255e-006 1.03103939e-005 1.30539202e-005 1.27853991e-005
      1.21612720e-005 1.31028946e-005 1.28097190e-005 1.82087806e-005
      2.47028820e-005 2.37495515e-005 2.21047521e-005 2.41313810e-005
      2.47272601e-005 2.34435593e-005 2.43721915e-005 2.92388249e-005
      3.84138948e-005 4.26238003e-005 3.92605543e-005 3.51384551e-005
      3.33842254e-005 3.29775576e-005 3.28163842e-005 3.03623365e-005
      2.83253357e-005 2.97997194e-005 3.07164446e-005 2.60192410e-005
      1.85155895e-005 1.94311215e-005 1.88403355e-005 1.36648023e-005
      9.96498875e-006 5.83175142e-006 -7.10311781e-007 -3.25152610e-006
      -3.47819127e-006 -4.16608873e-006 -4.45588103e-006
      -3.47250398e-006 -4.10273196e-006 -4.63062679e-006
      -5.32096510e-006 -5.24955840e-006 -6.58061026e-006
      -1.05110321e-005 -1.27283001e-005 -1.40400962e-005
      -1.41773344e-005 -1.37873812e-005 -1.31767520e-005
      -1.33081203e-005 -1.31597044e-005 -1.31617335e-005
      -1.34499360e-005 -1.31877223e-005 -9.79418019e-006
      -1.01519499e-005 -1.00627012e-005 -1.02646336e-005
      -1.02352487e-005 -9.86150098e-006 -9.01010753e-006
      -8.51024743e-006 -8.14729265e-006 -7.91110961e-006
      -7.42396969e-006 -6.70629652e-006 -6.12609119e-006
      -4.83002987e-006 -2.51814186e-006 -3.15781001e-008 9.90498620e-007
      2.32985985e-006 2.95199084e-006 5.30397301e-006 8.36826621e-006
      1.03670573e-005 9.20709135e-006 9.03205364e-006 9.63226557e-006
      8.48900891e-006 1.28480287e-005 1.83081866e-005 1.79574381e-005
      1.72217660e-005 2.15437958e-005 2.35384286e-005 2.28778172e-005
      2.71139215e-005 3.74115916e-005 4.72914508e-005 4.84643642e-005
      3.95518509e-005 3.07610644e-005 2.64910304e-005 2.52772952e-005
      2.79560481e-005 2.90156422e-005 2.66405405e-005 2.43092600e-005
      2.40908248e-005 2.27189412e-005 2.03865056e-005 2.27920755e-005
      2.22930557e-005 1.74361976e-005 1.32028172e-005 6.95168501e-006
      -3.28432037e-007 -1.89922844e-006 -2.81813209e-006
      -2.90167145e-006 -3.02497369e-006 -2.87424382e-006
      -3.10647806e-006 -3.78754225e-006 -4.48239552e-006
      -4.68832832e-006 -6.33908985e-006 -1.03486791e-005
      -1.24079561e-005 -1.34461816e-005 -1.34412685e-005
      -1.34873335e-005 -1.29463697e-005 -1.30849648e-005
      -1.29144009e-005 -1.32234936e-005 -1.33727099e-005
      -1.30194703e-005 -1.09712455e-005 -1.08481163e-005
      -1.08042723e-005 -1.02930198e-005 -1.01804553e-005
      -9.98205905e-006 -9.58018973e-006 -9.45943066e-006
      -9.18651313e-006 -8.92241496e-006 -8.44472470e-006
      -8.20968216e-006 -6.67051063e-006 -5.17533408e-006
      -2.90902130e-006 -4.05269247e-007 5.87136867e-007 1.22706263e-006
      2.43415820e-006 4.73660657e-006 8.48437685e-006 9.01153180e-006
      5.72290082e-006 5.50598406e-006 5.53365908e-006 5.88556850e-006
      1.01173091e-005 1.44432179e-005 1.59745014e-005 1.94595796e-005
      2.59874796e-005 2.94214078e-005 3.08853232e-005 3.53853502e-005
      4.28670828e-005 4.84394768e-005 4.63278593e-005 3.78531367e-005
      3.05872309e-005 2.86725153e-005 2.66225597e-005 2.95758600e-005
      3.42849016e-005 3.26286572e-005 2.68608583e-005 2.27402870e-005
      2.02304600e-005 2.08214005e-005 2.55830582e-005 2.57107586e-005
      2.34878262e-005 1.87902751e-005 9.64768788e-006 1.35585265e-006
      -9.81964035e-007 -1.64887206e-006 -2.54513702e-006
      -2.64903042e-006 -2.55032455e-006 -2.38256962e-006
      -2.87955390e-006 -3.88834815e-006 -4.05344599e-006
      -6.92753110e-006 -1.13540609e-005 -1.28847996e-005
      -1.35601904e-005 -1.35308519e-005 -1.37043999e-005
      -1.39566673e-005 -1.38082951e-005 -1.34038673e-005
      -1.34675029e-005 -1.37650050e-005 -1.35249784e-005
      -1.13547212e-005 -1.13631868e-005 -1.13643509e-005
      -1.05661866e-005 -1.05599520e-005 -9.96470408e-006
      -9.37734603e-006 -9.36653669e-006 -9.10029848e-006
      -9.02114698e-006 -9.29870839e-006 -9.27459496e-006
      -8.30430781e-006 -5.30615398e-006 -2.74097579e-006 2.24264184e-007
      1.32558887e-006 2.24686141e-006 3.47673972e-006 6.32120145e-006
      9.37952245e-006 8.03195144e-006 4.60382216e-006 4.44031866e-006
      4.48633273e-006 7.10833410e-006 1.13412616e-005 1.47278861e-005
      1.77009770e-005 2.24300566e-005 2.78969164e-005 3.25799047e-005
      3.46864945e-005 3.62344472e-005 3.85503845e-005 4.02885744e-005
      4.04095299e-005 3.86364918e-005 3.71996757e-005 3.58134166e-005
      3.00291194e-005 2.99177100e-005 3.45773406e-005 3.66278400e-005
      3.17320300e-005 2.44795392e-005 1.76758967e-005 1.73313183e-005
      2.53459766e-005 2.82723558e-005 2.99930980e-005 2.41236048e-005
      1.13757942e-005 1.35252901e-006 -5.74467890e-007 -2.72923126e-006
      -3.01261457e-006 -3.22304572e-006 -2.86701334e-006
      -2.62779281e-006 -2.71862382e-006 -3.78699883e-006
      -4.23061510e-006 -7.14638827e-006 -1.21782614e-005
      -1.34499869e-005 -1.40588327e-005 -1.46075399e-005
      -1.48076206e-005 -1.47419833e-005 -1.40936945e-005
      -1.34283973e-005 -1.30392391e-005 -1.36259641e-005
      -1.37312254e-005 -1.18511989e-005 -1.19558736e-005
      -1.14829818e-005 -1.03239518e-005 -1.03215043e-005
      -1.00047328e-005 -9.04708122e-006 -9.11546158e-006
      -9.06719652e-006 -8.53613346e-006 -8.45758041e-006
      -8.86072121e-006 -8.30916451e-006 -5.25841642e-006
      -2.11597717e-006 6.36655386e-007 2.39861629e-006 3.47733749e-006
      5.54842427e-006 8.42343525e-006 1.09916955e-005 8.64536378e-006
      5.65729215e-006 5.52685697e-006 7.70602401e-006 1.09202247e-005
      1.39234053e-005 1.56544047e-005 1.87613241e-005 2.30254936e-005
      2.63571146e-005 2.99519797e-005 3.18453858e-005 3.20451036e-005
      3.19046303e-005 3.35040422e-005 3.76489879e-005 3.97507065e-005
      3.87279943e-005 3.52210991e-005 2.89190793e-005 2.50482553e-005
      2.74330523e-005 3.22780725e-005 3.08008348e-005 2.40095887e-005
      1.45706299e-005 1.28250103e-005 2.24693540e-005 2.82604669e-005
      3.27971866e-005 2.76692426e-005 1.26305131e-005 1.08319216e-006
      -3.77097933e-007 -2.72007333e-006 -2.41741282e-006
      -3.06409083e-006 -2.57207898e-006 -2.46250329e-006
      -2.50662060e-006 -3.22344863e-006 -3.63101822e-006
      -7.21624974e-006 -1.28906804e-005 -1.40236180e-005
      -1.41850187e-005 -1.50492360e-005 -1.54796762e-005
      -1.51995373e-005 -1.45977665e-005 -1.33828216e-005
      -1.32740306e-005 -1.34000093e-005 -1.35119235e-005
      -1.23061227e-005 -1.20987588e-005 -1.15612465e-005
      -1.07841161e-005 -1.05595573e-005 -9.68178028e-006
      -9.20869752e-006 -8.50972629e-006 -8.89045077e-006
      -8.62575325e-006 -8.64104641e-006 -8.64898357e-006
      -7.97855137e-006 -5.57240355e-006 -2.80910649e-006 6.93372044e-007
      2.60110278e-006 5.56578198e-006 8.02636623e-006 1.08533095e-005
      1.24879180e-005 1.02800650e-005 7.15435408e-006 6.01699367e-006
      1.12378848e-005 1.43844036e-005 1.54492027e-005 1.50888118e-005
      1.69662526e-005 2.13713956e-005 2.38783050e-005 2.49503901e-005
      3.04455189e-005 3.06732181e-005 2.98079376e-005 3.06496077e-005
      3.47064088e-005 3.63417894e-005 3.23498316e-005 2.92780642e-005
      2.13336152e-005 1.45760205e-005 1.35207792e-005 1.93387386e-005
      2.27555647e-005 2.01748880e-005 1.38225141e-005 1.29155878e-005
      1.92661282e-005 2.61641726e-005 3.30482471e-005 2.92347449e-005
      1.26154891e-005 4.42166083e-007 -4.17417198e-007 -2.35410039e-006
      -1.76372930e-006 -2.43591512e-006 -2.19517665e-006
      -2.36458709e-006 -2.40617783e-006 -3.35256982e-006
      -3.12596649e-006 -6.07231323e-006 -1.16875763e-005
      -1.35221935e-005 -1.40316661e-005 -1.45173344e-005
      -1.52452885e-005 -1.53142482e-005 -1.41362843e-005
      -1.30004619e-005 -1.35224991e-005 -1.32499808e-005
      -1.35533837e-005 -1.10230403e-005 -1.11210202e-005
      -1.13702890e-005 -1.09559314e-005 -1.09656830e-005
      -1.03664734e-005 -9.76926367e-006 -9.03371892e-006
      -9.91294837e-006 -9.29575617e-006 -9.35973276e-006
      -9.25275708e-006 -8.31110538e-006 -5.77229503e-006
      -3.21517541e-006 1.11666168e-006 5.26005851e-006 7.94888547e-006
      1.08497970e-005 1.33712829e-005 1.35090277e-005 1.00567895e-005
      7.90059948e-006 7.59899604e-006 1.47005794e-005 1.81932101e-005
      1.80657571e-005 1.74334455e-005 1.69132654e-005 1.36265235e-005
      1.30037806e-005 1.39483682e-005 2.07036865e-005 2.66721527e-005
      3.32758718e-005 3.50094597e-005 3.06359143e-005 2.47420703e-005
      2.09516875e-005 2.34414110e-005 1.87288151e-005 1.12494890e-005
      1.00956440e-005 1.29893242e-005 1.64360608e-005 1.82943095e-005
      1.63190052e-005 1.49515745e-005 1.87631631e-005 2.48501929e-005
      3.29957984e-005 2.66562438e-005 1.01835594e-005 1.59278409e-006
      -6.37300559e-007 -3.70555290e-006 -2.28412068e-006
      -2.91221795e-006 -3.62234232e-006 -2.78821835e-006
      -3.54361237e-006 -3.40369775e-006 -4.10130724e-006
      -7.13971303e-006 -1.06178204e-005 -1.24081371e-005
      -1.34981237e-005 -1.40345101e-005 -1.47110986e-005
      -1.47778410e-005 -1.39796921e-005 -1.34503925e-005
      -1.29155769e-005 -1.31828110e-005 -1.36487070e-005
      -1.06390653e-005 -1.07303322e-005 -1.09295424e-005
      -1.06499747e-005 -1.05918680e-005 -1.02152580e-005
      -9.93553931e-006 -9.21234368e-006 -1.00876123e-005
      -9.95588289e-006 -9.52335904e-006 -9.41466806e-006
      -8.38497817e-006 -5.47348873e-006 -1.88746310e-006 3.42581689e-006
      7.07100253e-006 1.02471131e-005 1.28259580e-005 1.41472246e-005
      1.32480336e-005 1.02229324e-005 8.90531919e-006 9.86042869e-006
      1.71940737e-005 2.21960672e-005 2.14483389e-005 2.02889587e-005
      1.52109496e-005 6.22823563e-006 3.63923664e-006 5.27648172e-006
      1.32779423e-005 2.38504908e-005 3.04248151e-005 2.55200339e-005
      1.87590849e-005 1.53437504e-005 1.43282978e-005 1.85416975e-005
      1.78661212e-005 1.31703009e-005 1.14090853e-005 1.33223211e-005
      1.38005062e-005 1.22556557e-005 1.12488915e-005 1.30801536e-005
      1.72039581e-005 2.14633783e-005 2.83255249e-005 2.48448978e-005
      9.95442042e-006 6.17280250e-007 -9.81912194e-007 -3.25806559e-006
      -3.22793653e-006 -4.19257276e-006 -3.52725760e-006
      -2.98008877e-006 -3.92107540e-006 -3.91421645e-006
      -4.75871184e-006 -8.21415779e-006 -1.11790387e-005
      -1.28722941e-005 -1.36179851e-005 -1.40182565e-005
      -1.42322870e-005 -1.42700083e-005 -1.40995062e-005
      -1.40251232e-005 -1.32268869e-005 -1.33116027e-005
      -1.40712309e-005 -1.06103771e-005 -1.08137365e-005
      -1.06523930e-005 -1.04562241e-005 -9.82043730e-006
      -9.30322403e-006 -9.20590719e-006 -9.02447300e-006
      -9.63350340e-006 -9.51348375e-006 -9.43228861e-006
      -9.44443491e-006 -8.59521970e-006 -4.52393033e-006 9.71359555e-007
      6.51811524e-006 1.02447002e-005 1.29201817e-005 1.39079248e-005
      1.42509007e-005 1.28431693e-005 1.15544999e-005 1.11404397e-005
      1.37885991e-005 1.95057892e-005 2.41291527e-005 2.18674049e-005
      1.78044720e-005 1.01002415e-005 2.28190493e-006 2.14882834e-006
      6.71254975e-006 1.48902991e-005 2.68438525e-005 2.85115984e-005
      1.77211405e-005 1.00705192e-005 8.76953800e-006 1.02838567e-005
      1.38451305e-005 2.17808665e-005 2.33085211e-005 2.37901731e-005
      2.23728457e-005 1.56499464e-005 8.64143385e-006 7.64875858e-006
      1.26404211e-005 1.67265662e-005 1.95893299e-005 2.50078356e-005
      2.28560730e-005 1.14954482e-005 1.35328366e-006 -1.83093027e-006
      -3.09201869e-006 -3.83169208e-006 -3.96662654e-006
      -2.87488729e-006 -2.46392324e-006 -2.83155623e-006
      -3.07006394e-006 -4.06408753e-006 -7.63529351e-006
      -1.20827963e-005 -1.32330215e-005 -1.38411551e-005
      -1.38650357e-005 -1.41856553e-005 -1.41828132e-005
      -1.42293484e-005 -1.48687041e-005 -1.38494352e-005
      -1.40486263e-005 -1.49181233e-005 -1.14680861e-005
      -1.08615359e-005 -1.01431997e-005 -9.76491174e-006
      -9.47954049e-006 -8.99894076e-006 -9.70847941e-006
      -1.00111129e-005 -9.46828641e-006 -8.59176271e-006
      -9.11802545e-006 -9.41629696e-006 -8.72845885e-006
      -4.13326597e-006 1.99167175e-006 8.54639347e-006 1.19770020e-005
      1.40312040e-005 1.47390165e-005 1.53789842e-005 1.46102684e-005
      1.58117655e-005 1.56720253e-005 1.79757881e-005 2.21919036e-005
      2.36135165e-005 1.79112321e-005 1.17848331e-005 6.51841310e-006
      4.96629536e-006 8.53490837e-006 1.37479792e-005 2.34550225e-005
      3.01384425e-005 2.29905218e-005 1.06681937e-005 6.85203349e-006
      9.79328252e-006 1.21620797e-005 1.48052231e-005 2.73465412e-005
      3.14048375e-005 3.07900154e-005 2.72272828e-005 1.50637261e-005
      2.73545629e-006 2.12410282e-006 9.80289042e-006 1.51183885e-005
      1.86221205e-005 2.27532928e-005 1.96554356e-005 1.07267761e-005
      2.46573904e-006 -1.46614218e-006 -3.63403274e-006 -3.65311757e-006
      -3.45255330e-006 -2.88896103e-006 -2.62991125e-006
      -1.76358981e-006 -2.92440996e-006 -3.55866973e-006
      -7.36685661e-006 -1.18611761e-005 -1.30416256e-005
      -1.37599409e-005 -1.41527316e-005 -1.44605247e-005
      -1.42008157e-005 -1.41152541e-005 -1.49240204e-005
      -1.45858639e-005 -1.45588665e-005 -1.49901725e-005
      -1.05301142e-005 -9.83182235e-006 -9.48912657e-006
      -9.44860858e-006 -9.15439250e-006 -8.83023858e-006
      -8.94753521e-006 -9.61595379e-006 -9.31569593e-006
      -8.70956501e-006 -9.02361353e-006 -8.94478217e-006
      -7.51777407e-006 -4.20416927e-006 1.88465549e-006 8.32660317e-006
      1.22486563e-005 1.39112817e-005 1.41345663e-005 1.46951134e-005
      1.47869059e-005 1.65635247e-005 1.78332302e-005 2.07244120e-005
      2.28087265e-005 2.16417320e-005 1.38754549e-005 7.83665746e-006
      6.02982391e-006 8.85386362e-006 1.32293926e-005 1.63597924e-005
      2.80629283e-005 2.83291483e-005 1.70201638e-005 7.37583969e-006
      9.85733277e-006 1.66156478e-005 1.93470223e-005 2.21738919e-005
      2.56490493e-005 2.75390303e-005 2.59860517e-005 2.28166064e-005
      1.11338150e-005 1.22986171e-006 1.45428510e-006 9.46267664e-006
      1.47754126e-005 1.81772739e-005 1.95226148e-005 1.35479759e-005
      5.96410018e-006 1.13118506e-006 -2.52583413e-006 -5.67069037e-006
      -4.63832930e-006 -3.94703466e-006 -3.64819493e-006
      -3.45913736e-006 -2.63271613e-006 -3.10440760e-006
      -3.84992518e-006 -8.40280700e-006 -1.16580259e-005
      -1.27798430e-005 -1.39530830e-005 -1.42209828e-005
      -1.43509606e-005 -1.42479021e-005 -1.38989344e-005
      -1.38653941e-005 -1.31552042e-005 -1.34460179e-005
      -1.36641074e-005 -1.03236825e-005 -9.75674629e-006
      -9.35210301e-006 -8.73190493e-006 -8.80985681e-006
      -8.50846118e-006 -8.83407301e-006 -9.14825978e-006
      -9.10889503e-006 -8.44980423e-006 -8.11730752e-006
      -8.05074251e-006 -6.90623347e-006 -3.92325819e-006 2.32212869e-006
      8.70202803e-006 1.29445189e-005 1.37408178e-005 1.42435856e-005
      1.53493947e-005 1.53054680e-005 1.64860958e-005 1.85575373e-005
      2.22984072e-005 2.29403067e-005 1.94134209e-005 1.08435479e-005
      6.42879650e-006 7.29973135e-006 1.19783890e-005 1.35310083e-005
      1.39515150e-005 2.39540987e-005 2.14344636e-005 1.34068086e-005
      8.36092386e-006 1.29007485e-005 1.99315255e-005 2.26099128e-005
      2.71220651e-005 1.85020781e-005 1.77165275e-005 1.67838480e-005
      1.55950056e-005 9.60857142e-006 3.52477923e-006 4.94780352e-006
      1.20169470e-005 1.54702466e-005 1.68699771e-005 1.34669399e-005
      5.42320686e-006 4.88741648e-007 -1.51842630e-006 -3.76733306e-006
      -6.09160315e-006 -4.22757921e-006 -2.73486307e-006
      -2.97180827e-006 -3.06222933e-006 -3.04870673e-006
      -4.03192053e-006 -4.97851170e-006 -9.49627338e-006
      -1.29574482e-005 -1.35257987e-005 -1.51455724e-005
      -1.56668193e-005 -1.56385740e-005 -1.48246372e-005
      -1.43378138e-005 -1.39959529e-005 -1.30298940e-005
      -1.30647477e-005 -1.29587970e-005 -1.03635693e-005
      -9.58681449e-006 -9.21585161e-006 -8.97150403e-006
      -9.07619142e-006 -8.68338702e-006 -9.06456535e-006
      -9.31889463e-006 -8.34245111e-006 -7.19283707e-006
      -6.78807010e-006 -6.82887730e-006 -6.10786356e-006
      -2.21795631e-006 3.90443938e-006 1.04742603e-005 1.40531874e-005
      1.38983460e-005 1.40147895e-005 1.54208174e-005 1.47910550e-005
      1.56420247e-005 1.72569271e-005 2.26088214e-005 2.35066163e-005
      1.82071635e-005 1.12788248e-005 9.75159764e-006 1.09231860e-005
      1.21159846e-005 1.10233641e-005 1.19588130e-005 1.90129031e-005
      1.93104461e-005 1.47668679e-005 1.15354824e-005 1.16021729e-005
      1.62426313e-005 1.88728791e-005 2.45373158e-005 1.79127728e-005
      1.63233708e-005 1.48061445e-005 1.28229904e-005 7.54021175e-006
      1.73048579e-006 7.47271179e-006 1.39652484e-005 1.72969267e-005
      1.40205520e-005 7.14979296e-006 -1.33666595e-006 -3.43806482e-006
      -5.11284225e-006 -7.56928102e-006 -7.81972358e-006
      -6.65729749e-006 -5.92308243e-006 -4.63057995e-006
      -5.25209771e-006 -5.51328458e-006 -7.09783080e-006
      -8.40107259e-006 -1.17477020e-005 -1.44786600e-005
      -1.47651008e-005 -1.56939914e-005 -1.67186263e-005
      -1.68082825e-005 -1.58780349e-005 -1.49662528e-005
      -1.41914752e-005 -1.43858133e-005 -1.43773977e-005
      -1.36845847e-005 -1.10267774e-005 -1.08860595e-005
      -1.00400184e-005 -9.89292221e-006 -9.54343159e-006
      -8.86881935e-006 -9.08915990e-006 -9.64205719e-006
      -8.38984215e-006 -7.40697760e-006 -7.48320690e-006
      -6.79378127e-006 -5.98059705e-006 -2.44933017e-006 4.03480590e-006
      1.04137234e-005 1.41771789e-005 1.43921043e-005 1.47023711e-005
      1.57034883e-005 1.49169573e-005 1.59964238e-005 1.79370654e-005
      2.06183686e-005 2.40214667e-005 1.95909670e-005 1.59649171e-005
      1.57746326e-005 1.29580085e-005 1.02658441e-005 1.06304224e-005
      1.25022198e-005 1.93685373e-005 2.36652286e-005 2.16828921e-005
      1.58055482e-005 1.56485075e-005 1.81734595e-005 1.98326852e-005
      2.31968224e-005 2.42387559e-005 2.26176562e-005 2.13466683e-005
      1.96309302e-005 1.21339735e-005 4.58745535e-006 8.91669788e-006
      1.42411182e-005 1.27406893e-005 8.85136978e-006 7.54426935e-007
      -4.18336913e-006 -5.25933547e-006 -7.89678143e-006
      -1.05343752e-005 -9.98381438e-006 -1.07772312e-005
      -1.09003649e-005 -9.99991153e-006 -1.01686583e-005
      -1.09061903e-005 -1.10654300e-005 -1.26496570e-005
      -1.47156907e-005 -1.55645230e-005 -1.55285652e-005
      -1.64827998e-005 -1.70912936e-005 -1.70907260e-005
      -1.57674403e-005 -1.51539871e-005 -1.51131862e-005
      -1.61705575e-005 -1.61457101e-005 -1.57875565e-005
      -1.24962962e-005 -1.15592229e-005 -1.36778890e-005
      -1.25534398e-005 -1.14624054e-005 -1.19023262e-005
      -1.05044028e-005 -1.24468634e-005 -1.18793605e-005
      -1.08311060e-005 -9.87401836e-006 -8.83095800e-006
      -7.94694824e-006 -5.13024634e-006 1.35844698e-006 9.29428643e-006
      1.20790692e-005 1.43192719e-005 1.49673169e-005 1.46150369e-005
      1.37033712e-005 1.50655251e-005 1.76905978e-005 2.09530554e-005
      2.39736546e-005 2.25289896e-005 2.05766446e-005 1.92397074e-005
      1.77156780e-005 1.73850422e-005 1.80218340e-005 1.54310910e-005
      1.86542438e-005 2.60945781e-005 2.87221810e-005 2.47750031e-005
      2.43557115e-005 2.83704630e-005 2.79922642e-005 2.22901635e-005
      2.32870370e-005 2.45385745e-005 2.77682539e-005 2.29363777e-005
      6.66617643e-006 1.34612719e-006 7.48506545e-006 8.81824781e-006
      8.08070308e-006 6.05467949e-006 1.18960668e-006 -3.02036301e-006
      -7.11901248e-006 -8.46872717e-006 -8.42224108e-006
      -9.53748076e-006 -9.92836976e-006 -1.32658733e-005
      -1.46516031e-005 -1.46108305e-005 -1.41946211e-005
      -1.32783789e-005 -1.51595650e-005 -1.63621207e-005
      -1.66238187e-005 -1.65559904e-005 -1.69849573e-005
      -1.67969702e-005 -1.57790910e-005 -1.51883232e-005
      -1.47896371e-005 -1.46675357e-005 -1.70172352e-005
      -1.64845078e-005 -1.47335877e-005 -1.28505426e-005
      -1.33737703e-005 -1.52386037e-005 -1.17714180e-005
      -1.03063649e-005 -1.13034994e-005 -9.93005506e-006
      -1.00252582e-005 -1.07491387e-005 -1.09321045e-005
      -9.83305563e-006 -9.36830202e-006 -9.96892413e-006
      -7.49558239e-006 -8.19434433e-007 7.87091267e-006 1.14790446e-005
      1.42188646e-005 1.41986366e-005 1.39261838e-005 1.46556331e-005
      1.66400532e-005 2.05420492e-005 2.31192280e-005 2.52810969e-005
      2.40369482e-005 2.09786867e-005 1.88677750e-005 1.76478407e-005
      1.92909702e-005 2.02290157e-005 1.71796473e-005 1.85148783e-005
      2.69173270e-005 2.85073638e-005 2.57661504e-005 2.76111223e-005
      2.95946156e-005 2.75519906e-005 2.02776373e-005 1.70223720e-005
      2.21265600e-005 2.34168710e-005 1.34983929e-005 -2.22735616e-006
      -3.75293916e-006 -5.93924710e-007 -1.44350577e-006 3.21860875e-006
      1.71599163e-006 -1.29282284e-006 -4.86994077e-006 -7.52241749e-006
      -8.16374995e-006 -7.48793218e-006 -7.60475859e-006
      -7.47480681e-006 -1.13966089e-005 -1.54301561e-005
      -1.52099565e-005 -1.49137422e-005 -1.38270716e-005
      -1.55878224e-005 -1.62430097e-005 -1.74286724e-005
      -1.66033151e-005 -1.63233781e-005 -1.64218563e-005
      -1.64377725e-005 -1.65122074e-005 -1.73305434e-005
      -1.70112380e-005 -1.59347856e-005 -1.73826829e-005
      -1.63304194e-005 -1.35088330e-005 -1.51470713e-005
      -1.71920365e-005 -1.40640732e-005 -1.37819161e-005
      -1.44416663e-005 -1.07639198e-005 -9.67567939e-006
      -6.23151209e-006 -6.56145266e-006 -5.99494524e-006
      -5.67128109e-006 -5.32187005e-006 -3.25845258e-006 2.05473339e-006
      9.86504529e-006 1.33208614e-005 1.52575358e-005 1.50675860e-005
      1.54790287e-005 1.51527547e-005 1.71211523e-005 2.01691328e-005
      2.15658110e-005 2.73252317e-005 2.98120140e-005 2.85770257e-005
      2.57956672e-005 2.53214312e-005 2.85715669e-005 2.94595266e-005
      2.57759657e-005 2.10626313e-005 2.72047710e-005 2.72121306e-005
      2.79671713e-005 3.22084416e-005 3.29518189e-005 2.89163327e-005
      2.32577713e-005 1.67251364e-005 2.40644040e-005 2.62728245e-005
      1.31222305e-005 2.13033923e-006 4.06359095e-006 5.25931318e-006
      1.10463270e-006 2.00274735e-006 1.57931561e-006 1.04943047e-006
      -2.36139545e-006 -4.78758557e-006 -4.57785518e-006
      -2.68210988e-006 -1.78967923e-006 -3.84009309e-006
      -8.50632296e-006 -1.33898511e-005 -1.44138967e-005
      -1.45305530e-005 -1.43787474e-005 -1.61888947e-005
      -1.64846369e-005 -1.43945044e-005 -1.43690349e-005
      -1.41306209e-005 -1.41248138e-005 -1.39168405e-005
      -1.38340893e-005 -1.44873111e-005 -1.41816599e-005
      -1.50052520e-005 -1.73142034e-005 -1.83006778e-005
      -1.36143944e-005 -1.47542951e-005 -1.71631109e-005
      -1.43542684e-005 -1.26773866e-005 -1.36185290e-005
      -1.19717624e-005 -1.19131601e-005 -1.27970679e-005
      -1.08634686e-005 -1.05353056e-005 -1.14208078e-005
      -1.15238336e-005 -1.03765988e-005 -6.33589252e-006 6.55058386e-007
      8.09355242e-006 8.67838298e-006 8.34767343e-006 8.63315017e-006
      6.74178182e-006 6.25394932e-006 6.13063639e-006 7.16189925e-006
      1.62941560e-005 2.35513307e-005 2.48413744e-005 2.35058233e-005
      2.48608394e-005 2.70155142e-005 2.73875885e-005 2.54423030e-005
      2.39686251e-005 2.44928469e-005 2.28004119e-005 2.81221528e-005
      3.64986554e-005 3.68885885e-005 2.90887092e-005 2.25620861e-005
      1.62402976e-005 2.14655629e-005 2.44826842e-005 1.53430319e-005
      8.58914518e-006 9.26980738e-006 6.49799858e-006 4.14776923e-006
      -1.74254410e-007 -1.05492143e-006 -9.26448422e-007
      -1.55589021e-006 -3.25788324e-006 -2.23862253e-006
      -9.47505725e-007 -3.37000699e-007 -9.57302220e-008
      -3.44627688e-006 -1.01407668e-005 -1.30464023e-005
      -1.37022716e-005 -1.38478154e-005 -1.45487920e-005
      -1.60840627e-005 -1.69663836e-005 -1.69906216e-005
      -1.56655897e-005 -1.45481608e-005 -1.41880937e-005
      -1.44316418e-005 -1.49564776e-005 -1.48557301e-005
      -1.37153829e-005 -1.50473143e-005 -1.48894851e-005
      -7.12570909e-006 -8.32921523e-006 -1.25333445e-005
      -1.08683807e-005 -8.75312344e-006 -9.46712953e-006
      -1.03606280e-005 -1.26778377e-005 -1.16432038e-005
      -9.45085867e-006 -9.89075397e-006 -1.12198350e-005
      -1.24093631e-005 -1.35260871e-005 -1.07138221e-005
      -3.93036589e-006 3.56869373e-006 5.27976908e-006 5.62127161e-006
      6.02235286e-006 5.73219086e-006 5.98278029e-006 5.37499818e-006
      6.22457947e-006 1.29252758e-005 2.13364474e-005 2.24622563e-005
      2.16195785e-005 2.27592918e-005 2.35684602e-005 2.44856637e-005
      2.36578398e-005 2.30891928e-005 2.16916305e-005 1.91837898e-005
      2.37619261e-005 3.00361862e-005 2.98215509e-005 2.39167603e-005
      1.86175148e-005 1.42544714e-005 1.66048721e-005 2.20224265e-005
      1.86457419e-005 1.29502014e-005 1.04956816e-005 7.24369102e-006
      6.75458432e-006 2.99554881e-006 9.59285671e-007 7.77955222e-007
      1.08273969e-006 1.50335427e-006 2.42914052e-006 1.63903871e-006
      1.28467070e-006 2.48224592e-006 8.48366540e-007 -5.43858459e-006
      -9.80687673e-006 -1.37782799e-005 -1.44333881e-005
      -1.52717712e-005 -1.71217434e-005 -2.00262057e-005
      -1.99659607e-005 -1.76446028e-005 -1.55975285e-005
      -1.56406732e-005 -1.65957135e-005 -1.76135491e-005
      -1.59148003e-005 -1.49704256e-005 -1.37502493e-005
      -1.19960350e-005 -8.35496576e-006 -8.92200023e-006
      -1.29071486e-005 -1.09350985e-005 -7.73741067e-006
      -7.50402751e-006 -8.06410299e-006 -1.28439306e-005
      -1.13141596e-005 -8.78160608e-006 -9.17994475e-006
      -9.48134766e-006 -1.03836101e-005 -1.07331261e-005
      -8.12523376e-006 -2.90922253e-006 2.31897775e-006 4.84890234e-006
      6.80354469e-006 7.31007958e-006 6.95387826e-006 7.38505423e-006
      7.27417637e-006 1.00868783e-005 1.12160606e-005 1.49073030e-005
      1.71850661e-005 1.74675679e-005 1.61315747e-005 1.67992857e-005
      2.03373784e-005 2.13509720e-005 2.36361520e-005 2.55242740e-005
      2.46262953e-005 2.42463630e-005 2.49639961e-005 2.45379524e-005
      2.29279067e-005 1.88640715e-005 1.39540380e-005 1.39056901e-005
      2.03757791e-005 2.08156089e-005 1.50019796e-005 1.14907907e-005
      9.91130582e-006 1.09424027e-005 9.94429502e-006 8.33274225e-006
      7.29685598e-006 6.23444703e-006 5.26918666e-006 3.99415831e-006
      9.12630981e-007 -3.84050935e-007 -4.52144917e-007 -1.67364135e-006
      -6.34376784e-006 -1.16641559e-005 -1.68425668e-005
      -1.77690035e-005 -1.80855532e-005 -1.82916719e-005
      -2.07709963e-005 -2.02102110e-005 -1.87530986e-005
      -1.75245805e-005 -1.79431590e-005 -1.83972170e-005
      -1.79391755e-005 -1.68821116e-005 -1.94945642e-005
      -1.72309301e-005 -1.14180411e-005 -6.41435554e-006
      -6.78916740e-006 -1.14946606e-005 -1.02267677e-005
      -6.08702749e-006 -2.95047084e-006 -3.26105283e-006
      -1.05599865e-005 -1.45353342e-005 -1.11944355e-005
      -8.95207813e-006 -8.16965985e-006 -7.77178138e-006
      -7.65390541e-006 -6.35410152e-006 -2.07439098e-006 1.63968241e-006
      4.87047510e-006 6.31426201e-006 6.59144143e-006 4.94799497e-006
      5.67068173e-006 6.77116759e-006 1.05118397e-005 1.08180657e-005
      1.16364572e-005 1.50080368e-005 1.77510083e-005 1.44697233e-005
      1.22924694e-005 1.54762693e-005 1.86690741e-005 2.33921546e-005
      2.89321888e-005 3.12619159e-005 2.76517876e-005 2.25672102e-005
      2.22417930e-005 2.39096171e-005 2.04565767e-005 1.63982368e-005
      1.42723275e-005 1.81818832e-005 1.79046965e-005 1.30216877e-005
      1.03002803e-005 8.84334986e-006 8.44262195e-006 1.09707280e-005
      1.15684088e-005 1.14885461e-005 8.31670968e-006 5.28208693e-006
      1.60588331e-006 -1.08509903e-006 -2.40951726e-006 -8.23502035e-007
      -1.48387301e-006 -4.14189071e-006 -8.49779190e-006
      -1.30485032e-005 -1.41318878e-005 -1.34947768e-005
      -1.32662353e-005 -1.85432655e-005 -1.80531697e-005
      -1.85153585e-005 -1.98145935e-005 -2.01265884e-005
      -2.10874259e-005 -2.06593540e-005 -1.95761259e-005
      -2.13078347e-005 -1.94178301e-005 -1.23146319e-005 1.46439379e-006
      1.41564317e-006 -5.62364767e-006 -6.84470660e-006 -6.18926094e-007
      4.74208173e-006 4.07637708e-006 -3.33745470e-006 -5.59439559e-006
      -3.61616480e-006 -3.38350128e-006 -2.85961437e-006
      -1.75416710e-006 -3.37339611e-006 -2.16878470e-006 1.20444236e-006
      3.22292249e-006 5.99214991e-006 8.77624643e-006 1.04005367e-005
      1.28068941e-005 1.34245493e-005 1.36805993e-005 1.54513418e-005
      1.43432944e-005 1.49129282e-005 1.80927145e-005 2.13798994e-005
      1.93667056e-005 1.43272937e-005 1.43980915e-005 1.72241052e-005
      2.26914781e-005 3.12135271e-005 3.56235760e-005 2.84298185e-005
      2.07759313e-005 2.03268173e-005 2.28981589e-005 1.99188016e-005
      2.30047008e-005 1.97664431e-005 1.90589744e-005 1.83867232e-005
      1.56816659e-005 1.38554433e-005 1.25899605e-005 1.02333825e-005
      1.40715501e-005 1.33836356e-005 1.26251452e-005 9.21042101e-006
      4.65820540e-006 1.64717642e-006 2.62241912e-007 1.06482844e-006
      -1.57273894e-006 -9.79012157e-007 -1.09188306e-006
      -2.26403722e-006 -5.75226795e-006 -7.84139229e-006
      -7.94168591e-006 -7.43043256e-006 -1.08469367e-005
      -1.11899190e-005 -1.35924665e-005 -1.61346579e-005
      -1.75830701e-005 -1.74892903e-005 -1.77022630e-005
      -1.97040590e-005 -2.21537703e-005 -1.95271496e-005
      -1.33608273e-005 1.04283272e-005 1.17347963e-005 3.57491967e-006
      3.59163573e-006 6.46945682e-006 1.12021162e-005 6.99502789e-006
      2.02207048e-006 -7.48569107e-007 8.29287160e-007 1.01707508e-006
      1.99824490e-006 1.75755451e-006 -5.58733007e-007 -1.10829728e-006
      8.97287521e-007 2.87893795e-006 7.91534057e-006 1.09238517e-005
      1.34166385e-005 1.72032105e-005 1.86717934e-005 1.86536581e-005
      1.87833157e-005 2.12730865e-005 2.11005336e-005 2.27660021e-005
