<?xml version="1.0"?>
<opencv_storage>
<my_svm type_id="opencv-ml-svm">
  <svm_type>C_SVC</svm_type>
  <kernel><type>LINEAR</type></kernel>
  <C>1.</C>
  <term_criteria><epsilon>1.1920928955078125e-007</epsilon>
    <iterations>1000</iterations></term_criteria>
  <var_all>14112</var_all>
  <var_count>14112</var_count>
  <class_count>2</class_count>
  <class_labels type_id="opencv-matrix">
    <rows>1</rows>
    <cols>2</cols>
    <dt>i</dt>
    <data>
      -1 1</data></class_labels>
  <sv_total>1</sv_total>
  <support_vectors>
    <_>
      -1.24966283e-003 -7.33209716e-004 5.45777038e-005 3.64791340e-004
      3.54506017e-004 5.85412025e-004 -3.28764036e-005 -1.95471730e-004
      -1.23657973e-003 3.88899818e-004 5.12474275e-004 1.31629966e-003
      2.06747837e-003 2.58326734e-004 1.17039552e-003 4.22770914e-004
      5.31683443e-004 -2.05235730e-004 2.51332211e-004 -2.89888238e-004
      1.72204338e-003 5.68515447e-004 -1.70023661e-004 6.30979892e-004
      1.58051797e-003 1.44561834e-003 -9.82856072e-005 -1.04626140e-003
      -6.07454043e-004 -7.81835755e-004 -3.07525601e-003
      -5.50104131e-004 -3.53713316e-004 1.93811452e-003 8.00543057e-004
      -4.61388408e-004 -2.43743882e-004 5.43018803e-004 -5.34350169e-004
      -1.25467824e-003 5.20066707e-004 1.68917890e-004 1.18312857e-003
      4.96162393e-004 -3.04184970e-004 -1.31991354e-003 9.53280425e-004
      1.22065481e-003 4.92784369e-004 1.29186339e-003 2.09909718e-004
      -5.29226600e-005 -2.48350872e-004 -1.21494755e-003
      -1.90822070e-003 -8.37414409e-004 -6.14072851e-005
      -6.81025849e-004 7.60985306e-004 4.37674113e-004 1.47756841e-003
      1.47762406e-003 -1.83230022e-003 -1.63303281e-003 -1.26720290e-003
      -9.68530250e-004 -2.07860791e-003 3.40569641e-005 -4.81222669e-005
      1.28247065e-003 1.36555382e-003 -1.03090284e-003 -7.00452365e-004
      -3.28334245e-005 7.44197227e-004 6.13230921e-004 -5.78370644e-004
      7.41422919e-005 -5.57665015e-004 -2.33696104e-004 -7.51188840e-004
      1.25480711e-003 2.02706797e-004 9.07063484e-004 6.03693305e-004
      -1.52609155e-005 8.38843232e-004 3.02143948e-004 8.04842741e-004
      4.15715622e-004 6.81525562e-005 1.26220824e-004 -7.04409089e-004
      -1.15656992e-003 -1.13040478e-004 5.31887228e-004 1.54656451e-003
      1.31194550e-003 -6.53694908e-004 -2.92336947e-004 -3.26075206e-005
      -8.25574039e-004 -1.83738244e-003 -2.05374919e-004 7.06067949e-004
      2.74324231e-003 1.79007975e-003 -9.56269039e-004 -2.77279713e-003
      7.11361587e-004 9.32904251e-004 1.94066262e-004 4.83229203e-004
      1.19464274e-003 1.84701302e-003 1.14177982e-003 -2.26292876e-003
      -2.75098369e-003 5.78190200e-004 1.15583872e-003 7.52034422e-004
      1.59135344e-003 1.02326344e-003 4.58029943e-004 3.89644520e-005
      -2.51869159e-003 -1.59460504e-003 -1.32844638e-004 5.58456115e-004
      5.36346866e-004 7.84843054e-004 6.74141687e-004 6.41831488e-004
      5.61697852e-005 -1.25228229e-003 -1.29627052e-003 -9.46132117e-004
      1.64967918e-004 -2.20144240e-004 8.76620004e-004 1.38812547e-003
      6.44794840e-004 1.36457058e-003 -4.26220853e-004 -9.41377308e-004
      4.19147545e-004 7.91697705e-004 1.22626094e-004 -1.19841585e-004
      4.66413301e-004 -2.15947890e-004 -6.58811361e-004 -1.80918642e-003
      7.41288386e-005 7.28462299e-004 1.42990507e-003 7.69605685e-004
      1.17486331e-003 1.26913702e-003 2.90247670e-004 -1.54071764e-004
      -7.94878986e-004 -1.92062184e-003 4.03708342e-004 8.41361179e-005
      -1.29651127e-003 2.02799143e-004 1.86500442e-003 1.73277059e-003
      5.88766008e-004 -6.85887935e-004 -1.51701749e-003 7.15779257e-004
      3.02353350e-004 -1.00279262e-003 1.71577150e-004 1.10562402e-003
      1.86962134e-003 7.84607430e-004 -1.38143974e-003 -2.75912671e-003
      -2.11314531e-004 -2.03281215e-005 -7.39302195e-004 8.88386494e-005
      1.25656626e-003 2.80617876e-003 2.72358954e-003 -1.91265496e-003
      -2.80888705e-003 -4.57355665e-004 2.19843903e-004 -6.31203176e-004
      3.03128763e-004 1.47708668e-003 3.07433819e-003 1.31021277e-003
      -2.23138649e-003 -2.67808745e-003 -4.69344523e-005 1.08549895e-003
      6.26092195e-004 7.62032811e-004 1.62396766e-003 2.09456240e-003
      7.54651264e-004 -1.75686833e-003 -2.23576184e-003 5.77060971e-004
      3.67773493e-004 -2.04608819e-004 3.31904186e-004 1.55455864e-003
      2.67234375e-003 2.35368707e-003 -1.71762728e-003 -6.30485883e-004
      -4.37596347e-004 -3.79981910e-004 -1.89206225e-003
      -3.94584495e-004 1.62174820e-003 -3.61279876e-004 -7.08262553e-004
      -1.04878622e-003 -8.56948260e-004 3.22842359e-004 6.00248051e-004
      -4.12307156e-004 2.05016322e-003 2.27091461e-003 9.54887131e-004
      2.43628645e-004 -9.77437361e-004 -1.86525122e-003 9.12086049e-004
      1.26943272e-003 -3.37740988e-004 5.75587444e-004 8.09038756e-004
      1.10402028e-003 1.67356571e-003 -7.44746998e-004 -1.16180431e-003
      9.29495203e-004 1.15422742e-003 -4.52488341e-004 4.21232224e-004
      1.11797662e-003 1.03525701e-003 2.40234169e-003 -9.92224086e-004
      -1.55300077e-003 3.51283816e-004 3.75164382e-005 -3.11783224e-004
      5.72498364e-004 1.19312597e-003 2.20996840e-003 2.52333423e-003
      -1.37098308e-003 -2.80420063e-003 1.64264293e-005 1.13586371e-004
      -4.57498012e-004 -5.92842756e-004 1.52025849e-003 2.80148280e-003
      1.72599987e-003 -2.62615876e-003 -3.81783489e-003 4.45104160e-006
      7.25072226e-004 7.98106485e-004 4.18294512e-004 1.75566680e-003
      3.13161244e-003 9.52470291e-004 -2.96146050e-003 -3.16839386e-003
      2.97659892e-004 5.26304822e-004 2.55178602e-004 5.98869810e-005
      2.11358001e-003 3.80389439e-003 9.54761810e-004 -2.70847697e-003
      -7.46019476e-004 5.44033770e-004 8.94090219e-004 6.43745589e-004
      -2.30338672e-004 -2.33443468e-004 -3.96089454e-004
      -4.04056220e-004 -1.35681895e-003 7.25704827e-004 7.88504141e-004
      1.28354249e-003 7.87156634e-004 8.59285879e-004 6.69619127e-004
      5.02473617e-004 2.83123198e-004 1.74498346e-004 -1.18064811e-003
      7.90918304e-004 -9.34762124e-004 -1.41895097e-003 -4.72704065e-004
      1.37416588e-003 1.58192532e-003 3.59180995e-004 -2.88973941e-004
      -1.00005418e-003 5.79173211e-004 7.43633645e-005 -1.21476769e-003
      -4.56642098e-004 1.01998600e-003 2.05255137e-003 6.92611327e-004
      -6.75412652e-004 -2.51479098e-003 3.55579628e-004 5.10292652e-004
      -4.41015291e-004 1.92994572e-004 1.36064494e-003 2.50020321e-003
      2.03545834e-003 -1.90453150e-003 -2.40337360e-003 -6.78177457e-004
      3.35933670e-004 -5.80440465e-005 1.11400464e-003 1.20596273e-003
      1.48807501e-003 7.67182151e-004 -2.25595036e-003 -2.20897258e-003
      -5.25963318e-004 6.41929393e-004 7.64773344e-004 4.85155964e-004
      1.10641727e-003 1.04843208e-003 7.71892155e-005 -1.21168559e-003
      -1.33491156e-003 7.58509850e-004 7.63466523e-004 1.89757448e-005
      9.74256604e-004 1.51552528e-003 2.05062004e-003 1.36476231e-003
      -7.44312711e-004 -7.51368003e-004 -1.49843154e-005 7.47317506e-004
      -8.89779651e-004 -7.08638807e-004 1.48093910e-003 -2.55639665e-004
      -7.30429892e-004 -1.49695727e-003 -6.46672561e-004 6.09613839e-004
      7.89975689e-004 2.83072994e-004 1.66341872e-003 1.99239282e-003
      4.12338588e-004 -3.78600467e-004 -1.10769831e-003 -1.88028242e-003
      9.01592080e-004 1.17234699e-003 -8.33780330e-004 6.04721252e-004
      9.78740281e-004 9.26329347e-004 9.62038350e-004 -8.78157909e-004
      -1.65557535e-003 9.78442258e-004 9.59813246e-004 -8.85947084e-004
      9.92842950e-004 8.55587306e-004 1.30050548e-003 1.88900472e-003
      -1.58643862e-003 -1.97894312e-003 3.20111925e-004 -2.59337074e-004
      -3.40711762e-004 4.02880571e-004 9.93210822e-004 2.44366261e-003
      2.80022458e-003 -1.62414555e-003 -2.90076551e-003 -2.89729887e-005
      3.86691798e-004 -1.92451189e-004 -6.25525499e-005 1.18746690e-003
      2.89123459e-003 1.72280381e-003 -2.65998580e-003 -3.20090214e-003
      2.65003502e-004 1.18744432e-003 8.16135842e-004 3.78570025e-004
      1.63066573e-003 2.87169451e-003 1.11888535e-003 -2.86919065e-003
      -3.01665766e-003 6.03730034e-004 4.66373371e-004 1.05935054e-004
      5.88649127e-004 2.14343448e-003 3.46949068e-003 2.06495170e-003
      -2.39522662e-003 -9.82316094e-004 -6.16349338e-004
      -8.47798889e-004 -8.15443753e-004 1.82142263e-004 9.66094667e-004
      -1.70025247e-004 -6.39796956e-004 -1.03562162e-003
      -9.38370649e-004 1.30450338e-004 3.13744880e-004 3.17442551e-004
      1.80407998e-003 2.09655915e-003 1.08918536e-003 4.81622192e-005
      -6.67299086e-004 -1.03250809e-003 4.50012507e-004 6.21267711e-004
      6.83143517e-005 -4.18586133e-005 9.57221666e-004 1.27653987e-003
      1.39846990e-003 6.57803670e-004 -9.79169621e-004 -1.01707250e-004
      4.03939077e-004 -4.07074607e-004 4.79094364e-004 8.20729998e-004
      1.51468441e-003 2.79066968e-003 -1.01377118e-005 -1.58212602e-003
      2.72526950e-006 -2.39526824e-004 -9.57145181e-004 2.60556291e-004
      1.01413426e-003 2.79275817e-003 3.12981568e-003 -8.19554902e-004
      -2.13980721e-003 -6.08029251e-004 -3.03957408e-004
      -2.70747812e-004 -4.41291864e-004 1.64714525e-003 2.98915547e-003
      2.23503169e-003 -8.40938708e-004 -3.51671153e-003 -1.40530523e-003
      -2.57377251e-005 -2.88647498e-005 2.24198186e-004 1.73534488e-003
      3.93673871e-003 1.89824135e-003 -2.38501234e-003 -3.00490437e-003
      -1.56329188e-003 -5.12121769e-004 2.12846149e-004 -2.08403726e-005
      1.87242567e-003 3.46497842e-003 1.19339197e-003 -2.93826708e-003
      -5.19977242e-004 1.60904106e-004 -2.83552159e-004 7.35595939e-004
      1.33668561e-003 6.43057341e-004 -5.49472985e-004 -6.32052368e-004
      -8.34957173e-004 -3.52665345e-004 5.89877192e-004 2.81447021e-004
      8.25434050e-004 1.04830903e-003 2.08935933e-003 4.35524998e-005
      -2.87078437e-004 -6.33967225e-004 -8.65017006e-004 1.61863383e-004
      -4.55683417e-004 1.27949417e-004 1.45945000e-004 1.84094696e-003
      -2.06111348e-004 6.58967649e-004 4.50234365e-004 -6.88053027e-004
      5.20220492e-004 -6.05885580e-004 -7.88691861e-004 -2.10561077e-004
      1.19566463e-003 1.16828352e-003 2.05658260e-003 4.41746874e-004
      -9.07939277e-004 -2.02160634e-004 -4.69377672e-004
      -3.43508233e-004 -7.97309563e-004 2.30349600e-003 3.18618771e-003
      2.53977021e-003 -6.82456885e-004 -2.67444993e-003 -3.50730581e-004
      -2.73153506e-004 1.86421152e-004 -1.60390351e-004 2.32888176e-003
      3.46425199e-003 2.53128214e-003 -3.53727664e-004 -3.28909699e-003
      -1.06697378e-003 -3.12132353e-004 -9.95452050e-004
      -2.63390131e-004 1.42198161e-003 4.88411868e-003 3.07535753e-003
      -1.78153138e-003 -4.17336123e-003 -4.38186195e-004
      -5.19837311e-004 -1.40862714e-004 9.19293743e-005 9.48724686e-004
      4.42839181e-003 3.19589861e-003 -2.58000521e-003 -6.82568643e-004
      -5.51055768e-004 -5.86937007e-004 -1.77594682e-003
      -2.72911391e-004 1.33121130e-003 -2.33039129e-004 -7.58927607e-004
      -9.58141522e-004 -7.81335111e-004 2.50264944e-004 6.91634836e-004
      -3.51605297e-004 2.00575567e-003 2.14768667e-003 1.03144965e-003
      2.80048262e-004 -7.46611680e-004 -1.71444425e-003 6.66650711e-004
      1.17007142e-003 -1.82856325e-004 3.66059510e-004 7.94909080e-004
      1.38879439e-003 1.81832875e-003 -2.65357667e-004 -1.02236017e-003
      5.87374729e-004 9.33241565e-004 -3.16150225e-004 5.14441112e-004
      1.00421475e-003 1.29356829e-003 2.75065354e-003 -5.72187884e-004
      -1.66263815e-003 2.43762639e-004 -7.94557400e-006 -3.28011491e-004
      2.58909771e-004 1.10522972e-003 2.31933384e-003 2.67359102e-003
      -1.03930209e-003 -2.18480080e-003 -2.85002054e-004
      -4.88253499e-005 -5.08766505e-004 -6.18270540e-004 1.70025346e-003
      2.70220800e-003 1.71490014e-003 -1.91692752e-003 -3.64756142e-003
      -4.56274458e-004 5.16848115e-004 5.43665199e-004 4.24307567e-004
      1.69569568e-003 3.11655644e-003 9.43083782e-004 -2.75866478e-003
      -3.17321601e-003 -5.86079368e-005 2.08812999e-004 1.57831746e-004
      -8.69303476e-005 1.93585420e-003 3.83586506e-003 8.54158832e-004
      -2.72272830e-003 -9.60413599e-004 -2.42626906e-004
      -5.93156845e-004 7.47120939e-004 1.37955020e-003 8.23275594e-004
      -3.34937620e-004 -5.91267017e-004 -1.08599919e-003
      -5.05986449e-004 2.72623205e-004 -7.70128827e-005 1.27578888e-003
      1.36908551e-003 2.20013899e-003 9.50223766e-004 6.80266021e-005
      -7.23585603e-004 -3.60444770e-004 1.96238281e-004 -6.04460191e-004
      -3.36393336e-004 -2.91531847e-004 1.94114994e-003 4.43540601e-004
      1.13075098e-003 7.96426786e-004 -7.09497486e-004 2.21167531e-004
      -6.24981767e-004 -9.47617285e-004 -6.87269901e-004 9.33024276e-004
      2.17525102e-003 3.03091016e-003 6.82111422e-004 -1.25062582e-003
      5.75248305e-005 5.89746596e-005 -6.64188701e-004 -1.73182387e-004
      2.04302790e-003 3.41565092e-003 2.94706528e-003 -5.53708756e-004
      -2.21468043e-003 -1.83606069e-004 5.70442171e-005 7.99230038e-005
      -1.47381172e-004 1.96366827e-003 3.17401323e-003 2.55052117e-003
      -1.31340278e-003 -3.47916200e-003 -1.25705614e-003
      -2.96844955e-004 -1.15154384e-004 2.28880090e-004 2.15555402e-003
      4.72337333e-003 2.91172741e-003 -2.17656419e-003 -3.87977716e-003
      -1.20770326e-003 -7.37766677e-004 2.10781087e-004 3.89983325e-004
      1.62420585e-003 4.15988732e-003 2.21917615e-003 -3.21295788e-003
      -6.68883440e-005 4.65414167e-004 -2.39032524e-005 -6.52076793e-004
      5.43157861e-004 6.42498897e-004 -6.26907393e-004 -5.14888729e-004
      -1.61563657e-004 -4.16282826e-004 3.52459960e-004 2.75418017e-004
      -3.02390923e-004 3.19210929e-004 1.89198926e-003 -4.01944359e-004
      -5.96867059e-004 -4.36530972e-004 -7.90459104e-004 5.22329006e-004
      8.56480154e-004 1.09338225e-003 1.26596191e-004 5.31618251e-004
      -3.15430429e-004 -6.36570272e-004 -2.19574460e-004
      -4.57869523e-004 8.07610166e-004 3.55984987e-004 1.44135876e-004
      7.82583593e-005 5.72208723e-004 1.26298401e-004 3.14377568e-004
      1.88091930e-004 -7.05348619e-004 -1.51218910e-006 1.86772595e-004
      5.63003414e-005 -9.96674877e-004 1.11246237e-003 1.51920028e-003
      1.62252155e-003 -9.39356163e-004 -1.14910980e-003 1.36033750e-005
      5.92754746e-004 -2.23551426e-004 -3.33137170e-004 1.69899978e-003
      2.70383689e-003 2.09102640e-003 5.96087702e-005 -2.86070933e-003
      3.47263122e-004 -7.12122303e-004 -6.94102608e-004 -3.71011061e-004
      1.29747577e-003 5.05615352e-003 3.40477820e-003 -1.25337497e-003
      -4.45391005e-003 -5.75780403e-004 -1.16290897e-003
      -7.73631618e-004 -6.65365485e-004 5.53378137e-004 4.35190136e-003
      3.75817507e-003 -2.10240833e-003 6.39396661e-004 -1.08460426e-005
      6.57789991e-004 2.93689751e-004 -5.93759876e-004 -1.71919906e-004
      -1.87064987e-004 1.46404767e-004 2.93774909e-004 5.22365735e-004
      3.00377724e-004 7.68141937e-004 2.70806282e-004 -9.61194630e-004
      -7.66452358e-005 -4.15820337e-004 -2.66568211e-004
      -8.43557500e-005 2.67865718e-004 3.50760929e-005 -3.74945026e-004
      8.23591894e-004 -2.06579527e-004 3.69712419e-004 -5.87012270e-004
      -1.14998792e-003 6.31360308e-005 -1.81965734e-004 -9.13233613e-004
      -9.31055692e-004 8.30975187e-004 4.62530326e-004 1.56316976e-003
      4.79395065e-004 -2.93793652e-004 -3.01567226e-004 -6.02258951e-004
      1.44596983e-004 1.79746727e-004 -1.46123304e-004 8.80519685e-004
      5.35076251e-004 1.61584606e-003 1.31701736e-003 -3.41643463e-004
      -5.79985091e-004 -6.53025229e-004 -9.37256846e-005
      -1.23979044e-004 -8.63330381e-004 -4.27551655e-004 1.40498148e-003
      1.58256304e-003 1.35281298e-004 -1.70735142e-003 -4.08297172e-004
      -3.63191939e-004 -6.67648797e-004 -3.83290389e-005 8.81870103e-004
      3.47703090e-003 2.64058076e-003 2.77765561e-004 -4.10820404e-003
      -2.53009563e-003 -1.37217809e-003 -1.03344920e-003 1.29385618e-004
      1.74513448e-003 3.77367157e-003 2.75038066e-003 -5.22529066e-004
      -2.31126149e-004 3.18296137e-004 -9.80413752e-005 4.49186104e-004
      1.13392796e-003 7.68921745e-004 -5.39613073e-004 -6.26243884e-004
      -6.24320703e-004 -5.16918546e-004 5.04740339e-004 2.23993571e-004
      5.13332430e-004 7.88274920e-004 2.10149866e-003 -1.84211982e-004
      -3.25552130e-004 -3.92166927e-004 -8.61429609e-004 2.67644966e-004
      -1.74068991e-004 5.39146597e-004 3.00449115e-004 1.38654863e-003
      -4.42887045e-004 2.47143646e-004 3.96898889e-004 -5.67888434e-004
      6.52030169e-004 -3.46546789e-004 -1.84778488e-004 2.73162354e-004
      1.01131923e-003 4.38947900e-004 1.37992552e-003 3.22269800e-004
      -8.17644643e-004 -4.05439641e-005 -4.61092102e-004
      -1.64041747e-004 -1.08449103e-003 2.01424654e-003 2.48257467e-003
      2.15499685e-003 -8.41536443e-004 -2.02716375e-003 -2.16410437e-004
      -1.14558032e-004 -3.64859079e-005 -3.58183956e-004 2.57064123e-003
      3.17197805e-003 2.54298537e-003 8.88072973e-005 -3.14974249e-003
      -5.32307546e-004 -4.98226320e-004 -1.11939444e-003
      -7.66746642e-004 1.32353534e-003 4.85568773e-003 3.32819973e-003
      -1.68168521e-003 -4.19485662e-003 -5.11627295e-004
      -6.32063660e-004 -3.98049073e-004 -2.71709840e-004 6.17012149e-004
      4.52455785e-003 3.44513985e-003 -2.35039741e-003 5.34912688e-004
      1.70180443e-004 5.24383737e-004 -3.18937411e-004 -6.46639382e-004
      4.42105666e-004 -3.46465444e-004 -1.75594323e-004 2.63098074e-004
      3.57900950e-004 3.94304690e-004 5.25897020e-004 -7.49339873e-004
      -8.51941237e-004 3.37286212e-004 -5.40333043e-004 -5.27019089e-004
      -1.15556075e-004 -2.10563652e-004 2.69196637e-004 7.91317725e-004
      8.55645398e-004 5.22383889e-005 3.16111167e-004 -5.51527773e-004
      -1.42845092e-003 -6.35157921e-005 -1.49483807e-004
      -5.69705007e-005 -2.74935970e-004 5.82288660e-004 2.26872959e-004
      1.22960878e-003 4.13856178e-004 -1.11237285e-003 -6.41757215e-004
      -7.81000708e-004 1.89471204e-004 3.39139748e-004 -4.20245080e-004
      3.46882240e-004 6.25001790e-004 1.03332754e-003 9.58997640e-004
      -9.07919311e-004 -8.41984118e-004 -4.44726495e-004 6.64766063e-004
      -3.18735169e-004 -8.38156557e-004 6.74932517e-006 1.94297428e-003
      1.93059607e-003 2.93352379e-004 -2.24310090e-003 2.90996570e-004
      -2.53953185e-004 -2.90123426e-004 5.31443395e-004 1.38073135e-003
      4.16028872e-003 2.57272017e-003 -5.57744002e-004 -4.58833016e-003
      -1.48284156e-003 -1.26583863e-003 -1.05508324e-003
      -6.29743270e-004 1.17281266e-003 4.03768662e-003 3.05481651e-003
      -1.02577521e-003 8.88531446e-004 4.20266530e-004 3.85429812e-005
      1.19897086e-004 -3.42157728e-004 -9.47995286e-004 -1.09302477e-004
      3.02579778e-004 7.67477555e-004 5.79203246e-004 5.73485799e-004
      4.87883779e-004 1.09336025e-003 -6.85625360e-004 -5.04938129e-004
      -2.36501524e-004 3.83107472e-005 2.23388663e-004 7.48926832e-004
      -8.91498523e-004 -1.00031670e-003 9.89480468e-005 1.20834993e-004
      -1.58653318e-004 -4.35241469e-004 2.10593556e-004 6.59436977e-004
      -4.90339240e-004 -1.87094102e-003 -1.61881105e-003
      -1.58726485e-004 -2.77688378e-004 1.04506675e-003 9.73075454e-004
      8.55165359e-004 -1.64884361e-004 -4.69583523e-004 9.93816793e-005
      -1.32175446e-005 -1.22160447e-004 2.93355319e-004 5.56552084e-004
      1.64591952e-003 2.10976368e-003 -1.17763630e-004 -3.83550650e-004
      -1.59092146e-004 6.25208258e-006 5.08346478e-004 -2.93190882e-004
      -2.82569556e-004 6.79026474e-004 1.06160797e-003 -6.75664574e-004
      -6.71086309e-004 -2.83152040e-004 -1.30241810e-004
      -2.99472478e-004 1.90976541e-004 -1.91845975e-004 2.93203816e-003
      2.75733718e-003 5.83175046e-004 -2.51085125e-003 -2.50805751e-003
      -1.79740239e-003 -1.19854196e-003 7.59095055e-005 1.44162390e-003
      4.06000810e-003 3.33575858e-003 -1.58548413e-004 9.16727586e-004
      7.98443041e-004 8.43883725e-004 -2.06661716e-004 -8.06066266e-004
      -1.44865329e-003 -1.28024360e-004 4.99592279e-004 1.87986268e-004
      -2.98659743e-005 3.31825635e-004 7.81193376e-004 7.57156464e-004
      -6.96101517e-004 -1.96305779e-003 -2.70567776e-004 9.17257450e-004
      9.47212509e-004 -6.58453908e-004 -2.10851058e-003 -1.21752115e-003
      -1.54943741e-003 -1.23573688e-003 -4.32825793e-004 1.24431285e-003
      2.11251224e-003 1.10906106e-003 3.64967236e-005 -1.23732188e-003
      -1.76065008e-003 -1.23847241e-003 -6.76134718e-004 6.89675391e-004
      5.91500429e-004 1.89712713e-003 5.34647552e-004 2.43379589e-004
      1.25759572e-004 1.17911426e-004 -8.05088726e-004 -2.99245556e-004
      3.26052657e-004 2.48168624e-004 1.55843003e-003 5.31684258e-004
      -3.45114968e-004 6.42591622e-004 1.29591499e-003 7.74911430e-004
      -5.66389004e-004 -4.18072566e-004 7.39891140e-004 1.83215702e-003
      8.92589160e-005 -3.75721749e-004 1.13390631e-003 1.09432486e-003
      2.41498608e-004 2.30271253e-004 -6.20584877e-004 1.00181613e-003
      1.50781835e-003 3.36619240e-004 -1.69944461e-003 -9.42697458e-004
      -1.05866138e-003 -1.04981393e-003 -1.58928102e-004
      -4.34270740e-004 1.39205449e-003 2.01744237e-003 -1.57747098e-004
      6.93455455e-004 -1.79247450e-004 7.13223184e-004 4.81967290e-004
      -4.99515969e-004 -5.61017368e-004 -5.90305463e-005 2.42143040e-004
      3.62691062e-004 5.75212121e-004 3.37732199e-004 8.10693949e-004
      8.10853147e-004 -9.01565712e-004 -2.43068003e-004 -2.42887778e-004
      -9.35657299e-005 -3.08890449e-005 5.34136605e-004 -4.70075582e-004
      -7.28109037e-004 8.30920646e-004 -1.53515546e-004 3.18273291e-004
      -4.33876237e-004 -1.02713087e-003 2.21185153e-004 -2.53031641e-004
      -1.30020175e-003 -1.23430660e-003 7.50531210e-004 2.23059775e-004
      1.49128807e-003 8.65531794e-004 1.45798898e-004 -1.78465663e-004
      -5.00702066e-004 2.92887969e-004 1.00792560e-004 -1.54657115e-004
      7.62470008e-004 5.87226474e-004 1.74938573e-003 1.61550567e-003
      -1.51650238e-004 -3.83762672e-004 -6.12921256e-004
      -2.65144859e-004 1.94294280e-005 -6.65881205e-004 -4.52008448e-004
      1.12497725e-003 1.34638662e-003 -2.55321414e-004 -1.52744621e-003
      -5.02311799e-004 -5.36223291e-004 -8.47982534e-004 2.11605657e-005
      5.22589427e-004 3.03798425e-003 2.66847387e-003 6.33245218e-004
      -3.57102999e-003 -2.68705375e-003 -1.57815218e-003
      -1.17157970e-003 2.71182304e-004 1.78397982e-003 3.71161499e-003
      2.84026004e-003 -1.08752633e-004 1.45346508e-003 1.25028077e-003
      2.17736349e-004 -5.50527126e-004 -9.37962439e-004 -1.18793512e-003
      -2.12569415e-004 4.63206583e-004 6.52668008e-004 6.26790395e-004
      8.98584025e-004 5.51894307e-004 8.60274187e-004 -9.03870387e-004
      -1.27800333e-003 -4.42677148e-004 4.47193772e-004 1.00305816e-003
      3.51147522e-004 -1.53374695e-003 -9.12815449e-004 -1.20626588e-003
      -7.31669774e-004 -5.45348856e-004 -1.05804647e-004 1.00105163e-003
      1.24185253e-003 -4.68866026e-004 -1.61620870e-003 -1.17113465e-003
      -9.02890170e-004 -5.93041361e-004 7.09649874e-004 1.67362276e-004
      1.51913462e-003 5.16908360e-004 1.44304518e-004 -2.54369312e-004
      1.82236981e-004 6.89318904e-006 8.19358320e-005 5.55155450e-004
      4.15760005e-004 1.77387695e-003 3.02588916e-004 -2.79446394e-004
      8.49965800e-005 7.10846507e-004 1.24992477e-003 -4.56994574e-004
      -5.67545416e-004 8.22239599e-005 1.41326117e-003 -2.22175382e-004
      8.65464535e-005 7.36720045e-004 5.76896360e-004 2.29737134e-006
      6.88071130e-004 -4.56784386e-004 1.98826427e-003 1.90533174e-003
      6.94046495e-004 -1.66217575e-003 -1.27535488e-003 -1.67995202e-003
      -1.36290642e-003 -9.95316350e-006 1.79967654e-004 2.50902004e-003
      2.37794570e-003 -7.15986098e-005 8.58667598e-004 8.62084489e-005
      1.07798981e-003 -4.09840432e-004 8.86476075e-004 -1.13774755e-003
      -1.00054557e-003 3.06735048e-004 -5.74444057e-005 9.66039224e-005
      -3.26451409e-004 8.77451501e-004 8.52104276e-004 -1.99020389e-004
      -1.34347857e-003 -1.98386828e-004 1.31285947e-003 5.13141335e-004
      -7.98740250e-004 -2.00499687e-003 -1.67242321e-003
      -1.12589088e-003 -4.05165716e-004 -5.62629662e-004 1.25965453e-003
      2.97279260e-003 1.26717892e-003 -7.57238449e-005 -6.90521731e-004
      -1.52892165e-003 -1.23299577e-003 -2.97784922e-004 7.56601745e-004
      5.92841592e-004 2.44544237e-003 4.48731327e-004 -4.74150671e-004
      6.60611724e-004 6.81289239e-004 -1.08890398e-003 -2.04457820e-006
      -1.19943674e-004 9.52070870e-004 1.62523298e-003 7.65980876e-005
      -2.12203318e-004 1.27198466e-003 1.90211460e-003 1.33468106e-003
      5.15919994e-004 -1.24100974e-004 1.23504968e-003 2.43758038e-003
      1.00590092e-004 -9.55058844e-004 1.21038349e-003 1.20319217e-003
      7.16233451e-004 2.19703885e-004 -2.80470540e-005 5.80617576e-004
      1.14257017e-003 -3.40241881e-004 -1.56102539e-003 8.50711542e-004
      1.20028944e-005 -3.46103589e-005 2.09265476e-004 -1.01783815e-004
      6.32338109e-004 1.09307666e-003 -5.87622519e-004 -2.14498209e-006
      -3.61311279e-004 4.33662586e-004 -6.97824813e-004 5.68409392e-004
      -1.71403773e-003 -4.39264812e-004 -2.15784486e-004
      -1.57185714e-004 8.35799729e-004 -3.42811218e-005 4.81457129e-004
      7.73577660e-004 2.67737574e-004 -9.79757751e-004 -7.76776171e-004
      5.54460566e-004 8.36340187e-004 1.08221802e-003 7.54934037e-004
      1.05851260e-003 5.00924827e-004 -1.51574973e-003 -2.52982881e-003
      -1.10303343e-003 1.25960121e-003 9.51866386e-004 1.34400709e-003
      1.66469032e-003 1.09329075e-003 -9.96887451e-004 -2.21384503e-003
      -1.08580873e-003 4.90074337e-004 1.48544798e-003 1.85819191e-003
      1.11058960e-003 1.56821194e-003 2.87132425e-004 -1.66270789e-003
      -2.06433493e-003 -9.11306823e-004 1.17896788e-003 1.88723824e-003
      1.69079890e-003 1.32939906e-003 1.54738128e-003 9.66714142e-005
      -6.94304355e-004 -1.17965857e-003 -1.17251079e-003 2.42699214e-004
      2.24903552e-003 1.55973609e-003 -9.28047695e-004 -6.16776757e-004
      8.15021573e-004 5.58022934e-004 -8.97403224e-005 6.13265962e-004
      1.01982115e-003 1.73663988e-003 -5.48359531e-004 -9.30911570e-004
      -5.11291873e-005 2.20096204e-004 2.80138949e-004 1.36178263e-004
      8.31767451e-004 1.97987119e-003 1.78417552e-003 -8.47259245e-004
      8.50519049e-004 5.88801107e-004 9.67283559e-004 -1.65937614e-004
      -1.36405633e-005 -1.68665498e-003 -4.66828205e-004 5.65907336e-004
      6.94162154e-005 -1.51250657e-004 2.69940101e-005 1.09247712e-003
      9.16604360e-004 -4.57812857e-004 -1.98081858e-003 -1.23857069e-004
      1.08258240e-003 7.57757982e-004 -7.12215027e-004 -2.41463725e-003
      -1.39321643e-003 -1.48202234e-003 -1.18332461e-003
      -4.00290359e-004 1.69056014e-003 2.57988391e-003 1.12192438e-003
      2.58759246e-005 -1.04312086e-003 -1.94214447e-003 -1.30418409e-003
      -6.48048182e-004 6.38839323e-004 7.87363620e-004 2.05202750e-003
      4.91523591e-004 2.82788842e-005 2.11218139e-004 2.93269055e-004
      -8.15518259e-004 -2.12306113e-004 3.61705635e-004 5.01211442e-004
      1.31471071e-003 3.00837884e-004 -1.42007862e-004 6.20259845e-004
      1.61753967e-003 1.10387232e-003 -2.30978330e-004 -2.61892361e-004
      1.18804374e-003 1.90047943e-003 2.83273243e-006 -5.40075882e-004
      1.28981145e-003 1.29248551e-003 4.56744601e-004 1.19984281e-004
      -3.94750765e-004 6.37223886e-004 1.49217155e-003 1.91267303e-004
      -1.72351662e-003 -4.92756604e-004 -4.74053144e-004
      -5.77036000e-004 -4.99953749e-004 -6.84747589e-004 5.82735287e-004
      1.92576577e-003 -1.50239270e-004 1.64678408e-004 -2.67481926e-004
      1.18482485e-003 -3.33150296e-004 4.85802157e-004 -1.19650073e-003
      -1.64333067e-003 -1.52012726e-004 -1.19586453e-004 3.12516844e-004
      -3.74270428e-004 6.02388754e-004 9.19351471e-004 -3.27852002e-004
      -4.63854463e-004 -6.67629181e-004 1.20404910e-003 7.77500973e-004
      -3.69691516e-005 -4.69073013e-004 -2.91989389e-004
      -1.48449952e-004 -1.17579347e-003 -1.88686862e-003
      -2.96246377e-004 1.80240115e-003 1.09784643e-003 8.37889267e-004
      5.87644521e-004 -2.68316740e-004 -1.08890375e-003 -1.67854119e-003
      2.38975466e-004 3.27625021e-004 1.83930551e-003 1.42436987e-003
      4.66395286e-004 1.55862898e-003 2.68743723e-004 -1.37824728e-003
      -1.44457608e-003 -7.69464823e-004 1.24886213e-003 1.46112742e-003
      6.64911524e-004 8.47810006e-004 1.82659121e-003 1.03753153e-003
      -5.38940403e-005 -2.76185980e-004 -7.82484130e-004 4.39101481e-004
      2.34535080e-003 1.00681884e-003 -5.69523952e-004 -2.73960686e-005
      7.66300538e-004 7.73749955e-004 6.05435052e-004 6.41161692e-004
      6.65524974e-004 1.18909194e-003 -3.16186517e-004 -9.35095246e-004
      6.94400980e-004 2.44540479e-005 7.70668339e-005 3.70379974e-004
      9.00593121e-004 1.52902014e-003 4.10673412e-004 -5.27818105e-004
      6.41859428e-004 -2.05087665e-004 -3.45453387e-004 -7.84891366e-004
      5.75845654e-004 -2.06010276e-003 4.27171850e-004 4.40140400e-004
      5.96522645e-004 9.15273034e-004 3.60581966e-004 3.61616199e-004
      6.66227657e-004 -2.31339436e-004 -1.15966180e-003 -5.73039695e-004
      1.37616953e-004 2.98695260e-004 1.33570062e-003 1.39622868e-003
      2.22861860e-003 9.59917612e-004 -9.43518593e-004 -2.64811562e-003
      -1.50386547e-003 -8.21786380e-005 7.80454138e-004 2.11489666e-003
      2.19472940e-003 1.95014407e-003 -9.86378072e-005 -1.14299823e-003
      -1.99434301e-003 6.44657586e-004 1.65334367e-003 2.21802946e-003
      1.49842771e-003 2.40229233e-003 1.10911217e-003 -2.48026499e-003
      -3.07017309e-003 -7.61829258e-004 1.11175701e-003 2.86225788e-003
      2.81312456e-003 1.04388548e-003 9.40357684e-004 1.33910711e-004
      -1.80615520e-003 -1.67819357e-003 -6.68523309e-004 1.27502938e-003
      3.41836503e-003 2.22729635e-003 -2.04386190e-003 1.04291845e-004
      7.98475114e-004 -3.02219851e-004 -1.52818090e-003 8.85022280e-004
      1.45952415e-003 3.40700918e-003 -4.99224348e-004 -1.77186774e-003
      3.24312859e-004 1.95671292e-003 1.42214063e-003 5.06568176e-004
      7.85961573e-004 2.07112008e-003 4.64499695e-003 -1.37363933e-003
      3.62186984e-004 1.25592196e-004 -7.08139676e-004 -5.88502095e-004
      -3.53249168e-004 -1.27086043e-003 -1.37503317e-004 3.62168706e-004
      3.37883568e-004 -3.09029216e-004 -1.38671356e-004 -2.70909281e-004
      1.51335378e-004 -7.57232599e-004 -4.19547636e-004 -2.81115266e-004
      -3.73709452e-004 -2.37639164e-004 -7.85031298e-004
      -1.06564630e-003 1.38784439e-004 7.79930211e-004 -2.80906243e-005
      1.30732806e-004 -8.99743696e-004 -8.01545510e-004 3.84850209e-005
      5.79830317e-004 -2.20228776e-005 -3.35624427e-005 -8.47757110e-005
      2.06639321e-004 -4.95728396e-004 -1.27621682e-003 1.61321936e-004
      3.49448208e-004 1.71717128e-003 1.90484826e-003 1.17848697e-003
      -1.31070148e-003 -1.92697241e-003 -8.41572764e-004 4.95831424e-004
      2.05572112e-003 1.67017570e-003 7.92390027e-004 2.85969174e-004
      -1.46496777e-005 -2.51344405e-003 -2.04287306e-003
      -6.53849624e-004 1.35426759e-003 3.66400392e-003 1.75734737e-003
      -2.24783621e-003 4.12599358e-004 2.40501133e-004 -7.99603076e-005
      -6.99226337e-004 7.76473491e-004 9.64461244e-004 2.67472421e-003
      -1.04426545e-004 -2.38568010e-003 9.23633284e-004 2.20182701e-003
      1.82605116e-003 1.52036187e-003 1.93787680e-003 1.81904854e-003
      3.66354268e-003 -9.39462974e-004 1.32847068e-004 -3.33819597e-004
      6.10468414e-005 -9.43823659e-004 5.27879281e-004 -1.87011738e-003
      -1.68641476e-004 1.78962000e-005 -8.47622578e-005 1.20735145e-003
      1.26175742e-004 4.38602496e-004 6.33217453e-004 4.13504400e-004
      -1.22773019e-003 -7.18375028e-004 3.17467347e-004 6.49416645e-004
      1.42415683e-003 1.07326475e-003 1.56070734e-003 5.54161263e-004
      -1.30357593e-003 -2.56961538e-003 -1.21048058e-003 8.55621882e-004
      9.03090113e-004 2.04856461e-003 2.01185304e-003 1.54488150e-003
      -5.10367099e-004 -2.02723267e-003 -1.59270852e-003 6.45952299e-004
      1.52315677e-003 2.08587060e-003 1.36124622e-003 1.75939314e-003
      3.99299723e-004 -2.02505942e-003 -2.17109290e-003 -8.72051925e-004
      1.06855796e-003 2.19309470e-003 2.10758368e-003 1.17943098e-003
      1.09316711e-003 -4.18848707e-004 -8.91700329e-004 -1.25857885e-003
      -9.35332035e-004 3.91491805e-004 2.49567814e-003 1.67745654e-003
      -1.14867999e-003 -5.49757679e-004 8.49134696e-004 1.98623646e-004
      -7.58021895e-004 5.95672172e-004 1.39084854e-003 2.40928517e-003
      -8.18885979e-004 -1.11865834e-003 -4.64758559e-005 7.81368464e-004
      5.78914420e-004 -5.17900116e-006 7.43258221e-004 2.07198155e-003
      2.87389639e-003 -1.08310045e-003 9.13227152e-004 -4.75185188e-005
      -9.37062898e-004 -4.47999715e-004 -3.04664980e-004
      -1.61803432e-003 8.95625213e-004 6.53092226e-004 7.53381406e-004
      6.30600785e-004 -1.42992227e-004 -6.14831515e-005 3.29129107e-004
      -9.33087082e-004 -1.07225834e-003 -4.36906674e-004
      -2.52599653e-004 2.10936341e-004 5.68991061e-004 2.51080666e-004
      1.41942501e-003 8.51238437e-004 -9.62636666e-004 -9.29915346e-004
      -1.67926110e-003 -1.01565162e-003 5.12939550e-005 1.07351108e-003
      1.28236751e-003 1.29240146e-003 -1.83835626e-004 -5.05835866e-004
      -1.50270632e-003 -5.53293212e-004 1.40004233e-003 1.79798657e-003
      1.35366013e-003 2.61077262e-003 1.42380875e-003 -1.86545716e-003
      -2.53435504e-003 -1.03022321e-003 1.08120230e-003 2.87314178e-003
      1.93007523e-003 1.45853392e-003 1.15952187e-003 2.78016960e-004
      -2.66356557e-003 -2.24064989e-003 9.65807340e-005 1.77823449e-003
      4.35747439e-003 2.70856638e-003 -2.53548450e-003 4.73445194e-004
      5.45633200e-004 -6.12999545e-004 -1.08723145e-003 6.74637675e-004
      1.13746710e-003 3.60652572e-003 7.81302588e-005 -2.81779654e-003
      8.58157000e-004 2.46790238e-003 1.72005023e-003 1.38886028e-003
      1.41936238e-003 1.95828872e-003 4.65520564e-003 -6.30658818e-004
      -1.23874503e-004 3.40984807e-005 -1.28372834e-004 -1.53041643e-003
      -8.53148740e-005 1.74769040e-004 -6.95732597e-004 -7.62563795e-005
      1.21038953e-004 -1.39085820e-003 -1.23059668e-004 -5.93070348e-004
      -2.20631075e-004 -7.10030086e-004 1.40509184e-003 8.60030181e-004
      1.30540051e-004 -4.60812444e-004 -1.40307774e-003 -1.71461317e-003
      -1.47936295e-003 -1.20269797e-004 1.19100523e-003 9.08022630e-004
      2.02582916e-004 3.52847332e-004 5.66510309e-004 9.44168569e-005
      -2.43893155e-004 -3.04691377e-004 -3.72632989e-004 8.43918824e-005
      -4.10885084e-004 -1.65820459e-003 -1.15305913e-004
      -2.46300944e-004 1.91299303e-003 2.08912208e-003 7.75785360e-004
      2.70092937e-006 -1.16253295e-003 -1.67542184e-003 -4.71126143e-004
      3.31108866e-004 1.84531079e-003 1.32015091e-003 -2.31523940e-004
      -4.03263584e-005 -2.16148770e-003 -1.27443054e-003
      -1.21544790e-003 8.86285678e-004 1.18066964e-003 1.67048234e-003
      -1.53623242e-003 9.69127868e-005 -6.26461639e-004 -2.57806441e-005
      -1.34870887e-003 6.90174871e-004 7.04036094e-004 9.44147701e-004
      -3.60986014e-005 -1.49520033e-003 1.28856045e-003 1.65231107e-003
      1.89350685e-003 1.31687801e-003 1.84811570e-003 1.18554209e-003
      1.79238548e-003 -7.51429936e-004 -5.19640453e-004 -2.35361222e-004
      5.14265812e-005 -1.12764176e-003 -2.87556122e-005 1.37509091e-003
      3.53601354e-004 3.05892208e-005 -1.33518624e-004 -3.50596558e-004
      6.69686298e-004 -2.09012098e-004 3.52887379e-004 -1.81617448e-004
      2.04305653e-003 1.70238281e-003 6.70402194e-004 5.28160715e-004
      -7.72577710e-004 -1.45292463e-004 -1.16069813e-003
      -1.08264608e-003 -2.86289986e-004 2.00300405e-004 1.36295159e-003
      3.75414442e-004 1.45025877e-003 6.67972257e-004 9.38239915e-004
      -3.74510011e-004 -1.05809281e-003 -3.59463156e-004
      -1.18976133e-003 -5.80339984e-004 3.79697361e-004 3.93302791e-004
      2.03519128e-003 2.49961088e-003 1.15773955e-003 -4.70256462e-004
      -1.64204079e-003 -1.66972971e-003 -6.47230539e-004
      -5.02948649e-004 1.14493386e-003 1.43265538e-003 1.39923603e-003
      7.62944692e-004 -2.89180694e-004 -1.03958289e-003 -8.08705867e-004
      8.59404681e-004 3.90012021e-004 1.51737244e-003 3.61108250e-004
      1.27824664e-003 1.39646826e-003 -8.13363935e-004 -9.12770745e-004
      -3.53146985e-004 2.14153691e-003 1.64858776e-003 1.49906054e-003
      2.60067143e-004 2.03498569e-003 1.95637997e-003 -3.29879986e-005
      -5.02904179e-004 -5.86557318e-004 1.14556949e-003 6.97703159e-004
      1.16070057e-003 5.65198890e-004 9.75494331e-005 2.07296363e-003
      1.30236975e-003 -6.24845445e-004 8.51013756e-004 6.94846152e-004
      8.73956014e-004 -2.56941392e-004 -4.93337808e-004 -4.51618718e-004
      3.10772622e-004 -1.49139506e-003 -9.73184302e-004 -6.83850303e-005
      1.81288738e-003 1.14830094e-003 -1.24821483e-004 -4.62580036e-004
      -7.44230829e-006 -1.24386360e-003 -2.35546869e-003 6.63991086e-005
      6.95858500e-004 1.54162291e-003 1.09511963e-003 -8.97679056e-005
      -7.97718705e-004 1.17635727e-003 7.88610312e-004 -2.33290411e-004
      6.64539693e-004 8.09994017e-005 7.70499406e-004 2.74694437e-004
      -9.08114947e-004 -2.27711652e-003 -4.26576793e-004 3.99012613e-004
      4.26363898e-004 1.30659144e-003 -2.72293342e-004 1.55368412e-004
      2.90015276e-004 -2.18545180e-003 -1.87037815e-003 -1.20671443e-003
      -5.30116493e-004 -1.40935136e-003 1.28712447e-003 7.02700811e-004
      1.42137695e-003 1.70689670e-003 -1.51540514e-003 -9.08262853e-004
      -9.15664074e-004 -1.20571395e-003 -1.96830160e-003
      -1.71991030e-003 -1.10930763e-003 1.21248339e-003 1.29834889e-003
      -1.19012998e-006 -2.47302698e-004 -2.19894704e-004
      -1.25090161e-003 -1.16502983e-003 -1.84570055e-003
      -1.37464516e-003 1.19292771e-003 1.90633780e-003 7.60813768e-004
      3.74835508e-004 -1.58867697e-005 -6.21185929e-004 -5.17230597e-004
      2.36524531e-004 6.09117909e-004 1.27353962e-003 1.51288847e-003
      -3.96027259e-004 -1.11175381e-004 -2.77777981e-005
      -1.38519262e-003 -1.97386718e-003 -6.17666345e-004 6.66508393e-004
      2.37166951e-003 1.37306307e-003 -9.02202388e-004 -2.24945764e-003
      5.75118116e-004 5.60207664e-005 -7.39951618e-004 -7.40323085e-005
      1.24940136e-003 2.76518986e-003 2.04051193e-003 -1.64531323e-003
      -2.79691606e-003 7.95971486e-004 1.06264488e-003 2.67426105e-004
      1.07187778e-003 1.04283669e-003 9.29139962e-004 1.52611523e-004
      -2.24750093e-003 -1.88202900e-003 3.67257890e-004 1.16623065e-003
      8.82525346e-004 1.05783145e-003 1.04448246e-003 4.65530284e-005
      -6.71595626e-004 -1.66521373e-003 -8.25760246e-004
      -3.09970259e-004 7.01109355e-004 2.11639534e-004 1.04788679e-003
      1.30139978e-003 4.14514478e-004 5.54307480e-004 -7.93882587e-004
      -1.27748447e-003 -7.93478161e-004 -1.02829351e-003
      -1.61570625e-003 -1.10727327e-003 6.41604769e-004 1.58011972e-003
      1.41679856e-003 -7.01577112e-004 -7.88749545e-004 -2.49228033e-004
      -5.29241923e-004 -2.06206180e-003 -1.69467356e-003 3.09613300e-004
      1.04528537e-003 1.08408940e-003 -1.09248550e-003 -1.32697204e-003
      1.01919624e-003 -5.77041828e-005 -9.63502156e-004 4.38100047e-004
      8.62137298e-004 1.56630448e-003 6.19338651e-004 -4.28754254e-004
      -2.02361401e-003 8.08045588e-005 3.46275978e-004 -1.24095136e-003
      -1.28115964e-004 1.73580879e-003 1.49989105e-003 9.23475818e-005
      -1.27774035e-003 -1.77368871e-003 9.49336463e-005 -8.51296209e-005
      -6.86400861e-004 4.19160235e-004 8.74720805e-004 2.46807886e-003
      2.80745816e-003 -1.70763151e-003 -2.49275798e-003 -5.04326541e-004
      2.29519050e-004 -5.18856687e-004 1.10795727e-005 1.20304420e-003
      2.70473491e-003 1.61570800e-003 -1.89828861e-003 -3.16807581e-003
      -3.01292923e-004 1.23146106e-003 7.04376784e-004 7.39818439e-004
      1.77063863e-003 3.01254611e-003 9.28516150e-004 -2.44439370e-003
      -2.41208449e-003 2.91141565e-004 8.51510791e-004 -1.60119787e-004
      5.00519760e-004 1.27844780e-003 2.36834842e-003 1.73531729e-003
      -2.09090579e-003 -2.63260794e-003 -4.02011210e-004
      -7.01143756e-004 -6.62586826e-004 8.76681297e-005 1.83424400e-003
      3.45604052e-003 2.26414902e-003 -1.19006692e-003 -2.28508702e-003
      -7.07692234e-004 -7.64048600e-004 -1.11149892e-003 1.89324455e-005
      1.64521334e-003 3.67606827e-003 1.80639187e-003 -1.45976839e-003
      -1.99474744e-003 7.47100450e-004 9.05727036e-004 -2.41300761e-004
      7.12603447e-004 7.86069955e-004 1.31902762e-003 9.97083494e-004
      -1.00599753e-003 -1.43412827e-003 6.12323929e-004 9.05861147e-004
      -6.77090313e-004 3.00923450e-004 1.12595933e-003 2.86740309e-004
      1.77790748e-003 -9.41448379e-004 -1.26089598e-003 5.82051522e-004
      2.49578385e-004 -3.45667388e-004 6.46494504e-004 1.66305213e-003
      2.18581175e-003 2.64909747e-003 -1.49062532e-003 -2.15662131e-003
      2.20504720e-004 1.33674374e-004 -4.55362111e-004 -3.06352886e-004
      1.63909851e-003 2.47312314e-003 1.85957784e-003 -2.03501596e-003
      -4.28202329e-003 -3.04227142e-004 4.34082176e-004 3.91063688e-004
      5.22167829e-004 1.26410578e-003 3.29297129e-003 1.32954726e-003
      -3.11984005e-003 -3.20054800e-003 1.76474205e-004 8.24129209e-004
      3.71431175e-004 6.22102671e-005 1.88259373e-003 3.22765345e-003
      9.48956935e-004 -2.66933604e-003 -3.74913681e-003 -8.87005415e-004
      -1.25881669e-003 5.88645518e-004 1.01764605e-003 2.43463204e-003
      4.35912749e-003 1.46980048e-003 -3.14739486e-003 -3.62513750e-003
      -1.20409788e-003 -1.23598636e-003 7.44148158e-004 2.19420413e-003
      3.09869694e-003 4.67660278e-003 1.55319995e-003 -2.22403300e-003
      -3.90094065e-004 1.27853325e-003 -7.08281470e-004 -9.61353595e-004
      -1.91334912e-004 5.02843875e-004 1.32878381e-003 8.52031168e-004
      -7.27541701e-005 -1.16438803e-003 1.33592344e-004 -8.27307755e-004
      -1.61191181e-003 -7.24670943e-004 1.39453064e-003 1.81795447e-003
      2.55891151e-004 -3.61304759e-004 -1.89019891e-003 5.59366308e-004
      3.49787064e-004 -5.44210430e-004 -4.51072759e-004 1.19772158e-003
      2.64066085e-003 2.42341449e-003 -1.47914595e-003 -2.36405153e-003
      -5.18501445e-004 4.25912149e-004 -2.57483014e-004 5.29848563e-004
      8.51842342e-004 1.75591500e-003 1.08864682e-003 -1.92492129e-003
      -2.42702826e-003 -6.58180681e-004 9.47914494e-004 9.25642147e-004
      7.02733698e-004 1.40031613e-003 1.31622551e-003 1.30813176e-004
      -1.70510355e-003 -1.60034478e-003 2.85492773e-004 9.39101563e-004
      3.09555529e-004 7.78119895e-004 1.01514265e-003 1.69857009e-003
      1.13614416e-003 -1.20527996e-003 -1.19807455e-003 2.24500953e-004
      -6.49119262e-004 -9.25665197e-004 -9.86496525e-005 1.29609043e-003
      2.84833019e-003 7.15103699e-004 -8.47095100e-004 -1.55891187e-003
      -4.14789072e-004 -7.35606300e-004 -1.44539319e-003
      -7.40607502e-004 1.08854892e-003 2.05776794e-003 1.07963709e-003
      -1.56719238e-003 -1.91490841e-003 1.27297011e-003 1.13392517e-003
      -7.22685130e-004 7.81808456e-004 4.59557195e-004 1.01529039e-003
      6.49592315e-004 -9.44561383e-004 -1.96569157e-003 4.98178124e-004
      9.10949078e-004 -7.49902218e-004 5.65486611e-004 1.13755441e-003
      5.02423325e-004 9.66889609e-004 -1.56669726e-003 -1.43508066e-003
      6.99865748e-004 -2.77174695e-004 -4.03053069e-004 1.08724006e-003
      1.06944004e-003 2.26714625e-003 2.91629112e-003 -1.62446301e-003
      -2.82588927e-003 3.54080432e-004 3.53693904e-004 -9.94102229e-005
      -3.12989898e-004 1.17587624e-003 2.64156214e-003 1.94927095e-003
      -2.45379494e-003 -3.97578441e-003 -2.79810629e-004 1.14738045e-003
      8.28723074e-004 4.15133982e-004 1.40325795e-003 3.42120789e-003
      1.47838145e-003 -3.16630444e-003 -2.95036868e-003 6.14021381e-004
      1.14632770e-003 5.01767965e-004 4.67375590e-004 1.92608056e-003
      3.09819076e-003 1.49152451e-003 -2.55504483e-003 -3.53909517e-003
      -8.39906337e-004 -1.27200468e-003 -1.74021174e-004 1.42395881e-003
      2.97284266e-003 4.05283598e-003 2.35445262e-003 -2.60222005e-003
      -2.92601343e-003 -6.71932008e-004 -1.08413876e-003
      -1.24982529e-004 1.93415396e-003 3.00950720e-003 4.80068056e-003
      2.18742201e-003 -1.95659255e-003 -1.00843562e-003 -5.07432014e-006
      1.46884297e-004 -4.80054332e-005 4.25741513e-004 1.21211750e-003
      1.14104815e-003 6.13975979e-004 1.57734743e-004 -8.93073855e-004
      3.01596039e-004 -2.44510709e-004 -4.64179815e-004 5.14812011e-004
      9.02191154e-004 5.80018270e-004 1.57585065e-003 4.53034561e-004
      -1.61019131e-003 -1.04494939e-004 2.57139181e-004 -3.23848973e-004
      3.15011072e-004 1.94892741e-003 2.52490072e-003 3.10103409e-003
      -6.75536809e-004 -1.55684864e-003 -2.67135358e-004 2.59889755e-004
      -7.94848020e-004 6.89789231e-005 1.49981491e-003 2.69808178e-003
      2.68117292e-003 -9.64370789e-004 -3.72725353e-003 -1.39070663e-003
      -4.82595380e-004 -5.00222319e-004 5.92278921e-005 1.63088040e-003
      3.72295547e-003 1.95649336e-003 -2.11462146e-003 -2.81411968e-003
      -1.31655659e-003 -1.28116415e-004 8.31670914e-005 6.40699436e-005
      1.66488637e-003 3.29136127e-003 1.27786456e-003 -2.38658162e-003
      -3.91171454e-003 -1.34827802e-003 -1.67289504e-003
      -1.13844202e-004 5.69726908e-005 1.37215026e-003 4.44942061e-003
      1.70241215e-003 -3.12773068e-003 -4.19287337e-003 -2.78675719e-003
      -1.60470186e-003 3.94142349e-004 1.37778837e-003 2.41286354e-003
      3.61195579e-003 1.78970990e-003 -2.56777671e-003 -1.24918565e-003
      -1.61635340e-004 -3.33869451e-004 -1.35106602e-004 1.98652342e-004
      2.00548302e-003 -3.14953708e-004 -4.89740807e-004 -4.32946370e-004
      -5.32351085e-004 2.93531979e-004 -2.02194467e-004 -7.80456758e-005
      3.11508047e-004 2.02096370e-003 3.60096834e-004 1.27262378e-003
      6.03959314e-004 -6.80444879e-004 2.37619504e-004 -2.85996241e-004
      -1.27193736e-004 -9.02432774e-004 2.12968327e-003 2.90504843e-003
      2.81398394e-003 1.32016547e-004 -1.94007228e-003 -3.71879112e-004
      -3.03385401e-004 2.95907212e-005 -3.54638818e-004 2.09545949e-003
      3.13652027e-003 2.44611525e-003 -1.04319328e-003 -2.87952228e-003
      -9.45344858e-004 -9.03007167e-004 -9.65318934e-004 4.88887832e-004
      1.91490189e-003 5.06202644e-003 3.46062100e-003 -1.06484909e-003
      -3.89490882e-003 -8.43684771e-004 -3.88065033e-004
      -2.79390166e-004 -1.14586503e-004 6.57457043e-004 4.81146248e-003
      3.09596211e-003 -2.28318083e-003 -4.93839523e-003 -1.46357098e-003
      -1.48689444e-003 -1.58822851e-003 2.15389475e-004 9.01119784e-004
      5.11628063e-003 3.27986223e-003 -4.39130515e-003 -4.81978059e-003
      -2.17821333e-003 -9.84646147e-004 -3.99168144e-004 1.80211302e-003
      3.35406372e-003 4.71150782e-003 3.27696791e-003 -3.58957821e-003
      -1.64182286e-003 3.87434819e-004 6.61365571e-004 -1.00451543e-004
      7.03627418e-004 1.10463751e-003 1.46562047e-003 1.01561192e-003
      -5.30288729e-004 -1.18632603e-003 5.06373995e-004 6.49169087e-004
      -5.92330587e-004 4.05691215e-004 8.73208628e-004 4.55123256e-004
      2.10930035e-003 -5.31856087e-004 -1.55233138e-003 3.59750004e-004
      2.99527281e-004 -2.96129787e-004 3.41981737e-004 1.74378324e-003
      2.36813677e-003 2.79069832e-003 -1.20319298e-003 -1.64490764e-003
      3.73412004e-005 2.25679214e-005 -3.46622517e-004 -2.32630438e-004
      1.87636947e-003 2.42340937e-003 2.02716840e-003 -1.59808632e-003
      -4.16372437e-003 -7.92452192e-004 1.89019745e-004 -2.26576030e-005
      3.12010787e-004 1.33449212e-003 3.25441919e-003 1.38945447e-003
      -2.67955498e-003 -3.07637244e-003 -1.86259713e-004 4.95836372e-004
      3.82063386e-004 3.35733312e-005 1.80006982e-003 3.06459330e-003
      8.81021668e-004 -2.55894987e-003 -3.88919003e-003 -9.84173967e-004
      -1.11942925e-003 6.43061241e-004 8.40839813e-004 2.07979535e-003
      4.42087231e-003 1.31410640e-003 -2.99605564e-003 -3.83752445e-003
      -1.68718363e-003 -1.19423342e-003 8.41430912e-004 2.10609846e-003
      3.00869159e-003 4.38153185e-003 9.85514373e-004 -2.23055063e-003
      -4.96253662e-004 -2.55772786e-004 -4.98859095e-004
      -6.35506760e-004 3.23551058e-006 2.07404373e-003 5.20215312e-004
      1.84345918e-004 2.23974610e-004 -5.28742210e-004 1.43837460e-004
      -6.98423013e-004 -5.43610658e-004 3.83733677e-005 1.63630303e-003
      8.63266294e-004 1.62623473e-003 7.09633052e-004 -1.12773280e-003
      -7.41606073e-006 1.68094528e-004 -1.98548485e-004 -5.07855089e-004
      2.15350091e-003 3.56981228e-003 3.19393119e-003 2.85365153e-004
      -1.90306478e-003 1.36598115e-004 2.84699694e-004 -8.63415553e-005
      -1.43630503e-004 1.64899533e-003 2.81271967e-003 2.68891687e-003
      -1.24802475e-003 -3.16231139e-003 -1.21930288e-003
      -9.22832696e-004 -3.75511707e-004 3.87385808e-004 2.10847659e-003
      4.44860570e-003 2.84093339e-003 -1.52318727e-003 -3.36532085e-003
      -1.27777248e-003 -5.28833014e-004 1.74763787e-004 6.16410631e-004
      1.49300194e-003 4.42969985e-003 2.33601290e-003 -2.74341437e-003
      -4.11917176e-003 -1.76006579e-003 -2.16611545e-003
      -1.39376428e-003 -5.97665421e-005 1.15770998e-003 4.92807664e-003
      2.70710490e-003 -4.05601598e-003 -4.39469749e-003 -2.40222085e-003
      -1.78310438e-003 -5.50358498e-004 1.32403325e-003 2.77747563e-003
      4.05439548e-003 2.69105216e-003 -3.19951819e-003 -1.26749126e-003
      7.87263707e-006 5.46443451e-004 5.05634816e-004 4.78579488e-004
      4.55001806e-004 -7.52432912e-004 -1.63837080e-003 -9.90572735e-004
      -4.31146618e-004 6.59319339e-004 9.93270427e-004 5.05901291e-004
      6.42795814e-004 9.17689526e-004 1.53323563e-004 2.62751215e-004
      7.91298924e-004 -5.83411485e-004 4.95352549e-004 3.18322098e-004
      4.83800221e-004 -7.04288424e-004 8.42133828e-004 1.29401847e-003
      1.22921471e-003 -7.53349392e-004 -1.32995623e-003 1.84467935e-004
      8.98696482e-004 2.60954839e-004 -8.01740098e-004 9.89998225e-004
      1.94522878e-003 1.73804618e-003 -4.19758493e-004 -2.01350311e-003
      2.96137994e-004 -8.18105007e-004 -7.99396483e-004 3.85903608e-004
      2.26363307e-003 5.06378245e-003 3.41609702e-003 -6.23926229e-004
      -4.06907080e-003 -7.30142754e-004 -1.00653735e-003
      -5.78900159e-004 -5.72748540e-004 3.93891329e-004 4.27371729e-003
      3.37576959e-003 -1.76785688e-003 -5.29729435e-003 -1.00407680e-003
      -1.00922154e-003 -1.60567160e-003 6.01654829e-005 1.26586633e-003
      4.67487704e-003 4.00127098e-003 -3.80980945e-003 -4.65835910e-003
      -1.73823792e-003 -1.31526205e-004 -2.84942449e-004 1.80948398e-003
      2.57912045e-003 4.86113969e-003 3.34958825e-003 -2.90675974e-003
      3.18309030e-004 1.55866728e-004 3.03245295e-004 5.75910788e-004
      -6.02435539e-005 -1.10627610e-004 -8.81942746e-004
      -1.10343203e-003 -5.98266388e-006 3.14146862e-004 -1.62897966e-004
      -1.20914856e-003 8.55295686e-004 3.91399110e-004 1.36589701e-003
      -2.23235664e-004 -8.08075129e-004 -9.53842664e-006
      -7.67815975e-004 -2.24167801e-004 -7.61279080e-006
      -2.25649928e-004 6.48373563e-004 5.30567486e-004 1.26246072e-003
      8.54606624e-004 -7.29661842e-004 -9.37909528e-004 -4.53347369e-004
      4.63984412e-004 4.80132789e-004 7.92947249e-005 1.64307537e-004
      1.25238532e-003 1.08420069e-003 -3.48059461e-004 -9.78595926e-004
      2.30461053e-004 1.91595202e-004 -7.21965742e-004 -5.62085595e-004
      6.94281363e-004 2.51849438e-003 1.85069221e-003 4.16587398e-004
      -2.74607074e-003 -1.49767927e-003 -1.14268810e-003
      -9.98246134e-004 -2.12116269e-004 1.09254196e-003 3.23988684e-003
      2.60771485e-003 3.97323689e-004 -5.28253568e-003 -2.96826451e-003
      -1.41774036e-003 -8.53321631e-004 2.89759249e-004 2.92492635e-003
      4.42896830e-003 3.14072869e-003 -2.94988020e-003 -3.90378037e-003
      -1.74744660e-003 1.43963305e-004 -4.41257900e-004 -4.46500671e-005
      2.50495854e-003 4.47051926e-003 2.30241520e-003 -8.84317735e-004
      -1.37889583e-003 -5.16531218e-005 -1.38109332e-004 2.82844529e-004
      3.06143716e-004 1.59537036e-003 -6.57896744e-004 -8.74474703e-004
      -6.54683681e-004 -3.02066328e-004 3.34543409e-004 9.19316735e-005
      2.23178838e-004 5.21902402e-004 1.74459477e-003 -4.91440333e-005
      9.24212858e-004 9.96373943e-004 -5.27223456e-004 4.28645784e-004
      -1.62873053e-004 2.28872334e-004 -9.39538702e-004 1.70402788e-003
      2.10082880e-003 2.25738995e-003 -5.24013412e-005 -1.65826245e-003
      -1.79143593e-004 -1.72441141e-004 9.92775676e-005 -6.78112090e-004
      2.09305598e-003 2.67409557e-003 2.22182204e-003 -6.04719913e-004
      -2.59800046e-003 -4.80312767e-004 -7.93267507e-004
      -9.58950724e-004 1.12845788e-004 2.05913116e-003 5.23351505e-003
      3.49649065e-003 -8.83479253e-004 -4.02162038e-003 -8.72314442e-004
      -4.77274938e-004 -4.32095636e-004 -5.02174662e-004 3.56160774e-004
      4.79587074e-003 3.08557274e-003 -2.11330457e-003 -5.21107204e-003
      -1.41557795e-003 -1.28613121e-003 -1.57507916e-003 1.01841681e-004
      9.88556771e-004 5.05022751e-003 3.68494657e-003 -4.12338180e-003
      -4.78216214e-003 -2.00711400e-003 -6.47688343e-004
      -2.83862755e-004 1.83032698e-003 3.04866652e-003 4.81692003e-003
      3.24209873e-003 -3.31396237e-003 -2.90286029e-004 1.06000909e-004
      9.53664538e-004 2.34455598e-004 1.68175058e-004 4.30748514e-005
      -1.10770168e-003 -1.78304606e-003 -2.93768127e-004 4.35343609e-005
      2.92659592e-004 -1.44587670e-004 9.38849989e-004 5.15674066e-004
      1.25032256e-003 -1.22171798e-004 -1.35825551e-003 -1.14546245e-004
      -7.48798542e-004 1.55837755e-004 3.49039939e-004 -2.55748571e-004
      2.71174998e-004 5.34906867e-004 6.33402378e-004 3.49552953e-004
      -1.26055337e-003 -1.12157792e-003 -3.75283911e-004 8.76475009e-004
      2.31769009e-005 -2.47697171e-004 2.55093211e-004 1.83906697e-003
      1.42792251e-003 -2.55392049e-004 -1.19627162e-003 6.32010575e-004
      1.53170302e-004 -5.63941197e-004 3.09105875e-004 1.60375633e-003
      3.78195499e-003 2.26200745e-003 -2.69570941e-004 -3.62871867e-003
      -8.67348979e-004 -9.41611535e-004 -7.79332069e-004
      -2.99517007e-004 6.77757722e-004 3.63620766e-003 2.30125571e-003
      -3.89149500e-004 -5.37875202e-003 -1.64951547e-003
      -1.27936457e-003 -1.17519603e-003 -1.20578798e-005 2.40361062e-003
      4.71508643e-003 3.40215419e-003 -3.42272432e-003 -4.29069065e-003
      -1.64133834e-003 -1.45785729e-004 -1.46526450e-004 6.86224143e-004
      2.86195427e-003 4.56715096e-003 2.28518760e-003 -1.67993316e-003
      7.08848878e-004 -4.89103899e-004 -1.78218266e-004 -4.00323697e-005
      -1.21676960e-004 -6.89116496e-005 -4.75635112e-004 1.37096213e-004
      5.42213500e-004 2.10991318e-004 -1.04218884e-003 -1.95652829e-003
      -1.57333809e-004 -2.77777202e-004 9.18710139e-004 1.91835807e-005
      1.01794707e-004 4.24783560e-004 -7.31028558e-004 -4.66601225e-004
      -1.61257849e-004 -7.99778849e-004 1.12874943e-004 4.22544923e-004
      1.44453836e-003 1.77687535e-003 -2.53689475e-004 -6.62355509e-004
      2.89501389e-004 1.53479967e-004 6.55749231e-004 1.83269643e-004
      2.24568532e-004 5.00845723e-004 1.37327530e-003 -7.71925377e-004
      -1.64356781e-004 4.85971308e-004 6.93589333e-004 -9.20500752e-005
      -2.19981041e-004 -4.74573957e-004 2.18451745e-003 2.12945393e-003
      1.68992134e-004 -1.47495687e-003 -1.32235186e-003 -1.62080186e-003
      -7.80736795e-004 -1.33073801e-004 4.25318081e-004 3.44660622e-003
      2.90729664e-003 4.01659781e-004 -4.43962961e-003 -2.93702679e-003
      -1.48360338e-003 -1.50420063e-003 7.69246180e-005 2.12741923e-003
      4.19264706e-003 3.51859001e-003 -1.08494982e-003 -3.45182372e-003
      -1.94317068e-003 -5.37632848e-004 -1.55076478e-003
      -8.80265492e-004 1.19053281e-003 3.72177968e-003 3.76145635e-003
      -2.84130132e-004 -1.19120383e-003 -1.85357407e-003
      -6.83479186e-004 -1.35498238e-003 -8.41806293e-004
      -1.08125969e-003 4.03440499e-004 2.03690142e-003 1.01374136e-003
      -3.31055984e-004 -1.72263104e-003 -1.42281677e-003
      -9.69061453e-004 -1.12639822e-003 1.84830293e-004 1.25350105e-003
      2.09035911e-003 1.11143989e-003 -1.63136239e-004 -1.90479041e-005
      -2.11736769e-004 -1.49904646e-003 -1.41283454e-004 7.75175693e-004
      3.09211668e-004 1.76837400e-003 4.55202709e-004 2.64244409e-005
      1.44845981e-004 4.01636324e-004 9.26369743e-004 -1.11422749e-004
      -1.45930695e-004 7.14231748e-004 1.83692214e-003 3.82047379e-004
      -3.45830602e-004 1.24504464e-003 1.46649312e-003 5.97722363e-004
      1.50338834e-004 -7.20181095e-004 7.77792884e-004 1.55447947e-003
      2.23040595e-004 -1.34870957e-003 6.84608949e-006 -2.83293833e-004
      -6.88554021e-004 -4.74238077e-005 -7.73798209e-004 8.10027530e-004
      1.35753013e-003 -1.60467753e-004 -1.89475494e-003 -2.18088320e-003
      -1.41011132e-003 -1.68905593e-003 -2.75609869e-004 1.06525328e-003
      2.92389398e-003 2.62648822e-003 6.60706646e-005 -2.63123773e-003
      -3.04277777e-003 -1.98113336e-003 -1.86883553e-003
      -1.49190449e-003 1.19730819e-003 2.55616149e-003 3.09970765e-003
      -2.72102188e-004 6.21551066e-004 -1.31096342e-004 1.31091860e-004
      6.94660004e-004 -5.05168500e-005 1.22681522e-004 -5.84603695e-004
      -9.07005975e-004 1.61706033e-004 3.62297898e-004 -6.24060980e-004
      -1.56908727e-003 7.25535443e-004 1.05748790e-004 1.41672988e-003
      2.06583481e-005 -7.79960945e-004 1.17608324e-004 -6.69676519e-004
      -2.82783789e-004 -1.04006293e-004 -3.39301710e-004 4.43801633e-004
      4.65123187e-004 1.39606476e-003 1.18582416e-003 -3.91272595e-004
      -7.63034273e-004 -2.15298409e-004 2.77016079e-004 5.16357250e-004
      -5.37057094e-005 1.30054017e-004 1.03751430e-003 1.28691574e-003
      -5.10007318e-004 -7.34839647e-004 1.81897747e-004 1.20112221e-004
      -7.66552403e-004 -7.46371748e-004 2.56866653e-004 2.26832414e-003
      2.02967250e-003 3.74564930e-004 -2.43451120e-003 -1.41608843e-003
      -1.40260393e-003 -1.15541241e-003 -1.68960032e-004 9.27672896e-004
      3.39072663e-003 2.78602564e-003 5.48702490e-004 -5.19199250e-003
      -3.24001047e-003 -1.26312044e-003 -9.83467326e-004 2.68146105e-004
      2.53603491e-003 4.33119200e-003 3.33644380e-003 -2.37233820e-003
      -3.79995327e-003 -1.72268017e-003 1.83138880e-004 -7.87852681e-004
      -4.74374363e-004 1.83895335e-003 3.99149489e-003 2.94608320e-003
      -3.58519086e-004 2.09055346e-004 -1.21074961e-003 -3.87475040e-004
      -1.17684295e-003 -3.86105035e-004 -9.16285848e-004
      -4.78652830e-004 7.87936384e-004 8.16790794e-004 -3.50940099e-004
      -1.35456596e-003 -1.23725238e-003 -6.00864005e-004
      -5.62542642e-004 3.94798117e-004 5.88895418e-005 1.22110010e-003
      8.74949328e-004 -2.67474301e-004 -4.70181520e-004 8.38565902e-005
      -8.42612644e-004 -1.57804199e-004 5.69856318e-004 3.72133160e-004
      1.77511433e-003 1.90858336e-004 1.29294480e-004 -2.34547493e-004
      3.91526613e-004 1.44164730e-003 1.81988260e-004 -1.15739327e-004
      -1.39512040e-005 1.58974354e-003 -4.08639098e-005 1.91987216e-004
      8.75514699e-004 1.20263314e-003 4.30171785e-004 3.31527874e-004
      -1.02317578e-003 1.48165075e-003 1.58379273e-003 3.33143107e-004
      -1.03192427e-003 -2.99526670e-004 -8.34585691e-004
      -9.55513271e-004 1.58796043e-004 -2.42141614e-004 1.82076881e-003
      1.64193171e-003 2.87352566e-004 -2.91482406e-003 -2.85996217e-003
      -1.80761784e-003 -1.92564004e-003 -2.12546256e-005 1.46769965e-003
      3.75845539e-003 3.49801336e-003 1.84105156e-004 -3.02978023e-003
      -3.17074847e-003 -1.98318367e-003 -2.06806115e-003
      -1.15388748e-003 1.02232839e-003 3.18142632e-003 3.63360485e-003
      -1.57608083e-004 -9.30148992e-004 -1.84055476e-003
      -9.80690005e-004 -3.06207890e-004 -4.39467112e-004
      -7.39671232e-004 9.34749783e-004 2.85928929e-003 1.50446151e-003
      -2.66287534e-004 -1.76360901e-003 -2.02741055e-003
      -1.31925510e-003 -4.44266014e-004 9.92279965e-005 1.17296563e-003
      2.72413157e-003 1.06460310e-003 -6.99045719e-004 7.41050113e-004
      1.09054250e-004 -1.38340541e-003 -5.13606821e-004 5.40718902e-004
      1.12427678e-003 2.33712862e-003 2.46435986e-004 -1.51476124e-004
      9.28675523e-004 1.24316243e-003 3.53561190e-004 4.27350664e-004
      5.44897593e-005 1.19154644e-003 2.30717682e-003 4.57507194e-005
      -7.25311111e-004 1.26771000e-003 1.49119727e-003 9.63525788e-004
      2.87895731e-004 1.55058748e-004 8.57571431e-004 1.94635359e-003
      -1.31053763e-004 -1.46064011e-003 1.22367183e-003 6.01210049e-004
      2.79614265e-004 1.10780766e-005 -4.98730456e-004 2.19169131e-004
      7.33426423e-004 -5.03469084e-004 -1.44896924e-003 -2.81433226e-004
      -9.47655237e-004 -1.31430267e-003 -2.65848066e-004 1.49568159e-003
      1.70215650e-003 8.34899256e-004 -8.71513213e-004 -1.61650567e-003
      -1.16266496e-003 -1.26846577e-003 -9.43123014e-004
      -1.19704951e-003 1.89700280e-003 2.50751362e-003 1.77418208e-003
      -7.11846515e-004 7.12427369e-004 5.63282811e-004 1.42361212e-003
      8.49963923e-004 -1.10958819e-003 -2.64660525e-003 -1.15118513e-003
      1.24889927e-003 8.34942912e-004 1.45132234e-003 1.21886923e-003
      1.29513303e-003 -2.40873313e-004 -2.03447626e-003 -2.06091464e-003
      -5.51713107e-004 1.40399882e-003 1.89134001e-003 9.35931166e-004
      1.55813061e-003 3.10020987e-004 -1.50464044e-003 -2.57661380e-003
      -3.02467728e-004 1.77175622e-003 2.05652835e-003 1.91491656e-003
      1.10262213e-003 2.26568244e-003 1.96589186e-004 -1.52900897e-003
      -1.62908644e-003 -1.15880428e-003 5.13813866e-004 2.41336203e-003
      1.67554023e-003 -6.76870288e-004 -9.17991740e-004 3.32053751e-004
      8.25032748e-006 -9.90238856e-004 1.41318465e-004 6.69615110e-004
      1.89049484e-003 -7.31995260e-006 -8.40472931e-004 -2.61672947e-004
      8.37820349e-004 6.65206695e-004 3.71972885e-004 7.97861954e-004
      1.42970285e-003 2.10520532e-003 -7.13453221e-004 -1.88768958e-003
      -5.22989081e-004 -1.52002453e-004 -1.13212940e-004 1.03482462e-005
      7.65797624e-004 2.43501947e-003 1.54323259e-003 -9.11241863e-004
      -2.20884685e-003 -6.27094239e-004 9.04420915e-004 6.95098075e-004
      7.13921560e-004 2.21652165e-003 3.11657740e-003 1.82975666e-003
      -1.04099489e-003 -1.26323861e-003 -2.22338852e-003
      -7.97747227e-004 -1.13284274e-003 -1.00204593e-003
      -9.85906343e-004 7.77796260e-004 2.57612159e-003 1.17600430e-003
      -3.85964289e-004 -1.85617397e-003 -1.64707319e-003
      -1.25806278e-003 -1.15030853e-003 2.92288896e-004 1.68865779e-003
      2.37369654e-003 1.06293429e-003 -2.31845770e-004 2.82959547e-004
      -1.22041783e-004 -1.57032046e-003 -1.81726864e-004 9.82249388e-004
      5.91070042e-004 1.80193852e-003 3.19904415e-004 -6.43239910e-005
      2.03040909e-005 8.00280832e-004 9.42284008e-004 7.35298090e-005
      -2.80632557e-005 1.22031150e-003 1.69798476e-003 3.29152710e-004
      -5.09500795e-004 1.36265019e-003 1.58093031e-003 8.52861791e-004
      1.65404737e-004 -2.36715525e-004 7.38854113e-004 1.71812426e-003
      1.70582673e-004 -1.45960005e-003 1.92951295e-004 2.12141516e-004
      -2.91723845e-004 -3.19084211e-004 -8.15988227e-004 3.79960074e-005
      1.26406795e-003 -2.17986148e-004 -1.42123923e-003 -1.69883901e-003
      -1.04203960e-003 -1.57201034e-003 -6.21874700e-004 9.16667923e-004
      2.31489819e-003 2.15225574e-003 -1.03264669e-004 -2.15709442e-003
      -2.45343917e-003 -1.60297076e-003 -1.68701564e-003
      -1.79722533e-003 1.33783184e-003 2.46254657e-003 2.76610395e-003
      -2.55869032e-004 -2.84490270e-005 -4.11905698e-004 3.75011849e-004
      8.00632290e-004 -6.18365069e-004 -2.25371378e-003 -1.39825759e-004
      1.89556100e-003 1.27105543e-003 1.16632413e-003 1.91840227e-004
      -3.68936773e-004 -9.70612688e-004 -1.86761958e-003
      -1.20670721e-003 -1.13822334e-005 1.78166630e-003 1.52560975e-003
      -5.70554694e-005 1.32441684e-003 -4.38729185e-005 -1.39224762e-003
      -1.85839308e-003 -3.77409124e-005 1.40192348e-003 1.86899898e-003
      1.05967431e-003 9.89607302e-004 2.10306421e-003 9.25264263e-004
      -6.92158705e-004 -7.92383507e-004 -8.31036246e-004 6.60780875e-004
      2.26421328e-003 9.48176312e-004 -2.03899792e-004 -3.21261818e-004
      8.05399846e-004 4.00372373e-004 1.41036973e-004 2.57119507e-004
      4.99145011e-004 1.75209809e-003 -1.65924466e-005 -8.99511331e-004
      5.79355750e-004 6.01802603e-004 5.46040712e-004 6.12495060e-004
      6.45473192e-004 1.31235470e-003 7.63107790e-004 -4.26682440e-004
      -1.61509449e-003 -1.86778576e-004 -8.63707101e-004
      -8.85541143e-004 -2.55474297e-004 1.06906286e-003 2.11077207e-003
      6.68657012e-004 -7.02579156e-004 -1.74476858e-003 -4.86773526e-004
      -7.03390106e-005 -3.33447679e-005 1.20884224e-005 2.00628676e-003
      2.69199559e-003 1.38431636e-003 -8.64304253e-004 6.25974499e-004
      5.95133053e-004 1.85932394e-003 8.66359973e-004 -9.61636193e-004
      -2.39065103e-003 -1.62698433e-003 -4.06700623e-004 4.34887828e-004
      2.28581391e-003 1.96249736e-003 2.24869163e-003 4.32392844e-004
      -2.93880119e-004 -2.45394418e-003 -7.19511998e-004 1.03602372e-003
      2.21289461e-003 1.97205553e-003 2.48887087e-003 1.21749088e-003
      -1.52281264e-003 -3.25470208e-003 -9.52978269e-004 1.17801991e-003
      2.43948749e-003 2.60461634e-003 1.58668519e-003 1.92596496e-003
      -3.64009087e-004 -2.34201644e-003 -2.09325110e-003
      -1.38613582e-003 1.44737132e-003 3.63258459e-003 2.64428137e-003
      -1.44000631e-003 8.84712499e-005 -1.15793619e-005 -1.11295539e-003
      -1.97407231e-003 3.98129283e-004 1.16287358e-003 3.23486328e-003
      1.87479294e-004 -1.42703520e-003 3.75785312e-004 1.87291147e-003
      1.28784182e-003 -9.32562471e-005 9.16394172e-004 1.85221725e-003
      4.03604563e-003 -9.26879758e-004 -2.81931972e-003 2.12446117e-004
      1.48844474e-003 9.13641066e-004 6.43121777e-004 1.04719913e-003
      2.27892702e-003 3.65001406e-003 -7.31995970e-004 -3.22783040e-003
      -1.39068607e-006 2.30900641e-003 1.19641866e-003 1.01194181e-003
      2.84483447e-003 2.95674033e-003 3.51429242e-003 -1.11229823e-003
      -8.68087111e-004 -9.00217623e-004 -4.55040499e-005 6.75133138e-004
      1.29668515e-005 8.02666909e-005 -1.03638286e-003 -1.13296544e-003
      -4.29848791e-004 -3.66341294e-004 -9.28934605e-004
      -1.09623230e-004 7.71314371e-004 2.19017456e-004 -6.05599838e-004
      -1.01733021e-003 -5.95165184e-004 4.53469285e-004 1.48690026e-003
      1.49812573e-003 1.06839801e-003 2.32840961e-004 -2.01738556e-003
      -1.24914327e-003 1.00247533e-004 1.65220350e-003 1.48570468e-003
      1.51781482e-003 1.14546437e-003 4.40550561e-004 -2.65551824e-003
      -2.04527471e-003 -1.44385919e-003 8.42502515e-004 2.96086259e-003
      1.56923721e-003 -9.95103153e-004 4.34942922e-004 -3.02748318e-004
      -1.76761101e-003 -2.00241292e-003 2.85509741e-004 7.90381280e-004
      2.50840164e-003 1.12178281e-003 -1.68801495e-003 1.18054822e-003
      1.50617701e-003 1.32346887e-003 6.50055008e-004 1.40137540e-003
      1.57320488e-003 3.34951701e-003 -6.26247027e-004 -3.52927018e-003
      6.56687189e-004 2.41314806e-003 1.72934507e-003 1.51595648e-003
      1.86279544e-003 1.26539776e-003 2.95204832e-003 -6.06942456e-004
      -2.99325027e-003 8.38929322e-004 2.77320994e-003 1.60997978e-003
      1.26534747e-003 1.91182271e-003 1.33889774e-003 3.24968062e-003
      -4.60359617e-004 9.07201669e-004 7.05750193e-004 1.66250812e-003
      1.05010031e-003 -1.45709945e-003 -2.60030571e-003 -1.38281798e-003
      5.46777796e-004 7.94072170e-004 2.05042842e-003 1.57869409e-003
      1.68343855e-003 3.28013237e-004 -1.59529597e-003 -2.12612282e-003
      -5.97129110e-004 1.37153885e-003 2.15520943e-003 1.96056394e-003
      1.79890974e-003 4.57091111e-004 -1.71066611e-003 -2.67884554e-003
      -4.86257370e-004 1.80134445e-003 2.17656093e-003 2.27854517e-003
      9.33355826e-004 1.99263985e-003 -4.07119078e-004 -1.67349225e-003
      -1.77447207e-003 -1.22454809e-003 6.51548326e-004 2.78623775e-003
      2.01566448e-003 -1.15935050e-003 -8.10918980e-004 2.83701029e-005
      -2.36667416e-004 -1.42463529e-003 9.78297612e-006 1.00521825e-003
      2.45758286e-003 -9.47534427e-005 -8.15436651e-004 -1.97996414e-004
      1.16218883e-003 7.18540396e-004 1.24767132e-004 9.44792817e-004
      1.71436276e-003 2.83149024e-003 -7.83541473e-004 -2.22499436e-003
      -5.25586249e-004 5.07071207e-004 3.32098629e-004 2.47036922e-004
      7.08046544e-004 2.44834111e-003 2.31125159e-003 -9.08202725e-004
      -2.56013335e-003 -4.96078341e-004 1.47319131e-003 9.67520697e-004
      9.08905757e-004 2.23569386e-003 3.21729318e-003 2.49218964e-003
      -1.13291643e-003 -9.33440424e-006 -2.94643629e-004 9.69870831e-004
      7.69576349e-004 -6.91835303e-004 -9.02384054e-004 -1.72725564e-003
      -1.34796777e-003 -3.01043125e-004 1.23737904e-003 7.43295008e-004
      1.69282395e-003 6.89701817e-004 -3.17143713e-004 -1.68207241e-003
      -1.02191151e-003 -2.49522913e-004 1.02553074e-003 1.04929169e-003
      2.34362204e-003 1.42528524e-003 -4.30620392e-004 -3.17497365e-003
      -1.33215217e-003 7.72611296e-004 2.33032648e-003 1.66582479e-003
      2.40602833e-003 2.07199459e-003 2.88125011e-004 -2.97548622e-003
      -2.03692843e-003 -7.24079029e-004 1.54750177e-003 3.97977373e-003
      2.75707385e-003 -1.31274876e-003 7.40288408e-004 -5.78261242e-005
      -2.16336176e-003 -1.59401516e-003 3.51963623e-004 9.57018230e-004
      3.53657943e-003 1.14658556e-003 -2.19896343e-003 1.06738694e-003
      1.80732354e-003 1.09979266e-003 3.55472992e-004 1.07589201e-003
      1.67539075e-003 4.21313709e-003 -4.80938557e-004 -4.02017077e-003
      6.55640732e-004 2.45270459e-003 1.58854795e-003 1.37799804e-003
      1.60054571e-003 1.79100793e-003 3.88259860e-003 -2.98361643e-004
      -3.46474163e-003 8.73196113e-004 3.16322572e-003 1.36420189e-003
      1.11058773e-003 2.49053375e-003 2.05083936e-003 3.62749398e-003
      -4.28627565e-004 -1.76802231e-003 -1.35256792e-003
      -1.36923557e-003 4.05620522e-005 6.28147682e-004 7.41098425e-004
      6.00830012e-004 8.34983657e-005 1.10821420e-004 -7.72962929e-004
      -1.33888749e-003 -1.16785301e-003 -4.02651232e-004 5.13146864e-004
      5.36813786e-005 -8.23737704e-004 2.80399370e-004 7.31994733e-005
      2.03043013e-003 1.67312601e-003 6.79257442e-004 8.52156722e-004
      -8.48827709e-004 -1.44455314e-003 -1.14503561e-003 4.70228988e-005
      1.61280134e-003 1.44897599e-003 1.47063832e-003 4.35445749e-004
      -2.20481749e-003 -1.48708897e-003 -1.79129757e-003
      -7.67572346e-005 7.87007448e-004 1.62103563e-003 -1.09654444e-003
      -4.27739229e-004 -8.27417767e-004 -1.21379015e-003
      -1.62996724e-003 1.85232000e-006 6.55543059e-004 7.11606117e-004
      9.18350066e-004 -1.01699657e-003 1.05661503e-003 9.82572325e-004
      1.60262582e-003 3.28546419e-004 1.73981301e-003 1.07777549e-003
      1.89906114e-003 -8.37451353e-006 -1.56957412e-003 6.39509235e-004
      1.97732751e-003 1.56688469e-003 1.57330406e-003 1.20363699e-003
      2.92770768e-004 6.20196341e-004 -8.32082180e-004 -1.46434410e-003
      4.80244984e-004 2.05972325e-003 1.46669126e-003 1.19728351e-003
      8.51363991e-004 3.36656580e-004 1.66524900e-003 -8.35195999e-004
      -1.47101888e-003 -1.54264621e-004 -1.23897905e-003
      -9.31351620e-004 6.01779495e-004 1.05735403e-003 1.95134419e-003
      3.93448136e-004 9.15441022e-004 -4.15409217e-004 5.24213305e-004
      -6.07905386e-004 -1.23996357e-003 -4.19296965e-004
      -4.92200546e-004 5.66315663e-004 5.34428109e-004 4.65992664e-004
      2.77455035e-003 2.74924864e-003 1.17036351e-003 -7.61690375e-004
      -9.98119358e-004 -1.59615476e-003 -8.73927027e-004
      -6.15326862e-004 1.17376493e-003 1.77738536e-003 1.79661682e-003
      7.79882364e-004 -1.08181208e-003 -1.42685045e-003 -1.86623633e-003
      -1.56564740e-004 -2.46879572e-005 1.31307438e-003 4.57222806e-004
      1.19876582e-003 1.42067263e-003 -6.82295242e-004 -1.40267843e-003
      -5.69409516e-004 2.06249533e-003 1.89573190e-003 1.39654777e-003
      3.88310174e-004 1.83893426e-003 1.85700681e-003 2.65294686e-004
      -9.91478097e-004 5.81402855e-005 1.78252987e-003 1.08798232e-003
      1.46812783e-003 -6.36589597e-004 1.83125853e-003 1.39001722e-003
      -2.99313600e-004 -4.21591743e-004 -1.14884472e-003
      -1.18307507e-004 9.15721175e-004 5.15369582e-004 -8.58951011e-004
      1.45964674e-003 1.24894676e-003 1.00821468e-004 6.32522162e-004
      -8.28028598e-004 5.60071021e-005 2.35798187e-003 -3.08545685e-004
      -4.96922934e-004 -2.17944442e-004 -1.34794763e-003
      -2.69069988e-003 2.99156207e-004 5.81142784e-004 1.90443662e-003
      1.12457934e-003 8.38066990e-005 -1.00512523e-003 7.46970472e-004
      -4.07326588e-004 -8.33488652e-004 6.06158457e-004 9.10856470e-005
      1.52219820e-003 1.00807031e-003 -1.26357435e-003 -2.28137546e-003
      5.07520337e-004 1.08302594e-003 7.05056940e-004 1.46275864e-003
      -5.34457329e-004 -3.21733445e-004 -3.90202476e-004
      -2.03924533e-003 -2.10229657e-003 -9.47516528e-004 1.74738321e-004
      -6.05415611e-004 1.60209136e-003 1.15313625e-003 8.62292538e-004
      1.03194022e-003 -1.56008301e-003 -1.15137000e-003 -7.58774346e-004
      -1.18332368e-003 -2.11824663e-003 -9.87403677e-004
      -4.58592520e-004 1.34416146e-003 1.45070034e-003 -4.14035196e-004
      -6.08240429e-004 -9.47302964e-004 -1.43005303e-003
      -1.58982002e-003 -1.59734872e-003 -1.43590174e-003 1.34069985e-003
      1.78737822e-003 4.52968350e-004 7.78691901e-004 3.72122537e-004
      -1.59210095e-003 -2.52338592e-004 -1.42247637e-003
      -6.04584893e-005 9.82682221e-004 1.63245550e-003 8.68392235e-004
      6.94671995e-004 9.88569111e-004 1.15929361e-004 1.11976778e-003
      -1.02714542e-003 -1.16540689e-003 1.09877088e-003 1.70203939e-003
      8.01420130e-004 -1.29367772e-003 2.10511207e-004 -5.21674927e-004
      -1.55833620e-003 -1.61561533e-004 8.97901773e-004 2.88827624e-003
      1.91650342e-003 -1.28318882e-003 -2.47758790e-003 1.03695050e-003
      8.91846197e-004 -3.02795816e-004 3.78313445e-004 8.40971828e-004
      1.67256698e-003 1.01398898e-003 -1.87486038e-003 -2.26160488e-003
      4.95765300e-004 1.46938208e-003 1.01926108e-003 1.28138263e-003
      1.43063196e-003 1.78314920e-004 -7.50594889e-004 -1.97517453e-003
      -1.09218841e-003 -1.77860493e-004 8.14932806e-004 6.24417851e-004
      9.84439976e-004 7.44578661e-004 5.08719706e-004 6.74889452e-005
      -9.75818955e-004 -1.67205546e-003 -1.08296110e-003
      -1.08811085e-003 -1.14438287e-003 -2.34569918e-004 6.49726600e-004
      1.43615494e-003 2.10677390e-003 -6.36605779e-004 -1.13496045e-003
      -5.83037676e-004 -8.13321560e-004 -1.86889735e-003
      -1.58243708e-003 4.83532145e-004 1.62914000e-003 1.12446677e-003
      -7.99335714e-004 -8.00151262e-004 2.51520221e-004 -1.63457025e-005
      -8.35549319e-004 -1.45770726e-003 2.04681521e-004 4.03529295e-004
      1.58976915e-003 -3.88787827e-004 -3.59835045e-004 1.62015692e-003
      1.00447411e-004 -1.59304542e-003 -2.29584076e-003 -1.44691276e-003
      7.07996194e-004 2.41465890e-003 3.60800914e-005 -1.42517011e-003
      6.07615919e-004 5.32461214e-004 -6.81024685e-004 6.43339532e-004
      9.65053914e-004 2.11227802e-003 2.02694628e-003 -1.83099415e-003
      -2.24098982e-003 -6.01929612e-004 -1.26444647e-004
      -4.81305091e-004 3.90034111e-004 9.85545223e-004 2.63693370e-003
      2.30335072e-003 -1.64799788e-003 -3.31694679e-003 -4.13284928e-004
      1.04014599e-003 2.59973051e-004 6.74755836e-004 2.10812525e-003
      3.32357595e-003 1.00740127e-003 -2.92439433e-003 -2.56023067e-003
      -2.11944964e-004 8.96609738e-004 5.68272837e-004 5.39431581e-004
      1.24461728e-003 2.32445193e-003 8.47648771e-004 -2.18984019e-003
      -2.40198872e-003 6.31668780e-004 -5.08787285e-004 -4.81485564e-004
      1.48445251e-004 1.74357311e-003 2.81337625e-003 2.55884416e-003
      -1.49560778e-003 -2.56161275e-003 -8.20946065e-004
      -4.92366264e-004 -6.54846372e-004 2.15107662e-004 2.00575590e-003
      3.43549228e-003 1.59126881e-003 -7.67213525e-004 -2.54710275e-003
      -1.85340235e-004 -6.99469092e-005 -5.30586869e-004 3.96638556e-004
      9.23796732e-004 2.86013680e-003 1.49439077e-003 -1.92098902e-003
      -1.89005386e-003 -1.52616674e-004 6.12061413e-004 -7.75059627e-004
      -7.11276254e-004 3.37202277e-004 2.00385274e-003 1.97515055e-003
      -1.62460189e-003 -1.45007286e-003 7.23229605e-004 8.10808269e-004
      -3.44865373e-004 7.53807195e-004 2.19366699e-003 2.06507719e-003
      2.93371035e-003 -1.53820461e-003 -1.55940873e-003 4.51770029e-004
      4.93286498e-005 -2.89804302e-004 -1.25694060e-004 1.84430066e-003
      2.22309679e-003 2.32271338e-003 -1.47079758e-003 -4.07533394e-003
      -6.69611676e-004 4.24144200e-005 -9.91655514e-004 -1.10614092e-004
      1.00803666e-003 3.22587066e-003 1.98750338e-003 -2.90867058e-003
      -3.62879923e-003 -9.26480498e-005 8.70216696e-004 7.14242691e-004
      3.15517100e-004 1.79911323e-003 3.25758266e-003 1.27059955e-003
      -2.57588923e-003 -3.70623823e-003 -5.60938788e-005
      -7.14368362e-004 4.50694788e-004 5.09695616e-004 2.35600071e-003
      4.21691220e-003 1.42749387e-003 -3.06623103e-003 -3.77334259e-003
      -1.19258871e-003 -1.56566058e-003 7.01208657e-004 1.58530695e-003
      2.98045063e-003 4.78751818e-003 1.65998610e-003 -2.72994186e-003
      -3.08811967e-003 -3.81377351e-004 -1.81824198e-005 5.92176395e-004
      1.25654286e-003 2.33181287e-003 4.61910712e-003 1.67031016e-003
      -2.29862705e-003 -2.84235203e-003 3.07700364e-004 4.64017969e-004
      4.90676088e-004 -5.25305222e-004 9.27985995e-004 2.49516102e-003
      1.05966209e-003 -2.09173863e-003 -1.32598006e-003 5.87895920e-004
      2.50541110e-004 -8.14945728e-004 -6.12122356e-004 1.10534218e-003
      2.28186441e-003 1.56392436e-003 -1.65834976e-003 -2.20558839e-003
      4.34694193e-005 2.97090592e-004 -1.53369896e-004 4.21533405e-005
      1.09170005e-003 2.33428297e-003 1.58667064e-003 -1.62717095e-003
      -2.68863584e-003 -3.72434472e-004 1.33247196e-003 7.72357045e-004
      9.72596870e-004 1.63379905e-003 1.96581800e-003 3.60061124e-004
      -2.38239882e-003 -1.95830176e-003 -4.39708936e-004 7.11379515e-004
      6.04363915e-004 5.81079978e-004 6.75310555e-004 1.54579396e-003
      6.03257969e-004 -1.62613939e-003 -1.27378164e-003 5.49643650e-004
      -5.75835467e-004 -8.62777582e-004 1.34897724e-004 1.32238993e-003
      2.52209115e-003 1.13740878e-003 -9.83050093e-004 -1.40346331e-003
      -3.46882851e-004 -5.14319108e-004 -9.87319043e-004
      -3.19242507e-004 1.44941255e-003 2.55199405e-003 7.59430346e-004
      -7.39235606e-004 -1.80408196e-003 -6.17380865e-005
      -2.80050910e-004 -9.56410600e-004 -1.11505215e-004 6.18679973e-004
      1.04627619e-003 1.32368796e-003 -1.62238826e-003 -1.12378504e-003
      1.36253904e-004 1.81414638e-004 -1.76825747e-003 -9.69863089e-004
      -2.50193087e-004 1.38753816e-003 1.94961042e-003 -9.56048723e-004
      -1.46699196e-003 1.06952328e-003 6.94234215e-004 -6.69914065e-004
      1.13499060e-003 1.36256928e-003 2.19324348e-003 2.86384881e-003
      -1.85163086e-003 -2.35253433e-003 5.25953306e-004 -8.40959401e-005
      -4.34350019e-004 -1.98774083e-004 1.03520986e-003 2.53708777e-003
      2.27268878e-003 -1.36656780e-003 -4.13406594e-003 -4.24314610e-004
      7.84614356e-004 -2.44538614e-006 3.08528513e-004 1.26165408e-003
      3.47842718e-003 1.72980200e-003 -3.24846781e-003 -3.34632816e-003
      2.82404188e-004 1.13442866e-003 9.53689741e-004 4.05928527e-004
      1.85885420e-003 3.19923973e-003 1.43870933e-003 -2.93105375e-003
      -3.12542845e-003 2.02326788e-004 -7.14368594e-004 1.57291055e-004
      1.07644149e-003 2.62220390e-003 3.45092732e-003 2.06641247e-003
      -2.52345554e-003 -3.29846819e-003 -9.77719435e-004
      -1.22684764e-003 -2.13567342e-004 1.88863324e-003 3.34638520e-003
      4.66240337e-003 2.12546228e-003 -2.24226434e-003 -2.70895357e-003
      1.86948659e-004 9.29805901e-005 1.18130461e-004 1.17029843e-003
      1.86260440e-003 4.44826344e-003 2.04655062e-003 -2.22842325e-003
      -2.39647110e-003 2.20071423e-004 8.12296581e-004 3.77230637e-004
      -5.54706668e-004 7.85358134e-004 2.34223180e-003 9.55959840e-004
      -2.10425281e-003 -1.60549709e-003 2.44405732e-004 4.80070099e-004
      3.06443762e-005 5.90924930e-004 2.33067852e-003 2.51537864e-003
      3.13099311e-003 -4.80305898e-004 -1.63593213e-003 4.60927658e-005
      6.74836047e-004 -5.40687353e-004 2.43806237e-004 1.31477055e-003
      2.26573856e-003 3.00660124e-003 -1.16388139e-003 -3.27822380e-003
      -1.57784659e-003 -3.61933664e-004 -6.66202919e-004
      -7.03433878e-004 1.10983301e-003 3.22488812e-003 2.10621487e-003
      -1.70959579e-003 -3.11666494e-003 -1.09167106e-003 1.03906168e-004
      8.73289318e-005 9.12947580e-005 1.68640155e-003 3.63959721e-003
      1.50263298e-003 -1.98176992e-003 -3.67185404e-003 -9.09153954e-004
      -1.15983468e-003 -7.81393173e-005 -3.02542379e-004 1.41598342e-003
      4.12273640e-003 1.52115291e-003 -3.44910868e-003 -3.63694481e-003
      -2.02607596e-003 -1.87816506e-003 1.13442322e-004 6.71842601e-004
      1.89672923e-003 3.83166410e-003 1.88195589e-003 -2.66288640e-003
      -3.60218366e-003 -1.85862021e-003 -3.08914023e-004 5.68054442e-004
      1.10277021e-003 2.50108750e-003 3.76275880e-003 1.33726629e-003
      -2.70894915e-003 -2.70127272e-003 -6.81755017e-004
      -3.56888137e-004 -5.62627451e-004 -1.26520768e-004 1.17439311e-003
      3.36287729e-003 1.85508863e-003 -1.45304739e-003 -5.26153948e-004
      5.86839684e-004 2.41119014e-005 -1.88740858e-004 -8.52576923e-004
      1.83375773e-003 2.66508129e-003 3.05794692e-003 6.86336833e-004
      -1.37110485e-003 -5.23248338e-004 -4.78180766e-004
      -6.39424761e-005 -6.60420686e-004 1.76732219e-003 2.93423049e-003
      2.18866812e-003 -1.23387133e-003 -2.96381279e-003 -2.85366463e-004
      -8.43715505e-004 -5.92627272e-004 6.34506112e-004 1.96599169e-003
      4.74265078e-003 3.08358180e-003 -1.06805912e-003 -3.40814027e-003
      -9.79780918e-004 -6.57517638e-004 -5.55759994e-004
      -1.86798454e-004 5.40147419e-004 4.89962054e-003 3.32176639e-003
      -1.37295190e-003 -4.81658243e-003 -1.12316210e-003
      -1.31310837e-003 -9.02545929e-004 3.62189967e-005 8.05290998e-004
      4.81188251e-003 3.55482916e-003 -3.38338176e-003 -4.58918139e-003
      -1.85673824e-003 -1.41983177e-003 -9.12188378e-004 1.25055725e-003
      2.56340555e-003 5.02856076e-003 3.57632316e-003 -3.88106727e-003
      -5.48525946e-003 -2.66189827e-003 -6.42014202e-004 5.94246194e-006
      1.28165935e-003 2.63871369e-003 4.22104355e-003 2.39755260e-003
      -4.06572688e-003 -4.27924376e-003 -1.47374475e-003
      -8.49636970e-004 -3.85247666e-004 1.03852991e-003 1.63690827e-003
      4.28294577e-003 2.68568215e-003 -3.30791227e-003 -1.51373865e-003
      4.45946556e-004 7.83449213e-004 -2.58332992e-004 3.89918132e-004
      2.30299518e-003 2.28656200e-003 3.23330122e-003 -1.27335999e-003
      -1.24247372e-003 3.16224294e-004 2.26316231e-004 -2.20173068e-004
      -5.53572245e-005 1.92355912e-003 2.25621997e-003 2.73403339e-003
      -1.52710441e-003 -3.74474213e-003 -1.13295275e-003
      -6.98088406e-005 -8.58720276e-004 -5.80269785e-004 1.05846161e-003
      3.01790424e-003 1.96502055e-003 -2.41372478e-003 -3.34572000e-003
      -5.13613340e-004 6.86381187e-004 4.69389925e-004 3.13125522e-004
      1.70812511e-003 3.12466593e-003 1.14201696e-003 -2.16454291e-003
      -3.88418650e-003 -2.35034531e-004 -6.75917137e-004 3.72359616e-004
      3.21575091e-004 2.00534193e-003 4.35426272e-003 1.25606346e-003
      -3.18457466e-003 -3.80676729e-003 -1.48151058e-003
      -1.47977949e-003 7.66649027e-004 1.42615428e-003 2.70147459e-003
      4.59033856e-003 1.22451107e-003 -2.85094557e-003 -3.23323975e-003
      -7.41948432e-004 5.32773010e-005 7.04728125e-004 1.28622749e-003
      2.54618633e-003 4.25961567e-003 1.08291686e-003 -2.39709998e-003
      -2.78541446e-003 2.85315647e-004 4.82688512e-004 4.69784136e-005
      -4.76493413e-004 7.77162146e-004 3.04474938e-003 1.48679549e-003
      -1.99322868e-003 -9.76535899e-004 2.34848223e-004 8.01190836e-005
      -8.50615761e-005 -8.08995799e-004 2.36153207e-003 3.21978237e-003
      3.44927702e-003 6.20528182e-004 -1.71351829e-003 -4.17287752e-004
      1.62095137e-004 -1.74313769e-004 -5.62868721e-004 1.53072155e-003
      2.96313921e-003 3.01525835e-003 -6.93090959e-004 -2.86863395e-003
      -7.58027541e-004 -8.85999179e-004 -4.61157353e-004
      -5.99871215e-004 1.73993746e-003 3.93934082e-003 2.53802561e-003
      -1.36403914e-003 -3.44407000e-003 -1.16815139e-003
      -3.01944267e-004 8.97767532e-005 3.46481334e-004 1.76452182e-003
      4.77821799e-003 2.75320606e-003 -2.02079839e-003 -4.15033614e-003
      -1.48485333e-003 -1.35946344e-003 -6.16755453e-004 2.08965910e-004
      1.25618279e-003 4.59728157e-003 2.64846254e-003 -3.75985540e-003
      -4.05231118e-003 -2.19440623e-003 -2.09286693e-003
      -1.05060695e-003 1.00555737e-003 2.28803977e-003 4.58894297e-003
      2.61000590e-003 -3.40730348e-003 -4.31736885e-003 -2.92317802e-003
      -7.41192373e-004 -9.86142986e-005 9.77910357e-004 2.48188968e-003
      3.50544951e-003 2.30887532e-003 -3.09165730e-003 -3.11221881e-003
      -1.70808577e-003 -1.17462990e-003 -1.19245483e-003 2.51013495e-004
      1.01359806e-003 3.85935721e-003 2.41326331e-003 -1.65189174e-003
      -4.97066882e-004 7.79524911e-004 4.23850084e-004 5.84354391e-004
      -5.33635437e-004 4.21748380e-004 1.09767844e-003 1.34010240e-003
      -1.22051475e-004 -1.04520994e-003 2.23656491e-004 7.70635088e-004
      3.17411963e-004 -6.33154996e-004 9.43480292e-004 1.50912500e-003
      1.07003143e-003 -1.26300845e-003 -1.68659003e-003 4.26692015e-004
      -3.61130718e-004 -7.29806314e-004 6.46308763e-004 2.35932181e-003
      4.54836292e-003 2.77652591e-003 1.02956772e-004 -2.89577735e-003
      -6.52801536e-004 -1.13294343e-003 -6.60826976e-004
      -2.62491027e-004 6.33002608e-004 4.05864092e-003 3.12202121e-003
      -1.09458994e-003 -4.89586731e-003 -5.15496416e-004
      -1.14336074e-003 -1.14109716e-003 -2.53365433e-004 8.24456394e-004
      4.53881361e-003 4.03402885e-003 -2.95944139e-003 -4.87729209e-003
      -1.34477287e-003 -4.40432661e-004 -9.56967007e-004 1.12464326e-003
      2.43719155e-003 4.94097872e-003 3.93281830e-003 -3.29807494e-003
      -5.52590284e-003 -2.18898337e-003 -6.31086703e-004
      -1.54084089e-004 1.17666682e-003 2.14049243e-003 5.21122618e-003
      2.98172561e-003 -4.27730009e-003 -4.85386373e-003 -1.63896591e-003
      -9.55897034e-004 -5.13295352e-004 7.52177089e-004 2.07831548e-003
      4.81839571e-003 2.98153702e-003 -3.69790476e-003 -7.62638811e-004
      -5.99806546e-004 -6.81577134e-004 -5.38691122e-004 2.06098281e-004
      7.93196959e-004 9.76565061e-004 3.44799075e-004 -9.12357413e-004
      -1.35324989e-003 1.28515167e-004 6.99258933e-004 8.08198063e-004
      5.99038030e-004 2.41713700e-004 1.29992596e-003 9.16271296e-004
      -7.07015628e-004 -3.45292618e-004 4.84785618e-004 4.40254022e-004
      -8.24519026e-004 -8.58611078e-004 9.27166024e-004 2.28164741e-003
      1.99433719e-003 3.48795496e-004 -1.99486595e-003 -4.02462261e-004
      -1.30008033e-003 -9.97584430e-004 -6.42707862e-004 1.49646192e-004
      3.06169735e-003 2.50417483e-003 1.92879626e-004 -4.99749184e-003
      -2.65010120e-003 -1.22973428e-003 -7.18238647e-004 4.33514768e-004
      2.59941909e-003 4.64088703e-003 3.50258593e-003 -2.07527401e-003
      -4.43591736e-003 -2.37914221e-003 -5.70167147e-004
      -1.00781955e-003 -1.69196515e-004 2.86787306e-003 4.32573911e-003
      2.89403531e-003 -2.07802234e-003 -3.38514056e-003 -1.65288302e-003
      -1.41740951e-003 -1.02316402e-003 4.05782135e-004 1.03130878e-003
      5.11389878e-003 2.39468878e-003 -2.23740609e-003 -3.34227295e-003
      -2.12605507e-003 -1.47318712e-003 -1.58105604e-003 2.18134664e-004
      1.93450996e-003 5.13108494e-003 3.20947450e-003 -1.51822763e-003
      -3.08442104e-004 8.06725468e-004 2.89578049e-004 6.50517468e-005
      -6.05339766e-004 1.25895056e-003 2.06182990e-003 2.48746783e-003
      6.64328865e-004 -1.08154153e-003 -2.91331875e-004 -3.29587230e-004
      1.65588528e-004 -7.70187937e-004 1.54391408e-003 2.26662937e-003
      1.75970397e-003 -1.22961681e-003 -2.66342331e-003 -8.15209642e-005
      -7.30388623e-004 -6.48785674e-004 6.23112137e-004 2.36986950e-003
      4.97844117e-003 3.10238847e-003 -7.10151973e-004 -3.11558507e-003
      -8.61478446e-004 -7.74078420e-004 -6.04983303e-004
      -5.41845860e-004 4.42293735e-004 4.56737354e-003 3.31288856e-003
      -1.24770624e-003 -4.92872670e-003 -9.76490905e-004
      -1.14059274e-003 -9.60068544e-004 -7.13711052e-005 7.44608464e-004
      4.73329891e-003 3.54679953e-003 -3.29034054e-003 -4.60566860e-003
      -1.58002996e-003 -1.13760831e-003 -8.07181117e-004 1.27295870e-003
      2.31959624e-003 5.21611422e-003 3.68041173e-003 -3.50658875e-003
      -5.64221991e-003 -2.47006537e-003 -6.25931250e-004
      -4.81481766e-005 1.32514047e-003 2.49384786e-003 4.65157721e-003
      2.69326544e-003 -4.41888673e-003 -4.56063636e-003 -1.43763097e-003
      -7.63444870e-004 -3.15004843e-004 1.32283685e-003 1.93494884e-003
      4.55117878e-003 2.78911320e-003 -3.74991121e-003 -6.71661692e-004
      -5.67497846e-005 5.65601886e-006 -3.09473602e-004 2.33831321e-004
      5.84125053e-004 4.65361489e-004 -6.70896989e-005 -9.92746092e-004
      -1.43208774e-003 -1.37125580e-005 1.15198409e-003 4.98649955e-004
      1.23170874e-004 4.25619510e-004 1.63478195e-003 6.49834692e-004
      -1.07563543e-003 -5.75510145e-004 7.12628709e-004 5.40016685e-004
      -9.82721918e-004 -6.38023703e-005 1.47089129e-003 2.79908371e-003
      1.75145629e-003 5.72048128e-004 -2.32864521e-003 -2.33743340e-004
      -1.12934085e-003 -8.29530123e-004 -1.93339045e-004 6.56824326e-004
      3.43712489e-003 2.15522759e-003 -3.95183684e-004 -5.05189644e-003
      -1.32776226e-003 -1.15662778e-003 -9.09084745e-004
      -1.03985461e-004 1.86629384e-003 4.39776573e-003 3.67421284e-003
      -2.25653779e-003 -4.85572312e-003 -1.86637288e-003
      -5.06197743e-004 -6.95726019e-004 2.40317037e-004 3.00291413e-003
      4.60116798e-003 3.17609869e-003 -2.57526967e-003 -3.94333294e-003
      -1.54184108e-003 -5.56195911e-004 -7.90915161e-004 5.83752058e-004
      1.25600537e-003 5.31247538e-003 2.03088555e-003 -3.17669241e-003
      -3.67178675e-003 -1.47527934e-003 -1.68425229e-003
      -1.86150789e-003 -5.97009494e-005 1.46575621e-003 5.05091436e-003
      2.53991457e-003 -2.34030071e-003 -8.43368703e-004 -1.06118829e-003
      -7.62409822e-004 -1.09819893e-003 -2.69275159e-004 2.84782640e-004
      7.81273877e-004 9.77574382e-004 -5.43156464e-004 -5.41424786e-004
      2.29863377e-004 3.34404729e-004 3.91570706e-004 3.34162323e-004
      3.34876007e-004 1.14383700e-003 2.08062562e-003 -9.29502639e-005
      2.04962853e-005 6.10215357e-004 6.79203891e-004 3.31907620e-004
      -7.91660510e-004 -4.56221780e-004 1.53557654e-003 2.07334501e-003
      -1.18527249e-004 -7.05647632e-004 -1.04895604e-004
      -7.71789521e-004 -5.13109611e-004 -3.63035389e-004
      -5.35705651e-004 2.43162131e-003 2.38619046e-003 3.58961028e-004
      -3.87109420e-003 -2.89719901e-003 -1.67305220e-003
      -1.28740596e-003 3.99183482e-004 2.21182429e-003 4.76184068e-003
      4.01273742e-003 -7.27869396e-004 -3.76901939e-003 -2.58509931e-003
      -9.47828754e-004 -1.83919107e-003 -3.45979701e-004 1.45022559e-003
      3.69112124e-003 3.81345954e-003 -7.28643383e-004 -2.99915136e-003
      -2.37557548e-003 -1.41570577e-003 -1.51100988e-003
      -2.63684691e-004 1.08354609e-003 3.98688810e-003 3.12936329e-003
      -7.54061039e-004 -2.23510270e-003 -2.49696570e-003
      -1.55594747e-003 -1.88596675e-003 -4.18310985e-004 1.67218107e-003
      4.50236863e-003 4.25136974e-003 -4.23111749e-004 -5.90053911e-004
      -6.29935821e-004 -5.69698517e-004 -1.16052490e-003
      -3.89719848e-004 8.77189857e-004 5.05066186e-004 1.66462758e-003
      5.24504343e-004 3.61545477e-004 -2.56152889e-005 -6.62977342e-004
      -3.50885020e-005 4.13663220e-004 1.66773185e-004 7.36264512e-004
      1.78342627e-003 4.88894817e-004 -4.93305328e-004 1.01618655e-003
      1.43392070e-003 5.34081890e-004 -3.89717839e-004 -9.33862117e-004
      5.09096484e-004 1.43648044e-003 4.45451624e-005 -7.77259935e-004
      9.58257297e-004 5.91237855e-004 -7.94133521e-005 -4.53039975e-005
      -6.77039032e-004 4.29261854e-004 1.31010881e-003 -5.39560206e-005
      -1.67066581e-003 -1.53366989e-003 -1.03037828e-003
      -1.13628583e-003 -5.08026205e-005 4.46082617e-004 2.30237190e-003
      2.62663770e-003 3.81834943e-005 -2.35303934e-003 -2.42277118e-003
      -1.87558751e-003 -2.06742110e-003 -8.22347181e-004 1.15534256e-003
      2.67194072e-003 2.77825957e-003 -2.38579596e-004 -2.43640947e-003
      -3.13347229e-003 -2.37157219e-003 -1.82360900e-003
      -1.67819252e-003 1.06503034e-003 4.26174840e-003 5.43581136e-003
      6.57936034e-004 -2.41840933e-003 -2.93451198e-003 -3.15807457e-003
      -2.66884826e-003 -2.15715333e-003 -3.77942459e-004 3.02349729e-003
      4.44575958e-003 -2.64772505e-004 -6.71989401e-004 -7.38992530e-004
      -7.85657088e-004 -6.65231200e-004 1.26683371e-004 5.91124408e-004
      9.78616648e-004 6.14224991e-004 -7.22970231e-004 -1.11765414e-003
      2.64973380e-004 7.10576947e-004 5.04736789e-004 3.82674683e-004
      1.92865715e-004 1.21220946e-003 1.44002400e-003 -4.00332268e-004
      -2.59162480e-004 4.63227159e-004 3.14264005e-004 -5.46577154e-004
      -8.25511524e-004 4.86454082e-004 2.06378754e-003 2.15275912e-003
      2.03393822e-004 -1.53929449e-003 -2.57555774e-004 -1.48314179e-003
      -1.15304103e-003 -6.99834025e-004 -3.36139812e-004 2.93379417e-003
      2.56609963e-003 4.18867043e-004 -4.73300135e-003 -3.11395014e-003
      -1.32343580e-003 -9.56843258e-004 4.59485687e-004 2.58804718e-003
      4.67382837e-003 3.56357079e-003 -1.65418827e-003 -4.20472585e-003
      -2.51578214e-003 -3.60447564e-004 -1.29890931e-003
      -2.34753737e-004 2.11802567e-003 3.95857822e-003 3.35209910e-003
      -1.51131721e-003 -3.21714487e-003 -1.61432114e-003
      -1.36519340e-003 -1.26059167e-003 2.45255011e-004 1.12099538e-003
      4.71034879e-003 2.59356736e-003 -1.78847637e-003 -3.13621713e-003
      -2.45706621e-003 -1.32267107e-003 -1.63747836e-003 2.44776485e-004
      2.16784654e-003 4.81715007e-003 3.58603639e-003 -1.03225780e-003
      -6.08169939e-004 -8.58808868e-004 -2.47486605e-004
      -1.13611692e-003 -7.91187806e-004 5.52981161e-004 8.39091008e-005
      1.68682262e-003 4.41375887e-004 2.70684191e-004 -6.01908134e-004
      -1.56251292e-004 6.90184126e-004 2.89984484e-004 6.60408172e-004
      1.94534819e-004 1.72595750e-003 2.26636184e-004 -3.02509943e-005
      7.28613755e-004 1.33007544e-003 6.35686272e-004 -6.59821730e-004
      -1.07139407e-003 7.50468462e-004 1.23106805e-003 -1.17704867e-005
      -3.35987017e-004 4.20563476e-004 -9.26795383e-006 -3.18350591e-004
      3.17690545e-004 -3.30844341e-004 1.29595620e-003 1.45182060e-003
      4.35385125e-004 -1.90805469e-003 -2.23066658e-003 -1.62193575e-003
      -1.49396795e-003 3.76393291e-004 1.19133934e-003 3.64050758e-003
      3.48280882e-003 1.75711684e-004 -2.83291237e-003 -2.91798776e-003
      -2.17508851e-003 -2.32266705e-003 -7.02885794e-004 9.73748334e-004
      3.02151009e-003 3.34051112e-003 -5.64675101e-005 -2.86852266e-003
      -3.02358973e-003 -2.08460377e-003 -1.92395749e-003
      -1.19596464e-003 1.51567103e-003 4.34180489e-003 4.41225152e-003
      -4.44681655e-006 -1.89792318e-003 -2.77450820e-003
      -2.59510754e-003 -2.49007135e-003 -1.08191883e-003 2.59836786e-004
      4.01444221e-003 4.48656036e-003 -2.82352557e-004 -7.32459710e-004
      9.30257738e-005 -7.63216056e-004 -1.41149259e-003 -1.16750982e-003
      7.63212389e-004 8.31406505e-004 2.66381027e-003 5.44322480e-004
      1.36337214e-004 1.05933240e-003 3.29433649e-004 -3.80296464e-004
      2.68861069e-004 2.70629360e-004 1.11101614e-003 2.25478690e-003
      2.57256383e-004 -5.95154183e-004 1.06516178e-003 1.45343423e-003
      1.01712171e-003 2.69441312e-004 -1.05666310e-004 8.31689453e-004
      2.11613462e-003 5.55477186e-007 -1.06678053e-003 1.30789215e-003
      1.15807087e-003 5.79868793e-004 -3.00155898e-006 -1.42459598e-004
      3.02405999e-004 9.22884734e-004 -3.36549536e-004 -1.60511117e-003
      -6.53680690e-005 -6.22175459e-004 -7.74245302e-004 2.94141828e-005
      6.84290659e-004 1.27266860e-003 1.10574102e-003 -8.75627331e-004
      -1.71705498e-003 -1.54228022e-004 -9.54437477e-004
      -1.06015906e-003 -6.46081869e-004 2.05086684e-003 2.57964875e-003
      1.34530070e-003 -1.08306727e-003 -2.11666408e-003 -2.42314418e-003
      -2.01147678e-003 -8.66883376e-004 -1.33063109e-003 7.35800248e-004
      3.47315753e-003 4.66659665e-003 8.12414917e-004 -2.22762371e-003
      -2.73042358e-003 -2.96148076e-003 -2.11659633e-003
      -2.24826927e-003 -3.74376628e-004 2.53828615e-003 3.09629599e-003
      -6.12402568e-004 1.15488051e-003 1.40224583e-003 1.46117018e-005
      -1.60281349e-003 -2.64297426e-003 -6.31225121e-004 1.41625584e-003
      1.87515141e-003 1.81318820e-003 1.20116735e-003 2.52778572e-003
      2.79859698e-004 -2.04901793e-003 -2.20386940e-003 -8.69731535e-004
      1.52527005e-003 2.65383394e-003 1.77177275e-003 1.77121066e-004
      -3.01167398e-004 -4.38529642e-005 -1.94747350e-004
      -9.52161383e-004 -4.18733805e-004 2.59868684e-004 1.77111721e-003
      7.95507513e-004 -6.07608061e-004 -7.23624835e-004 7.86725665e-004
      3.48744390e-004 -1.83288110e-004 4.20127355e-004 1.26294047e-003
      2.04492034e-003 -1.00366808e-004 -1.27465848e-003 -2.38993045e-004
      -7.36114453e-005 -4.10200970e-004 -4.40378732e-004 4.02562349e-004
      2.00539362e-003 1.89628522e-003 -5.25103707e-004 -1.70161820e-003
      -1.89340572e-004 3.76276585e-004 4.52600070e-004 5.63292881e-004
      1.76003168e-003 2.76914565e-003 1.27293065e-003 -7.90121790e-004
      -2.51202006e-003 -7.94766878e-004 1.22400117e-003 8.36994324e-004
      1.15574640e-003 2.85605411e-003 4.67259344e-003 2.91732862e-003
      -2.24315620e-004 -3.90121806e-003 -2.06681900e-003 1.35512644e-004
      1.31499997e-004 2.71996832e-004 1.70826179e-003 3.45704355e-003
      1.74140965e-003 -2.27051578e-003 -6.47904468e-004 -1.89059443e-004
      -6.32129377e-004 -1.46166130e-003 -5.49535383e-004 1.07462355e-003
      8.08807905e-004 1.89639907e-003 4.37636510e-004 3.34545563e-004
      1.16037372e-004 -4.74306144e-004 -4.13143925e-006 5.17736655e-004
      2.33159488e-004 1.03471510e-003 1.61403266e-003 4.33652836e-004
      -4.37630719e-004 1.02495519e-003 1.51144422e-003 8.26914620e-004
      -1.25275459e-004 -8.38590029e-004 6.65562227e-004 1.62125879e-003
      1.14758877e-004 -8.94342375e-004 1.09040970e-003 8.75958533e-004
      1.29699663e-004 -3.03432578e-004 -5.11348015e-004 -9.44117564e-005
      1.42645894e-003 -1.27525534e-004 -1.53396116e-003 -1.09851267e-003
      -6.48490677e-004 -9.56418982e-004 -3.29429517e-004 4.87334364e-005
      1.59681309e-003 2.26387009e-003 -2.49860932e-005 -1.70361961e-003
      -1.87389867e-003 -1.30335276e-003 -1.98551547e-003
      -1.13541761e-003 1.52408332e-003 2.50946102e-003 2.52097915e-003
